tree
version=v4
num_class=1
num_tree_per_iteration=1
label_index=0
max_feature_idx=8
objective=regression
feature_names=carat cut color clarity depth table x y z
feature_infos=[0.20000000000000001:5.0099999999999998] -1:5:4:3:2:1 -1:4:2:3:5:1:6:7 -1:3:4:2:5:6:7:8:1 [43:73.599999999999994] [44:73] [3.73:10.74] [3.6800000000000002:58.899999999999999] [2.3100000000000001:8.0600000000000005]
tree_sizes=7930 7357 7275 7124 7062 7466 7268 8032 7133 7602 8054 7325 7330 7969 7565 7626 7932 8286 7818 8086 6956 7460 8233 8224 8269 7705 8072 8308 8077 8298 8278 7088 7591 8133 8235 7755 8054 8208 7674 8200 8110 8075 8199 8183 8197 8097 8028 8285 7823 8205 8146 8161 8112 8292 8224 8214 8209 8164 8248 8295 8187 8162 8144 8216 8186 8287 8182 8170 8157 8107 8116 8160 8159 8201 8201 8066 8147 8153 8082 8148 8201 8151 8288 8274 8048 8187 8060 8143 8115 8153 8086 8135 8159 8107 8086 8079 8089 8149 8077 8105 8227 8090 8084 8070 8177 8251 8211 8059 8065 8059 8139 8130 8090 8148 8108 8267 8097 8009 8121 8122 8064 8100 8266 8162 8076 8060 8014 8018 8012 8106 8102 7836 8025 8102 8048 8115 8124 8192 8075 8000 8099 7974 8092 8088 7984 8075 8205 8116 8134 8121 8038 8035 8157 7950 8017 8085 8023 8094 8249 8006 7997 7989 8002 7967 8106 7986 8085 8159 8160 7955 7820 8000 8038 7951 7961 8019 8020 8018 8125 8190 8044 6525 7959 7893 8040 8214 7433 7567 8010 7989 7995 7574 5004 6328 8055 7422 7531 8074 8049 8020 7784 8028 5804 8058 8004 8044 7908 8039 8029 8175 6574 7324 6583 6801 8130 7412 7335 8080 8139 5832 8070 8157 7864 8161 7839 8167 5164 7344 8264 7611 8180 7690 6269 6441 6468 7773 8100 7321 7937 7041 6066 7909 7988 8041 8120 8060 6459 6302 5399 6593 6365 8083 5635 6985 8089 4288 3606 6504 5876 3640 6400 4114 4910 8085 6905 7267 6581 6473 3112 7052 6412 4580 6471 2887 5652 6359 6354 5278 5912 6291 5987 6112 6848 5839 3709 6896 4514 6664 6418 6526 4812 5776 5919 5272 5218 5727 6737 5541 5782 6189 6034 5788 4133 4564 5940 4543 7035 5371 5788 2374 3119 4557 5908 5390 3981 7124 5290 5385 4015 4890 2624 6437 6501 1458 6498 5254 2118 5525 2370 5749 5151 5363 7073 1792 5046 4497 6820 4999 5883 1985 4775 4090 2711 5621 4710 4696 4089 4059 1485 4084 3176 3406 1304 3600 2773 5084 2707 2287 6918 2112 2499 2852 4212 4532 1130 5854 3640 3170 4231 4698 2098 3158 4213 3642 1116 3628 2110 5183 2255 2541 3896 1375 7297 1981 7949 5466 2230 8048 4953 3493 3812 3281 4233 4393 3082 4279 1804 3023 4475 4553 5400 5026 2855 1288 3027 2806 1644 2261 1305 1287 5143 4709 3516 3026 3154 4621 8168 3205 3469 8040 2897 5166 3087 1785 2451 1462 5865 1623 1627 5496 2350 3457 6231 2435 3016 2089 2743 1382 4679 4932 4967 3385 1114 1191 4009 5854 1528 1462 7227 3171 4285 3710 4497 2851 4513 1269 3259 4125 2715 3184 6458 1216 1536 6780 5427 3012 2114 5187 3603 4537 2754 2694 2708 1204 2094 1212 4951 1820 6486 5732 1977 4759 1709 2514 1116 5470 2509 2088 2516 2126 1780 1977 5129 1617 1775 2849 3070 2506 1296 1287 2042 2522 2144 3227 1708 1765 3802 3327 1314 3577 3003 4870 3347 2883 4542 1703 5757 2951 1798 1289 6982 3067 2541 5458 3898 3047 3965 2862 2653 3293 1473 1372 2924 2649 3285 1445 1209 1394 3431 4341 3429 3831 3442 3189 1621 1791 2180 3208 2179 4172 1368 1464 1613 1622 3037 3034 1839 2667 3795 2191 1454 1646 2268 3257 1281 3251 1357 1876 6829 2855 2318 2101 1630 2290 2375 1765 2268 1201 4016 2174 4968 3849 1448 2650 4718 6450 6481 1628 1719 3196 3004 4033 2037 2739 3763 2507 2101 2731 2521 4413 1956 1919 1534 1378 2155 3197 2488 1538 2206 1793 1640 3443 2020 2971 1538 2826 1771 2206 5508 2820 2457 3487 3201 2409 1846 1691 1702 2190 4696 2416 2652 1803 2000 1300 1915 1458 1691 2126 2176 1602 1357 2210 1200 1696 2265 1863 1692 1198 1097 1189 1617 2113 2100 1287 1940 2588 2345 2768 5026 1943 2711 1526 1629 1524 4503 3603 1378 2876 2427 2209 1864 4280 3742 3604 2065 1799 2163 1783 2354 2740 1197 1450 1780 3180 2997 1865 1371 1555 1766 1280 2101 3323 2573 3062 1879 1189 2583 1113 1115 1180 2272 1266 1190 1040 3130 2321 1121 2956 1552 2903 2105 1205 1222 2508 1202 1377 2554 1929 1696 2984 1112 1182 1994 1107 3508 3364 1958 3074 2179 1915 2103 1932 1452 1691 1737 1676 2841 2564 2633 2178 1847 1771 1847 2716 1921 4044 3699 1273 1207 1269 1293 1684 1436 1941 1349 1935 1865 2825 2012 1927 2105 1371 2088 4095 1947 4826 1452 2567 2794 2821 1536 2502 2503 1860 2102 1360 1864 1187 1272 1111 1366 1196 1364 1951 1275 3469 2333 1785 2365 1965 2358 1629 2076 3210 3447 1618 2645 3301 3346 2444 1614 1253 1665 1664 1431 2189 5640 1185 2027 1665 1515 1446 2746 1423 1455 1617 1417 1266 2182 1522 3407 1847 1933 1443 2767 2016 2302 1365 2653 1836 1443 1945 1692 1441 1628 2852 2431 1553 1774 1776 1424 1539 1443 1256 1704 1450 1530 1033 1602 1458 3031 1779 2645 3068 2322 2330 2820 2122 2659 3045 1868 2103 1933 3539 2078 2575 1697 2883 2643 4001 2345 1423 3176 2629 2122 1840 1756 1113 1681 1955 5401 2276 2566 6322 3974 2013 2184 1429 2275 1739 1584 4005 4811 6105 4094 2009 1539 1766 2025 1362 1427 1595 2342 1570 1843 1985 2039 2267 1372 1854 2584 1361 2363 1443 2015 1947 1546 1791 2442 2004 1750 2069 1430 1376 2155 1626 1618 1521 2182 1437 1342 1192 1528 1427 1343 1766 1103 1098 1428 1866 2234 2258 1455 1861 2396 2645 3112 1678 1263 2082 2378 2741 2290 2026 2158 4101 4645 6372 1302 1526 2486 3768 1780 1192 1189 1757 2046 1906

Tree=0
num_leaves=95
num_cat=7
split_feature=6 6 6 6 3 6 6 3 3 8 4 8 6 3 8 6 8 3 8 6 6 4 8 3 6 4 3 6 6 6 6 8 6 8 8 8 4 8 4 6 8 6 8 8 6 6 8 6 8 4 4 6 6 4 6 6 8 8 4 8 4 6 4 8 6 6 4 6 8 6 6 4 8 4 4 6 4 8 4 4 4 8 8 4 4 4 8 4 6 8 8 4 4 4
split_gain=1.1413e+11 3.35704e+10 8.55289e+09 5.18469e+09 4.55635e+09 1.27359e+09 9.75923e+08 9.2834e+08 4.59795e+08 3.90784e+08 3.74485e+08 3.1859e+08 2.46975e+08 2.37686e+08 2.52899e+08 1.94147e+08 1.74477e+08 1.64154e+08 1.46806e+08 1.37153e+08 1.20227e+08 1.17766e+08 9.13383e+07 8.67249e+07 7.0616e+07 6.20526e+07 5.98827e+07 5.45391e+07 5.4073e+07 5.33348e+07 3.74695e+07 3.58304e+07 3.54778e+07 3.50994e+07 3.06704e+07 2.61612e+07 2.497e+07 1.95104e+07 1.93133e+07 1.93117e+07 1.63852e+07 1.43807e+07 1.26109e+07 1.22586e+07 1.18438e+07 1.07666e+07 1.0207e+07 1.02031e+07 9.94794e+06 9.89262e+06 1.35005e+07 9.77403e+06 9.0346e+06 8.67954e+06 1.24777e+07 8.3596e+06 6.74949e+06 6.60684e+06 5.72893e+06 5.26573e+06 4.9104e+06 4.59993e+06 4.33044e+06 8.28395e+06 3.87775e+06 3.55549e+06 3.06706e+06 3.0517e+06 2.99583e+06 3.30506e+06 2.99566e+06 2.77561e+06 2.46173e+06 2.40678e+06 2.38283e+06 2.24311e+06 2.17777e+06 2.15618e+06 2.02392e+06 1.92697e+06 1.79057e+06 1.67389e+06 1.55928e+06 1.54388e+06 988805 815504 788660 601683 518125 471088 431157 367143 327290 83941.7
threshold=6.3550000000000013 7.1950000000000012 5.5650000000000004 7.7950000000000008 0 6.0450000000000008 4.955000000000001 1 2 4.205000000000001 63.650000000000013 4.3950000000000005 7.535000000000001 3 3.9450000000000007 6.955000000000001 4.205000000000001 4 4.9450000000000012 6.6150000000000011 7.0150000000000006 63.250000000000007 4.6250000000000009 5 6.6550000000000011 63.550000000000004 6 4.5950000000000006 8.4450000000000021 7.2650000000000006 5.2650000000000006 3.9650000000000003 5.6850000000000014 3.6450000000000005 4.1350000000000007 4.0450000000000008 63.050000000000004 4.0050000000000008 61.95000000000001 6.4350000000000014 3.6350000000000002 6.205000000000001 3.8850000000000002 3.8850000000000002 6.9150000000000009 4.3050000000000006 4.1850000000000014 6.1150000000000011 3.9250000000000003 60.650000000000013 62.45000000000001 6.9150000000000009 5.0750000000000011 61.050000000000004 6.1650000000000009 5.6650000000000009 3.2750000000000004 4.0150000000000006 62.550000000000004 3.8350000000000004 62.650000000000013 5.9450000000000012 62.250000000000007 3.5550000000000002 6.3950000000000005 5.455000000000001 62.95000000000001 4.705000000000001 3.4650000000000003 5.785000000000001 5.9250000000000007 62.750000000000007 3.0850000000000004 61.45000000000001 62.650000000000013 6.8450000000000006 61.95000000000001 3.4950000000000006 63.350000000000001 62.050000000000004 62.650000000000013 3.9850000000000008 4.245000000000001 61.750000000000007 61.850000000000001 62.45000000000001 3.5550000000000002 63.050000000000004 5.205000000000001 4.1650000000000009 3.2150000000000003 62.45000000000001 62.250000000000007 63.150000000000013
decision_type=2 2 2 2 1 2 2 1 1 2 2 2 2 1 2 2 2 1 2 2 2 2 2 1 2 2 1 2 2 2 2 2 2 2 2 2 2 2 2 2 2 2 2 2 2 2 2 2 2 2 2 2 2 2 2 2 2 2 2 2 2 2 2 2 2 2 2 2 2 2 2 2 2 2 2 2 2 2 2 2 2 2 2 2 2 2 2 2 2 2 2 2 2 2
left_child=2 4 6 11 8 23 27 15 16 17 18 -3 21 26 53 24 39 34 -5 37 36 29 -14 33 48 -16 31 45 58 -13 52 47 87 55 43 42 51 -10 -24 -2 62 66 -19 -9 -18 -1 -21 -7 -6 -31 -51 82 -8 -15 -55 93 90 -41 -20 -49 -61 -35 63 77 -45 74 -28 -29 -57 85 -42 79 -54 -37 -58 89 -43 -34 -78 -50 88 -44 -11 -59 -65 -70 -71 92 -74 -26 -32 -75 -25 -4
right_child=1 3 5 10 7 13 30 9 19 20 -12 12 22 14 25 -17 44 35 28 46 -22 -23 38 32 75 -27 41 67 -30 49 56 -33 40 61 -36 73 -38 -39 -40 57 70 76 81 64 -46 -47 -48 59 71 50 -52 -53 72 54 -56 68 65 83 -60 60 -62 -63 -64 84 -66 -67 -68 -69 69 86 -72 -73 80 91 -76 -77 78 -79 -80 -81 -82 -83 -84 -85 -86 -87 -88 -89 -90 -91 -92 -93 -94 -95
leaf_value=3884.7902097209972 3988.9819646443375 4024.4825980294167 3913.7753179542283 4125.2224215774022 3975.2695902184178 3939.0729307343049 3899.319635329126 3955.9143811415011 4030.1350434031756 3975.9019570158962 4092.8580466109315 4049.6747259267536 4064.932443117581 3945.3655826373219 3999.0804971785142 4020.7956596712893 4018.7054456866458 3940.3118343064839 4148.9006182843077 4056.4449291000547 3998.1641171074566 4040.5951481660327 4101.846113194887 3921.3798001277755 3992.9036865789367 3971.6730063647124 3935.8229802185242 3889.8191909740385 4166.1206397362039 4077.237893076217 3903.7704858416396 3959.7034177909286 3925.923754030202 3922.7598912857329 3977.1630360073491 3958.7479668067322 3962.7066950877556 4045.7765707240346 4085.5651571480148 3996.5345662494033 3933.8806974091826 3938.2076884949802 3948.2261708750789 3960.5450840637786 4032.2331561652436 3887.629991374884 4069.2053268849086 3943.4938708102422 3983.6656876793932 4065.0400163194931 4075.7423066801261 3983.0842848437242 3899.0749339034396 3949.6566953562874 3959.9187082511185 3913.7842504015907 3909.7086827257685 4007.8526933192406 4135.1445907282487 3953.3459584013908 3945.9115641385119 3928.9704393604193 3924.6825102631387 3932.316555975226 3965.96385256127 3912.9994941260306 3930.1939609172641 3892.2439993862831 3917.9130445321148 3918.8452161495698 3939.4705047424009 3980.0028754275527 3903.7986557734484 3955.514907710728 3904.6791805749972 4001.474971766726 3945.0484272482663 3929.403521161978 3940.2009294793534 3988.387931344635 3901.4587049278912 3950.9485402016708 3971.329690834219 4001.2982203733154 3935.5775605837989 3914.9746468359372 3921.9275942743147 3920.0260706070917 3905.6311750989371 3997.7223508870516 3906.8221689114166 3953.5349010362638 3924.0143523724087 3910.9191105264022
leaf_weight=719 51 53 70 118 51 56 222 52 64 75 54 59 52 51 54 68 50 55 208 67 89 65 82 56 55 53 70 387 78 81 75 78 96 71 67 73 52 67 80 61 63 50 141 52 64 1793 87 59 110 292 83 58 52 93 64 57 218 61 72 64 51 91 59 77 331 107 58 854 192 67 61 50 488 83 50 53 57 172 53 70 130 150 56 54 55 65 95 63 218 62 140 60 63 52
leaf_count=719 51 53 70 118 51 56 222 52 64 75 54 59 52 51 54 68 50 55 208 67 89 65 82 56 55 53 70 387 78 81 75 78 96 71 67 73 52 67 80 61 63 50 141 52 64 1793 87 59 110 292 83 58 52 93 64 57 218 61 72 64 51 91 59 77 331 107 58 854 192 67 61 50 488 83 50 53 57 172 53 70 130 150 56 54 55 65 95 63 218 62 140 60 63 52
internal_value=3945.04 4023.93 3905.88 4095 3985.38 3933.73 3893.44 3971.19 4027 3963.27 4138.88 4067.5 4070.35 3950.46 3962.71 3991.7 4006.52 3958.13 4144.03 4048.52 3980.4 4064.14 4087.06 3923.74 3988.31 3985.58 3943.7 3888.35 4150.12 4067.07 3904.69 3949.12 3928.88 3919.13 3965.47 3951.09 3973.79 4038.28 4094 3999.16 3930.83 3937.96 3948.15 3964.13 4026.44 3886.81 4063.81 3945.7 3982.75 4069.27 4067.48 3976.82 3902.74 3951.78 3953.85 3916.79 3908.39 4002.05 4145.51 3947.83 3950.06 3926.22 3929.27 3929.96 3965.24 3909.94 3933.25 3891.48 3917.9 3918.48 3936.62 3984.38 3903.6 3956.08 3908.74 3997.46 3941.29 3928.14 3942.71 3985.55 3903.89 3949.63 3973.99 4004.88 3933.66 3917.15 3920.62 3921.77 3904.35 3995.55 3905.72 3954.7 3922.74 3912.5
internal_weight=11805 3916 7889 1377 2539 2436 5453 1913 626 1394 530 847 794 911 315 519 341 1064 476 285 330 580 214 1525 451 107 596 3753 358 515 1700 308 765 760 502 562 241 131 162 227 583 288 346 435 114 2512 154 230 281 456 375 189 1110 208 157 598 590 176 280 174 115 162 459 400 383 375 128 1241 476 419 124 230 888 216 268 170 160 268 110 180 836 291 131 115 132 257 162 182 706 117 215 143 119 122
internal_count=11805 3916 7889 1377 2539 2436 5453 1913 626 1394 530 847 794 911 315 519 341 1064 476 285 330 580 214 1525 451 107 596 3753 358 515 1700 308 765 760 502 562 241 131 162 227 583 288 346 435 114 2512 154 230 281 456 375 189 1110 208 157 598 590 176 280 174 115 162 459 400 383 375 128 1241 476 419 124 230 888 216 268 170 160 268 110 180 836 291 131 115 132 257 162 182 706 117 215 143 119 122
cat_boundaries=0 1 2 3 4 5 6 7
cat_threshold=480 16 32 14 8 14 8
is_linear=0
shrinkage=1


Tree=1
num_leaves=86
num_cat=0
split_feature=0 0 0 0 0 0 0 4 0 4 4 5 4 0 4 0 4 0 5 4 0 0 5 4 8 4 4 4 8 0 0 0 4 8 4 5 4 5 5 8 4 5 0 8 5 4 0 4 4 4 4 4 4 5 4 4 8 0 4 4 8 4 5 8 8 8 4 0 0 8 5 4 4 5 8 5 5 4 4 8 4 4 4 4 4
split_gain=1.10719e+11 3.4907e+10 6.17196e+09 4.82774e+09 1.1353e+09 8.23077e+08 6.42414e+08 6.40012e+08 5.26035e+08 2.4712e+08 2.07526e+08 1.76938e+08 1.46303e+08 1.05331e+08 8.27609e+07 6.31421e+07 8.00789e+07 6.21948e+07 6.13298e+07 5.64873e+07 5.85041e+07 5.01152e+07 4.99595e+07 3.19639e+07 2.70016e+07 2.51869e+07 2.39123e+07 2.26778e+07 2.0899e+07 2.07462e+07 2.04931e+07 1.97137e+07 1.82951e+07 1.29016e+07 2.75125e+07 1.25499e+07 1.20874e+07 1.18613e+07 1.16586e+07 1.14814e+07 1.12728e+07 1.06693e+07 9.60471e+06 1.74104e+07 9.46472e+06 8.87737e+06 8.39437e+06 8.34016e+06 7.93348e+06 7.1111e+06 6.60274e+06 6.41868e+06 6.17625e+06 7.13434e+06 6.16723e+06 6.02034e+06 5.98954e+06 5.19238e+06 4.73287e+06 4.54332e+06 4.09565e+06 4.00962e+06 3.89238e+06 3.70961e+06 3.17828e+06 2.99206e+06 2.75658e+06 2.67858e+06 2.23943e+06 2.12982e+06 2.11387e+06 2.11879e+06 1.96755e+06 1.9646e+06 1.79447e+06 1.3353e+06 1.20768e+06 972573 962169 770025 453557 366479 82464.3 457708 39677.7
threshold=0.99500000000000011 1.405 0.60500000000000009 1.8400000000000003 1.1950000000000001 0.45500000000000007 0.85500000000000009 64.050000000000011 1.6150000000000004 63.850000000000001 63.650000000000013 57.050000000000004 63.150000000000013 2.0450000000000004 62.45000000000001 1.0550000000000004 62.150000000000013 0.72500000000000009 58.350000000000001 59.650000000000013 1.5050000000000001 0.37500000000000006 61.95000000000001 60.650000000000013 4.2650000000000006 63.750000000000007 63.050000000000004 62.45000000000001 5.245000000000001 0.69500000000000006 0.52500000000000013 1.135 61.95000000000001 3.9350000000000005 60.150000000000013 55.95000000000001 64.850000000000009 57.95000000000001 59.95000000000001 3.9750000000000005 62.550000000000004 57.150000000000013 1.1050000000000002 4.0650000000000004 59.95000000000001 62.250000000000007 0.29500000000000004 62.350000000000001 62.150000000000013 61.150000000000013 61.45000000000001 61.350000000000001 61.95000000000001 56.95000000000001 59.95000000000001 62.850000000000001 3.6450000000000005 0.49500000000000005 59.250000000000007 62.750000000000007 4.1350000000000007 61.050000000000004 58.350000000000001 3.6450000000000005 3.2750000000000004 3.7750000000000004 61.750000000000007 0.70500000000000007 0.78500000000000014 3.8750000000000004 57.750000000000007 62.650000000000013 63.750000000000007 56.350000000000001 4.0250000000000012 56.95000000000001 57.650000000000013 62.550000000000004 62.550000000000004 3.8550000000000004 61.150000000000013 62.850000000000001 61.550000000000004 62.250000000000007 62.050000000000004
decision_type=2 2 2 2 2 2 2 2 2 2 2 2 2 2 2 2 2 2 2 2 2 2 2 2 2 2 2 2 2 2 2 2 2 2 2 2 2 2 2 2 2 2 2 2 2 2 2 2 2 2 2 2 2 2 2 2 2 2 2 2 2 2 2 2 2 2 2 2 2 2 2 2 2 2 2 2 2 2 2 2 2 2 2 2 2
left_child=2 4 5 8 9 21 17 13 10 11 19 15 18 -5 62 39 42 26 27 -3 32 46 31 -22 44 38 29 48 -15 -4 57 33 -21 58 -35 -18 -11 47 59 49 50 45 43 -17 -20 67 -1 56 52 -2 -41 -25 53 -6 -24 64 75 -7 -13 61 -37 -8 -10 80 76 -40 -63 -31 -49 -61 71 -59 -28 -44 -42 -19 -32 -47 -48 -68 -39 -23 -43 -84 -66
right_child=1 3 6 7 12 30 25 -9 14 36 -12 22 -14 28 -16 16 35 37 24 20 23 81 54 51 -26 -27 72 -29 -30 41 55 -33 -34 34 -36 60 -38 63 65 40 74 82 73 -45 -46 77 78 68 -50 -51 -52 -53 -54 -55 -56 -57 -58 70 -60 69 -62 66 -64 -65 84 -67 79 -69 -70 -71 -72 -73 -74 -75 -76 -77 -78 -79 -80 -81 -82 -83 83 -85 -86
leaf_value=-59.851996136825939 32.52901589107227 100.2399819475386 -30.062732225245668 186.59065303470823 59.618508708915996 -46.61504115395028 -0.10584305749605334 129.18931973106552 157.0062036797965 11.572868795299616 80.700692528885313 27.196886854203516 27.988733729654999 201.20282365968254 125.03969650791495 52.300458379446361 40.192821041491818 -14.560660281109167 51.260054117504708 115.86036303296716 135.50012879963808 -52.083954418349819 10.547714541132915 111.51354959077202 60.803917445535298 -9.5284953450576584 -28.452229978360435 54.286763817472192 220.92073815449498 -20.647563742627387 -37.679056308944574 37.034992135363979 101.34535970583151 41.029955066188037 27.372050946914964 32.939580566722071 0.77989945672649341 -20.930199505527501 -6.4562734085346589 31.656817880142384 33.603772837226749 -24.017029996784682 50.238291502455766 38.569564293404902 41.325544511917265 -22.324542067923957 -56.225965076680296 -22.604304288959959 70.915661185584611 24.068128523781464 39.553640220750353 121.44391555383613 57.099291457867579 67.288234640607769 19.167655754305613 -43.457872864523821 -10.329676634592767 -39.790376032348618 20.795216496073358 -3.1907490691328428 25.463569612739317 8.303489108410286 144.10330588506682 -16.877220859627631 -34.779761488759029 -1.4493458645046147 2.422267129241658 -17.050291043595191 -16.998479825629385 1.799664047519755 -43.101719190907858 -43.39030075562107 -32.759676813927257 56.769170666664742 29.093752480544214 -18.001240739766327 -40.37384233016396 -26.311474289548848 -57.911634478322135 4.9543900097792495 -23.382525007529306 -54.397440810354894 -26.841258521665345 -23.816381840102025 -37.025473247424003
leaf_weight=354 77 71 125 226 83 93 72 52 103 74 59 59 54 188 54 66 54 115 64 75 63 979 50 62 58 90 92 97 50 120 323 74 82 52 600 54 60 95 62 50 70 205 59 61 77 50 1845 50 67 61 166 278 63 149 59 69 104 330 119 56 52 53 56 68 154 99 85 177 51 53 292 103 85 55 83 62 135 60 418 71 71 147 63 59 84
leaf_count=354 77 71 125 226 83 93 72 52 103 74 59 59 54 188 54 66 54 115 64 75 63 979 50 62 58 90 92 97 50 120 323 74 82 52 600 54 60 95 62 50 70 205 59 61 77 50 1845 50 67 61 166 278 63 149 59 69 104 330 119 56 52 53 56 68 154 99 85 177 51 53 292 103 85 55 83 62 135 60 418 71 71 147 63 59 84
internal_value=0.0933082 73.9489 -40.4851 146.027 36.977 -51.0417 -15.9626 189.676 121.047 30.2316 113.37 31.8687 56.4315 196.394 145.782 37.6055 42.9343 -21.8558 58.7562 116.397 118.408 -55.6144 26.7199 122.24 50.3048 -0.772282 -24.5341 62.396 205.533 -23.2861 -40.2236 28.1002 108.423 27.2945 28.474 33.0426 6.74885 -17.3446 0.660992 33.3751 35.0576 -22.1239 49.4674 45.7788 45.9033 -20.1578 -56.9949 -15.3818 64.5367 28.8307 37.7577 119.702 63.0392 64.5999 15.241 -38.0624 -13.7753 -42.2347 22.9462 2.33146 29.3288 3.53242 152.655 -20.5324 -37.5148 -3.38329 4.78466 -18.5171 -19.8142 -0.765405 -41.6596 -40.667 -30.5566 53.4863 31.1997 -15.7854 -38.4912 -24.5445 -56.5426 3.57974 -22.0069 -52.3959 -24.5567 -25.4212 -35.6038
internal_weight=11805 4186 7619 1419 2767 5326 2293 516 903 2055 690 1921 712 464 213 908 401 1652 658 631 560 3743 1013 403 199 641 1036 459 238 859 1583 904 157 830 652 160 134 616 551 507 369 734 241 127 141 407 2617 382 362 138 216 340 295 232 109 765 281 818 178 390 106 281 159 234 696 161 209 297 101 109 725 433 177 114 153 177 458 110 2263 156 166 1126 327 122 238
internal_count=11805 4186 7619 1419 2767 5326 2293 516 903 2055 690 1921 712 464 213 908 401 1652 658 631 560 3743 1013 403 199 641 1036 459 238 859 1583 904 157 830 652 160 134 616 551 507 369 734 241 127 141 407 2617 382 362 138 216 340 295 232 109 765 281 818 178 390 106 281 159 234 696 161 209 297 101 109 725 433 177 114 153 177 458 110 2263 156 166 1126 327 122 238
is_linear=0
shrinkage=0.017876


Tree=2
num_leaves=86
num_cat=8
split_feature=0 0 0 6 3 3 0 0 3 4 0 4 0 0 3 6 0 0 3 3 4 6 6 6 6 6 0 4 0 0 4 6 0 4 6 0 0 0 4 0 4 4 6 0 0 0 6 3 4 3 0 4 4 6 4 4 0 4 4 6 0 0 0 6 4 0 4 4 4 4 4 0 4 4 6 4 4 6 4 4 4 4 0 0 6
split_gain=1.06802e+11 3.36724e+10 5.95321e+09 5.04386e+09 4.80147e+09 9.60781e+08 7.93853e+08 6.19704e+08 5.01012e+08 3.58729e+08 3.82452e+08 3.48412e+08 2.75059e+08 1.85392e+08 1.79164e+08 1.66511e+08 1.55098e+08 1.36997e+08 8.89496e+07 6.53637e+07 5.18928e+07 6.9873e+07 4.92235e+07 4.84108e+07 3.86523e+07 2.79188e+07 2.51306e+07 2.4087e+07 2.23974e+07 2.18796e+07 2.15109e+07 1.98313e+07 1.97654e+07 1.84512e+07 1.60764e+07 1.56687e+07 1.51954e+07 1.51787e+07 1.48554e+07 1.21009e+07 1.17892e+07 1.10598e+07 1.01555e+07 8.9045e+06 8.85832e+06 8.15073e+06 6.45974e+06 5.94901e+06 5.81049e+06 5.80391e+06 4.93228e+06 4.74965e+06 4.25684e+06 4.00713e+06 3.4785e+06 3.20126e+06 7.01484e+06 2.94314e+06 3.24901e+06 2.91123e+06 2.72732e+06 2.6346e+06 2.62647e+06 2.5953e+06 2.25551e+06 2.20084e+06 2.12713e+06 2.09979e+06 1.92618e+06 2.33798e+06 1.91157e+06 1.84158e+06 1.70767e+06 1.59813e+06 1.52224e+06 1.34347e+06 994111 727638 656593 599007 1.38054e+06 469033 273868 162933 29995
threshold=0.99500000000000011 1.405 0.60500000000000009 7.7950000000000008 0 1 0.45500000000000007 0.85500000000000009 2 63.850000000000001 1.6150000000000004 63.650000000000013 1.1950000000000001 1.1950000000000001 3 6.6150000000000011 1.135 2.0450000000000004 4 5 59.650000000000013 7.2650000000000006 4.5950000000000006 5.6650000000000009 5.6850000000000014 6.4350000000000014 1.0450000000000002 62.45000000000001 1.2550000000000001 0.76500000000000012 60.650000000000013 6.3850000000000007 0.52500000000000013 62.95000000000001 7.995000000000001 1.0150000000000003 0.74500000000000011 2.2850000000000006 63.650000000000013 1.135 63.750000000000007 62.750000000000007 4.3050000000000006 1.2350000000000001 0.69500000000000006 1.0350000000000004 5.0750000000000011 6 62.850000000000001 7 1.1850000000000003 61.350000000000001 61.050000000000004 6.1650000000000009 63.750000000000007 61.95000000000001 1.0550000000000004 59.250000000000007 62.45000000000001 6.955000000000001 1.0050000000000001 1.0150000000000003 0.57500000000000007 4.705000000000001 63.350000000000001 0.70500000000000007 61.150000000000013 62.650000000000013 60.850000000000001 61.550000000000004 61.850000000000001 0.91500000000000015 60.45000000000001 61.650000000000013 5.5650000000000004 59.750000000000007 62.050000000000004 6.1350000000000007 62.350000000000001 61.250000000000007 61.95000000000001 62.050000000000004 0.48500000000000004 1.2150000000000001 5.2650000000000006
decision_type=2 2 2 2 1 1 2 2 1 2 2 2 2 2 1 2 2 2 1 1 2 2 2 2 2 2 2 2 2 2 2 2 2 2 2 2 2 2 2 2 2 2 2 2 2 2 2 1 2 1 2 2 2 2 2 2 2 2 2 2 2 2 2 2 2 2 2 2 2 2 2 2 2 2 2 2 2 2 2 2 2 2 2 2 2
left_child=2 4 6 9 8 16 22 18 13 10 20 17 14 25 31 35 33 34 24 41 -3 -22 42 44 74 -2 40 59 49 57 -23 64 46 45 -5 -10 68 -19 47 61 60 66 -1 -15 -20 76 82 71 62 -14 -17 -32 -49 -54 -46 56 -27 -25 65 -18 -16 -33 84 -24 -7 -59 -9 79 -26 -70 -30 77 -28 -74 -4 -48 -6 -21 -12 -31 -81 -71 -8 -51 -34
right_child=1 3 7 11 5 12 32 19 15 -11 78 -13 28 43 26 50 27 37 23 38 21 30 63 29 36 55 72 -29 70 67 51 39 48 -35 -36 -37 -38 -39 -40 -41 -42 -43 -44 -45 54 -47 75 52 -50 83 -52 -53 53 -55 -56 -57 -58 58 -60 -61 -62 -63 -64 -65 -66 -67 -68 -69 69 81 -72 -73 73 -75 -76 -77 -78 -79 -80 80 -82 -83 -84 -85 -86
leaf_value=-58.042034568711991 40.678329633644346 98.453301308479539 -24.468091648636612 169.69075817600196 34.521631499652266 14.495462588282939 -46.174229393699989 -8.6843160121160032 82.332828868649983 76.116299625610921 146.96400851179973 142.7086423300681 31.841992040602218 70.102848789250672 -0.24991936143137469 108.41057166045407 57.650617618810287 197.50706383224622 -37.16965867531303 -0.67381778489258604 102.3555193288949 129.16427467358167 -53.187375461523168 -28.30664326979328 -15.993186357466653 51.339080191211423 5.8055790782532259 45.657413230991736 32.820749938258714 -18.346656779081705 110.81001131763351 17.131321377042799 -38.235300869341295 27.425056028521901 185.76777830505046 95.361334104596281 -4.9797783813135332 214.05575896715791 -4.5942831293112958 28.615489927537382 -6.6330082797543133 -14.733733635583826 -55.287180780991278 81.367597223753393 -27.512374050699886 42.120498960095972 -43.506264337837791 2.8723274708288744 -42.683341714994292 16.714007377255804 119.31801024803885 118.74046165874657 6.2251490158373235 12.531368671596253 -33.010131074767386 49.442260612515618 61.693388655667505 -25.247355590309468 -26.7624138489285 64.821471026273798 3.5328089387613688 20.437136961543342 -34.494916721593086 -50.906724554271882 9.7253210590144406 -22.360855622229636 -4.2037569245457114 -21.058773309824854 -9.5493716912682469 -12.6332674216396 38.203350900592987 5.0203304902432553 11.958904278737569 8.3607960584219576 -20.341597685795772 -39.938510302975907 38.111163986013914 2.0586816168705209 136.01431090449907 -13.77213683655533 -18.005229363044666 -15.211831285682901 -43.115686319501805 18.72348434364228 -36.740118764448475
leaf_weight=719 76 71 52 62 119 85 78 59 86 64 126 54 102 56 81 60 81 164 66 50 111 79 387 59 66 57 54 51 60 77 90 127 276 61 181 71 98 69 64 52 51 72 1793 74 131 125 68 50 69 56 91 295 74 58 63 50 51 136 111 55 245 248 158 844 54 346 81 58 65 60 60 51 58 137 100 513 73 82 53 53 57 54 159 60 262
leaf_count=719 76 71 52 62 119 85 78 59 86 64 126 54 102 56 81 60 81 164 66 50 111 79 387 59 66 57 54 51 60 77 90 127 276 61 181 71 98 69 64 52 51 72 1793 74 131 125 68 50 69 56 91 295 74 58 63 50 51 136 111 55 245 248 158 844 54 346 81 58 65 60 60 51 58 137 100 513 73 82 53 53 57 54 159 60 262
internal_value=0.0922841 72.6298 -39.7618 143.422 36.3176 22.5839 -50.1297 -15.6779 77.6222 117.346 120.524 187.097 14.9903 57.8735 11.0487 98.3565 42.5165 192.069 -21.466 -0.758495 114.008 115.892 -54.6205 -24.327 -13.9973 49.8635 4.18774 56.6122 29.3186 -22.5561 119.084 18.2366 -39.5054 36.6402 181.814 88.3424 -10.9432 202.593 3.26286 20.472 1.34228 -8.63799 -56.0804 76.6342 -31.3488 38.3945 -41.4805 4.73171 -37.3829 25.8453 115.138 116.947 6.94861 9.01134 -29.331 54.2228 56.3372 -24.2752 -23.8644 60.6446 2.59337 19.3276 -36.8449 -51.6325 12.6595 -23.1858 -6.10202 -17.9646 -13.3224 -12.3203 35.5732 2.03141 8.65928 9.44254 -21.7846 -40.3714 35.926 1.02421 143.883 -16.9827 -15.9953 -13.88 -44.1617 16.3757 -37.5216
internal_weight=11805 4186 7619 1419 2767 2095 5326 2293 672 889 825 530 1530 364 1192 308 565 476 1652 641 646 575 3743 1157 495 234 626 187 338 897 464 566 1583 378 243 157 343 233 429 427 377 212 2512 130 260 317 818 365 765 218 151 385 182 132 194 158 108 652 593 136 326 375 696 1231 139 482 140 245 245 179 120 183 249 195 152 581 192 132 179 187 110 114 237 116 538
internal_count=11805 4186 7619 1419 2767 2095 5326 2293 672 889 825 530 1530 364 1192 308 565 476 1652 641 646 575 3743 1157 495 234 626 187 338 897 464 566 1583 378 243 157 343 233 429 427 377 212 2512 130 260 317 818 365 765 218 151 385 182 132 194 158 108 652 593 136 326 375 696 1231 139 482 140 245 245 179 120 183 249 195 152 581 192 132 179 187 110 114 237 116 538
cat_boundaries=0 1 2 3 4 5 6 7 8
cat_threshold=480 16 32 8 480 6 8 8
is_linear=0
shrinkage=0.017876


Tree=3
num_leaves=84
num_cat=7
split_feature=7 7 7 7 3 7 3 6 3 7 7 7 7 7 7 3 3 7 7 7 6 7 3 5 6 5 3 7 6 7 7 6 7 7 7 7 7 6 5 7 7 7 6 7 7 5 5 7 7 7 6 5 5 5 6 7 7 5 6 7 6 5 5 7 6 6 5 6 5 5 7 6 7 7 6 5 5 7 7 7 7 7 6
split_gain=1.02904e+11 3.15169e+10 6.8047e+09 4.42133e+09 4.36646e+09 8.96927e+08 8.92202e+08 8.63914e+08 4.03563e+08 3.75869e+08 3.24481e+08 2.24985e+08 2.07375e+08 1.88948e+08 1.7233e+08 1.55425e+08 1.23575e+08 9.88213e+07 7.98869e+07 7.86347e+07 7.54572e+07 6.93926e+07 6.56905e+07 4.96307e+07 4.89703e+07 4.88555e+07 3.90238e+07 3.70747e+07 3.16911e+07 2.81059e+07 2.65533e+07 2.85174e+07 2.4339e+07 2.36672e+07 1.81725e+07 1.72185e+07 1.42725e+07 1.34399e+07 1.33212e+07 1.13041e+07 1.06362e+07 9.86066e+06 9.80035e+06 9.45229e+06 9.11016e+06 8.19321e+06 8.19207e+06 8.16964e+06 5.78626e+06 4.83781e+06 4.62395e+06 4.48043e+06 3.96299e+06 3.93975e+06 3.4669e+06 3.41949e+06 2.92881e+06 2.84665e+06 2.80622e+06 2.75982e+06 2.22505e+06 1.95305e+06 1.9377e+06 1.81451e+06 1.80903e+06 1.99392e+06 1.73946e+06 1.50026e+06 1.46062e+06 2.67056e+06 870517 746925 1.8022e+06 603351 585997 980842 567414 504772 169461 132214 97217.1 59198.4 39459.5
threshold=6.3250000000000011 7.205000000000001 5.5450000000000008 7.8550000000000013 0 6.0750000000000011 1 4.955000000000001 2 6.785000000000001 7.5950000000000006 6.6950000000000012 6.8450000000000006 8.0250000000000004 6.6350000000000007 3 4 7.0750000000000011 6.9850000000000012 5.7250000000000005 6.3050000000000006 7.2750000000000012 5 58.350000000000001 4.5950000000000006 56.95000000000001 6 6.455000000000001 5.2650000000000006 5.9450000000000012 8.4850000000000012 8.2950000000000017 6.6750000000000007 7.3550000000000013 6.6650000000000009 6.9450000000000012 5.9450000000000012 6.1650000000000009 58.350000000000001 6.2650000000000006 6.4750000000000005 5.035000000000001 4.2950000000000008 6.1550000000000011 6.9850000000000012 58.350000000000001 58.350000000000001 6.3650000000000011 7.3150000000000004 6.6550000000000011 5.3550000000000013 58.350000000000001 57.95000000000001 57.750000000000007 6.3850000000000007 5.8250000000000011 5.9850000000000012 58.350000000000001 4.7150000000000007 6.6050000000000013 5.1050000000000013 57.95000000000001 57.650000000000013 5.6950000000000012 6.1350000000000007 6.205000000000001 57.95000000000001 6.495000000000001 56.95000000000001 57.650000000000013 6.8650000000000011 5.8650000000000011 5.785000000000001 6.7150000000000007 5.4850000000000012 56.45000000000001 57.95000000000001 6.0250000000000012 4.995000000000001 5.6050000000000013 5.8150000000000004 5.7750000000000012 6.5250000000000012
decision_type=2 2 2 2 1 2 1 2 1 2 2 2 2 2 2 1 1 2 2 2 2 2 1 2 2 2 1 2 2 2 2 2 2 2 2 2 2 2 2 2 2 2 2 2 2 2 2 2 2 2 2 2 2 2 2 2 2 2 2 2 2 2 2 2 2 2 2 2 2 2 2 2 2 2 2 2 2 2 2 2 2 2 2
left_child=2 4 7 10 8 19 11 24 12 15 21 38 27 -5 40 32 26 35 66 63 37 -3 29 -12 42 -23 39 -2 41 52 31 -15 54 48 47 46 45 -18 59 64 -10 78 -1 -28 -14 71 70 -17 -27 82 62 -49 55 60 -8 -21 -31 -45 -26 68 -43 -56 -30 79 -7 -66 -13 -40 -6 -70 -11 72 -24 -36 75 -52 -65 -58 -9 -4 -47 -54 -29
right_child=1 3 5 13 6 16 9 28 14 17 23 18 44 30 -16 34 20 -19 -20 22 -22 25 36 -25 58 33 43 49 50 56 -32 -33 -34 -35 73 -37 -38 -39 67 -41 -42 53 -44 57 -46 80 -48 51 -50 -51 74 -53 81 -55 61 -57 77 -59 -60 -61 -62 -63 -64 76 65 -67 -68 -69 69 -71 -72 -73 -74 -75 -76 -77 -78 -79 -80 -81 -82 -83 -84
leaf_value=-57.165340054371001 39.587073855277154 98.301367961516945 -27.574389606369252 162.29912142621805 34.478961771009089 -0.85809109606152911 14.234787330918245 -47.184299096460883 81.296840434445556 25.905819488320642 148.48346176965399 56.356361203720532 74.19397519066591 193.5493811801401 114.6551350793543 -2.9434263754744974 4.5351538212743723 50.918229344467846 79.80647920784395 -24.940532808515069 33.676595783484935 125.77297237232035 -12.794736210459279 127.28999896261702 -52.122958682126018 109.67866256309291 -12.46750896823278 54.911647705790436 -35.436987951793149 -19.573430122833457 205.22564526019576 177.70505023755254 27.817373163180786 115.76495478041461 10.302975518781968 35.472671801844506 -5.4670276778998987 13.87732066506061 28.805297994020272 10.967096196317453 92.869849514991373 -40.80266712832919 -54.358253165278711 -2.5325645341793352 86.11934458729165 -18.347225137881782 19.261938052608969 6.1846367320643676 98.276961646090925 59.990560858373811 -31.989690836751269 2.4110732356716906 -28.162115406668025 -41.281883329139028 19.777397924799629 -20.279776643951035 -15.707912011889119 -7.2680399029171081 -49.868331100875871 42.76193375968775 -37.886699932726167 16.978657747129812 -39.473025005810385 -22.845379915831931 5.2364659469864865 0.78617408165256319 50.772219951174151 33.710875881934221 41.687426267974033 35.539307674863068 29.350378072175072 -13.787558041833808 -9.8020453558515914 13.024171853076654 -31.078222027657755 -35.135950539655113 -25.470235607189974 -13.143595080338352 -43.102801785540407 -25.922926201718369 -16.495858260070161 -26.035960981546896 50.203487398992493
leaf_weight=640 69 93 95 92 60 60 85 57 77 79 115 66 63 229 150 50 93 78 50 130 52 141 144 72 429 79 65 51 204 52 77 92 90 306 59 75 91 105 64 54 71 154 1872 101 56 58 55 254 53 64 100 167 57 305 174 96 59 68 812 54 536 180 75 107 61 68 82 50 64 59 68 57 126 60 77 124 73 65 57 242 52 105 54
leaf_count=640 69 93 95 92 60 60 85 57 77 79 115 66 63 229 150 50 93 78 50 130 52 141 144 72 429 79 65 51 204 52 77 92 90 306 59 75 91 105 64 54 71 154 1872 101 56 58 55 254 53 64 100 167 57 305 174 96 59 68 812 54 536 180 75 107 61 68 82 50 64 59 68 57 126 60 77 124 73 65 57 242 52 105 54
internal_value=0.0918149 73.4389 -37.884 143.894 37.9399 -12.3625 24.5153 -48.8384 77.82 16.9896 119.394 44.0418 58.9717 186.775 97.6994 12.0165 4.11547 33.1276 60.098 -19.8073 13.9921 113.487 -17.0813 140.473 -53.6188 115.89 -1.33014 50.9 -38.2108 -21.5212 192.346 189.126 18.9672 112.651 5.36764 28.0837 -11.7031 9.49865 36.2085 3.62138 86.9706 -40.0031 -55.0781 -6.40854 79.9456 -13.2661 25.3068 3.87843 105.262 55.4648 -34.7708 4.68968 -24.597 -39.3955 17.5724 -22.9811 -15.9411 -4.44452 -50.6563 38.6778 -38.5495 18.3651 -36.5504 -25.556 1.70431 2.89559 53.3376 31.014 37.4258 38.803 27.5382 -11.8302 -11.4067 11.6952 -33.0974 -33.7622 -23.9379 -14.3878 -45.2253 -26.4051 -17.5046 -26.819 52.5938
internal_weight=11805 4027 7778 1349 2678 2336 2023 5442 655 1474 859 549 357 490 298 1119 727 355 198 1609 250 672 1092 187 3753 579 477 238 1689 564 398 321 529 438 590 277 528 198 351 243 148 1109 2512 234 119 437 202 471 132 169 580 421 388 995 439 226 176 169 1241 237 690 354 279 517 189 129 148 114 183 123 147 327 270 119 301 224 180 124 114 337 110 162 105
internal_count=11805 4027 7778 1349 2678 2336 2023 5442 655 1474 859 549 357 490 298 1119 727 355 198 1609 250 672 1092 187 3753 579 477 238 1689 564 398 321 529 438 590 277 528 198 351 243 148 1109 2512 234 119 437 202 471 132 169 580 421 388 995 439 226 176 169 1241 237 690 354 279 517 189 129 148 114 183 123 147 327 270 119 301 224 180 124 114 337 110 162 105
cat_boundaries=0 1 2 3 4 5 6 7
cat_threshold=480 16 32 8 14 14 8
is_linear=0
shrinkage=0.017876


Tree=4
num_leaves=84
num_cat=11
split_feature=8 8 8 3 8 3 8 8 8 8 8 3 2 3 8 8 3 5 8 2 2 8 8 8 8 8 3 1 5 8 8 8 8 8 3 8 8 5 5 8 8 8 8 8 8 8 5 5 8 8 5 8 8 8 5 8 8 8 8 5 8 8 5 5 5 8 5 8 5 5 8 5 8 8 5 5 8 8 8 8 8 8 8
split_gain=9.79677e+10 2.91793e+10 7.34727e+09 4.24487e+09 3.88948e+09 1.35298e+09 1.12549e+09 8.08806e+08 4.07487e+08 3.15766e+08 3.14418e+08 2.01535e+08 1.66772e+08 1.522e+08 1.44128e+08 1.06147e+08 8.93338e+07 7.53991e+07 7.02688e+07 6.43174e+07 5.64717e+07 4.56087e+07 4.13728e+07 3.57998e+07 3.43213e+07 3.41191e+07 3.22503e+07 2.93034e+07 2.82708e+07 4.5075e+07 2.75306e+07 2.66999e+07 2.5896e+07 2.47472e+07 2.20488e+07 1.88731e+07 1.72515e+07 1.51433e+07 1.34588e+07 1.32565e+07 1.22441e+07 1.16396e+07 7.95764e+06 7.57384e+06 6.60217e+06 5.49342e+06 9.40801e+06 5.15328e+06 4.18843e+06 4.00598e+06 3.75872e+06 3.28783e+06 3.10695e+06 2.88324e+06 2.57268e+06 2.50828e+06 3.94797e+06 2.44199e+06 2.18621e+06 1.9454e+06 1.83956e+06 1.80324e+06 3.56682e+06 1.79306e+06 1.77302e+06 1.61474e+06 1.53116e+06 1.06949e+06 922868 786489 681976 608572 496197 442827 399147 222711 205663 1.13658e+06 148862 124004 31293 13922.1 12713.4
threshold=3.9350000000000005 4.4350000000000014 3.4050000000000007 0 4.8450000000000006 1 3.7550000000000003 3.0350000000000006 4.1850000000000014 4.6650000000000009 4.205000000000001 2 3 4 4.1850000000000014 4.3550000000000013 5 60.800000000000004 4.3550000000000013 6 7 2.8450000000000002 3.6450000000000005 3.6650000000000005 4.035000000000001 3.8850000000000002 8 9 59.95000000000001 4.4850000000000012 3.2750000000000004 4.745000000000001 4.1350000000000007 3.6350000000000002 10 4.0550000000000006 4.9450000000000012 58.350000000000001 56.95000000000001 3.8850000000000002 3.0950000000000002 4.0050000000000008 3.5150000000000001 4.2150000000000007 2.5850000000000004 4.1250000000000009 57.650000000000013 57.95000000000001 3.4650000000000003 3.8550000000000004 57.750000000000007 3.8350000000000004 3.3450000000000002 3.6050000000000004 58.350000000000001 5.035000000000001 5.0750000000000011 4.2950000000000008 3.9650000000000003 57.150000000000013 3.8250000000000006 3.9850000000000008 56.95000000000001 57.95000000000001 58.350000000000001 3.8650000000000007 56.95000000000001 3.1950000000000007 55.95000000000001 56.850000000000001 4.0750000000000011 58.350000000000001 3.7050000000000005 4.1450000000000005 58.350000000000001 57.95000000000001 3.9650000000000003 4.0050000000000008 3.5950000000000002 3.4750000000000005 4.0950000000000006 3.9650000000000003 3.5450000000000004
decision_type=2 2 2 1 2 1 2 2 2 2 2 1 1 1 2 2 1 2 2 1 1 2 2 2 2 2 1 1 2 2 2 2 2 2 1 2 2 2 2 2 2 2 2 2 2 2 2 2 2 2 2 2 2 2 2 2 2 2 2 2 2 2 2 2 2 2 2 2 2 2 2 2 2 2 2 2 2 2 2 2 2 2 2
left_child=2 3 7 10 9 8 16 21 24 17 13 20 25 32 41 57 22 28 43 23 26 44 48 34 47 37 65 35 29 -3 40 -11 58 -21 42 61 -6 -13 -31 60 -9 -7 79 -10 -1 46 -26 66 -4 -14 67 -28 75 -44 72 -38 -57 -12 -2 78 -22 81 -63 68 -40 -8 -5 -42 -60 -54 -43 -65 -24 80 -53 -32 -49 -78 82 -18 -37 -15 -50
right_child=1 4 6 5 36 14 11 30 18 31 15 12 49 27 -16 -17 19 -19 -20 33 39 -23 54 -25 45 -27 51 -29 -30 38 52 -33 -34 -35 -36 73 55 -39 64 -41 50 70 53 -45 -46 -47 -48 76 59 -51 -52 74 69 -55 -56 56 -58 -59 63 -61 -62 62 -64 71 -66 -67 -68 -69 -70 -71 -72 -73 -74 -75 -76 -77 77 -79 -80 -81 -82 -83 -84
leaf_value=-56.828156320045402 13.781829904831568 93.094146359864965 -31.227880706305271 37.120472335095975 167.24735148301741 84.6700226781645 8.8726924686633915 -44.416409530360454 56.544098196273289 128.70304622171935 25.440831535867655 18.424861605771223 -2.066842288101677 1.5158031511478005 119.86388715559413 52.982709070138156 -19.626538555528683 92.223073134289535 84.506349471957236 -25.963141126239201 -13.10608253024431 -49.599653465806426 -19.173492286872868 2.7332734918219006 47.209026823129456 43.065677695893434 -4.589404289702915 -4.0173853874392718 123.26987942094908 118.05415269685307 -35.276613951979918 144.22669969806327 28.648560271810698 -12.817626147644196 -3.3831304544027767 10.807362668629187 186.65315683533967 31.993546089319405 107.38527474975989 -1.2340830310263153 -38.671568635273765 91.99905516529958 -13.735305413328234 64.58107006348618 -53.603774660556738 50.469814785826493 38.607731430135352 32.656314432362564 -24.307623457437064 4.6492256538507153 -39.99579429416351 -0.4260938054163842 -28.961742704586353 -9.0609877335807774 -12.998712070891056 168.95578169733727 180.61157460606992 30.041752751200626 16.513085312307833 -27.069106645140366 -8.8880710325573045 8.7371459071852158 3.0926793012719416 14.464429374381282 114.07933681216478 12.523172433795851 41.973963321283591 -36.844090305321757 19.567403261281708 -32.673788541900947 99.951965441356847 16.924335305076717 -16.343253509326786 12.299033230475677 1.6591292565175699 -32.606830188758806 37.70245923130237 32.934396384492821 -23.428579109144387 -17.590991193778372 9.7934092548564919 1.9567348941411022 -25.855531443321919
leaf_weight=294 66 51 56 67 81 71 95 128 69 118 209 51 62 54 87 59 52 75 59 202 56 1139 59 57 124 55 58 101 81 140 196 90 70 60 101 58 135 57 212 74 314 79 226 179 2303 73 73 56 103 52 381 59 63 54 55 78 214 55 55 266 88 50 126 62 100 70 71 479 137 67 57 120 53 61 58 58 59 51 76 55 66 50 124
leaf_count=294 66 51 56 67 81 71 95 128 69 118 209 51 62 54 87 59 52 75 59 202 56 1139 59 57 124 55 58 101 81 140 196 90 70 60 101 58 135 57 212 74 314 79 226 179 2303 73 73 56 103 52 381 59 63 54 55 78 214 55 55 266 88 50 126 62 100 70 71 479 137 67 57 120 53 61 58 58 59 51 76 55 66 50 124
internal_value=0.090804 72.7218 -36.4198 37.2016 139.2 62.0984 -10.6167 -48.0022 49.4975 116.13 15.7288 6.20367 18.3331 11.1942 96.9305 31.3046 -19.4 109.957 66.6976 -14.4828 -0.147929 -52.6427 -23.9205 -10.4715 41.1395 29.7405 4.3636 4.49989 112.201 110.369 -37.7142 135.557 18.1743 -22.1215 -12.2288 6.39643 178.51 25.6336 112.275 -7.06472 -38.9707 91.8598 -14.0833 62.394 -53.9733 45.8344 44.0656 36.9413 -26.3381 0.919029 -38.3693 -1.05714 -33.435 -12.8412 -16.2816 180.565 177.62 26.4221 16.9081 -25.8457 -10.5449 3.6023 4.7046 17.4519 109.605 9.83953 39.6766 -37.5776 18.7112 -30.9237 95.479 16.1037 -17.8668 10.962 0.60871 -34.694 34.6208 35.5578 -24.7539 -18.6162 10.2849 1.73125 -25.1759
internal_weight=11805 3949 7856 2574 1375 1175 2434 5422 881 867 1399 835 277 1076 294 323 1599 659 307 807 558 3736 792 545 574 163 340 566 584 503 1686 208 510 262 488 465 508 108 452 218 1302 207 387 248 2597 270 197 304 625 114 1174 175 384 280 167 427 292 264 440 569 144 280 176 374 312 165 138 793 192 130 136 182 112 185 117 254 166 110 303 107 124 104 227
internal_count=11805 3949 7856 2574 1375 1175 2434 5422 881 867 1399 835 277 1076 294 323 1599 659 307 807 558 3736 792 545 574 163 340 566 584 503 1686 208 510 262 488 465 508 108 452 218 1302 207 387 248 2597 270 197 304 625 114 1174 175 384 280 167 427 292 264 440 569 144 280 176 374 312 165 138 793 192 130 136 182 112 185 117 254 166 110 303 107 124 104 227
cat_boundaries=0 1 2 3 4 5 6 7 8 9 10 11
cat_threshold=14 48 14 30 8 14 30 14 8 56 48
is_linear=0
shrinkage=0.017876


Tree=5
num_leaves=88
num_cat=3
split_feature=0 0 0 6 0 0 0 0 1 6 6 6 6 6 6 5 6 6 1 5 6 5 6 6 0 5 0 6 6 5 6 6 6 6 6 0 5 6 0 6 6 6 5 5 6 5 0 6 6 6 1 0 5 6 6 6 6 6 0 6 6 5 6 0 6 5 0 6 5 6 6 6 6 0 0 6 0 6 5 0 0 5 5 5 0 0 5
split_gain=9.67185e+10 3.06731e+10 5.33621e+09 4.69265e+09 9.25476e+08 7.0259e+08 5.62786e+08 4.54704e+08 2.19284e+08 1.16207e+08 1.05697e+08 9.10339e+07 8.26183e+07 7.35965e+07 7.24501e+07 7.1888e+07 4.53278e+07 4.47986e+07 3.6395e+07 3.43802e+07 3.29489e+07 2.72246e+07 2.59668e+07 3.3772e+07 2.52859e+07 2.30684e+07 2.06856e+07 1.83913e+07 1.74961e+07 1.65425e+07 1.59953e+07 2.04002e+07 1.52537e+07 1.16297e+07 1.0792e+07 9.81438e+06 9.34547e+06 8.4724e+06 8.31586e+06 8.15031e+06 8.07584e+06 1.27572e+07 7.86117e+06 7.31723e+06 7.24257e+06 1.06047e+07 7.16647e+06 6.83118e+06 6.39024e+06 6.0696e+06 6.00531e+06 5.23102e+06 5.2053e+06 5.07965e+06 6.91051e+06 5.02572e+06 7.20159e+06 4.8532e+06 4.80831e+06 3.35436e+06 3.07383e+06 3.85192e+06 2.89029e+06 2.09634e+06 1.89218e+06 1.81276e+06 1.47016e+06 1.36432e+06 1.27427e+06 1.23558e+06 914262 834546 807993 1.52376e+06 797581 778481 730134 557764 545258 473318 318932 413481 261585 230035 155994 87944.4 60337.6
threshold=0.99500000000000011 1.405 0.60500000000000009 7.9050000000000011 1.175 0.45500000000000007 0.84500000000000008 1.5950000000000004 0 7.535000000000001 7.1950000000000012 7.995000000000001 6.7350000000000012 5.6850000000000014 6.6550000000000011 57.250000000000007 4.6350000000000007 6.3550000000000013 1 58.050000000000004 6.955000000000001 59.95000000000001 7.3250000000000011 7.5150000000000006 2.2850000000000006 57.95000000000001 1.0450000000000002 6.8750000000000009 5.205000000000001 56.95000000000001 6.4850000000000012 6.3450000000000006 7.6450000000000005 6.6950000000000012 4.3050000000000006 1.2150000000000001 56.95000000000001 5.7950000000000008 0.75500000000000012 8.2950000000000017 6.5150000000000006 6.3650000000000011 59.95000000000001 56.95000000000001 6.2650000000000006 58.350000000000001 1.2150000000000001 6.5950000000000006 5.0750000000000011 5.5950000000000006 2 0.90500000000000014 57.95000000000001 6.5250000000000012 6.4250000000000007 6.4650000000000007 6.4250000000000007 6.5150000000000006 1.5550000000000004 7.0150000000000006 5.3350000000000009 57.250000000000007 6.1350000000000007 0.78500000000000014 6.5250000000000012 57.750000000000007 0.70500000000000007 6.0750000000000011 58.350000000000001 8.1050000000000022 5.8650000000000011 6.205000000000001 6.1850000000000014 0.90500000000000014 1.0750000000000004 5.6650000000000009 0.80500000000000016 4.7150000000000007 58.350000000000001 0.74500000000000011 0.57500000000000007 56.45000000000001 61.45000000000001 56.95000000000001 0.72500000000000009 0.63500000000000012 55.95000000000001
decision_type=2 2 2 2 2 2 2 2 1 2 2 2 2 2 2 2 2 2 1 2 2 2 2 2 2 2 2 2 2 2 2 2 2 2 2 2 2 2 2 2 2 2 2 2 2 2 2 2 2 2 1 2 2 2 2 2 2 2 2 2 2 2 2 2 2 2 2 2 2 2 2 2 2 2 2 2 2 2 2 2 2 2 2 2 2 2 2
left_child=2 4 5 7 8 16 13 10 14 -9 -3 -5 -6 49 19 27 34 44 50 26 21 46 52 58 39 37 30 35 48 -11 31 -2 -31 42 -1 -14 -16 66 82 69 41 -21 55 -29 -10 -46 -17 74 -7 85 71 67 -12 54 -44 56 -19 -57 -24 -22 61 -30 78 70 -32 -50 -15 -20 -40 -13 79 -8 -64 -74 -28 -51 -65 -18 -52 -39 -62 -82 84 86 -27 -4 -68
right_child=1 3 6 11 12 28 18 9 17 29 22 24 15 25 36 20 77 33 51 40 59 -23 23 -25 -26 38 47 43 60 32 64 -33 -34 -35 -36 -37 -38 63 68 -41 -42 -43 53 -45 45 -47 -48 -49 65 75 62 -53 -54 -55 -56 57 -58 -59 -60 -61 80 -63 72 76 -66 -67 83 -69 -70 -71 -72 -73 73 -75 -76 -77 -78 -79 -80 -81 81 -83 -84 -85 -86 -87 -88
leaf_value=-55.060213823543982 23.140832993935611 82.934993912422357 -30.268645532741601 156.58725824435899 30.929239045459212 -41.880729093300097 4.1124777770641563 107.36101090785365 8.6490043212124501 149.29506409403217 107.50680926613327 177.2675743353694 57.404565900400421 -19.785931386933044 48.664950153075701 51.303242537260765 -49.90359065703985 22.874929514669862 -7.5205014151942464 20.694834232660725 58.548357074195366 32.532323366949896 114.71387292873641 97.384052899231534 196.6250571679987 -22.757491927673648 41.782743622775392 65.825614493823664 -35.132317921770181 124.67513597777291 28.625230040930767 35.451603358196756 140.15310850073831 29.034478725876859 -52.275048851721259 47.161176340865154 40.197070428399968 -15.076987114492395 -14.885214968568269 172.57773324533443 19.238406962631402 32.229189180032769 21.097491655314602 57.770425615030717 10.517725295665201 20.425767183371146 43.105495563994602 33.795364343654256 -37.343955435901989 -25.542505594052351 -3.134740600834971 -11.547499131464976 98.628435878512292 22.958543567337436 12.157707164573115 17.53074229573199 31.042497394109891 23.466769770066165 104.95098847316741 51.467280848133804 -34.915981731060505 -39.212294513056172 3.1094839201656121 -10.682582526176041 23.742300268162658 -39.945400732947313 -17.248586594637636 -3.4875915880504462 -18.72298821811837 188.27687568033056 -16.65967533065901 7.2312002149718948 -1.113499410702123 2.3023955013260173 37.723400386678364 -23.188891683877625 -13.425962485137855 -48.202027510655853 -0.60488355361173007 -12.478323746504776 -30.676114216235312 -33.782925836279205 -24.297095295876598 -18.040461469591751 -21.108203584729548 -28.073166671481744 -15.901227210562471
leaf_weight=721 52 65 81 51 60 232 56 50 64 61 75 95 100 101 92 73 322 87 50 53 53 61 277 63 83 192 107 116 361 56 59 304 100 97 1859 55 97 65 51 88 54 79 57 83 64 77 92 85 431 210 53 73 135 70 56 61 63 200 52 90 81 120 81 67 66 186 76 59 84 172 79 56 69 105 54 100 73 815 56 50 67 78 57 90 79 88 92
leaf_count=721 52 65 81 51 60 232 56 50 64 61 75 95 100 101 92 73 322 87 50 53 53 61 277 63 83 192 107 116 361 56 59 304 100 97 1859 55 97 65 51 88 54 79 57 83 64 77 92 85 431 210 53 73 135 70 56 61 63 200 52 90 81 120 81 67 66 186 76 59 84 172 79 56 69 105 54 100 73 815 56 50 67 78 57 90 79 88 92
internal_value=0.595763 69.3383 -37.6014 136.834 34.7938 -47.501 -14.834 113.297 28.3329 133.155 105.308 181.725 51.2685 -20.4516 33.9458 52.9471 -51.7254 20.8123 -0.873501 32.1505 47.3432 42.9765 107.695 110.743 184.577 -18.0031 33.9151 58.7573 -37.4043 138.991 31.7108 33.6679 134.769 23.2241 -53.0577 53.8375 44.3677 -15.9267 -21.1026 181.647 25.2232 27.6376 22.2654 62.5294 13.682 15.9505 46.7921 38.195 -39.1731 -26.3501 1.75744 -7.43692 101.902 19.1156 16.6975 23.6576 26.3433 22.0944 113.238 54.1725 -35.2694 -36.1666 0.579597 -13.8537 26.0905 -38.1413 -17.8463 -5.34829 -17.2982 184.5 -15.0828 5.21732 1.63662 0.948103 40.4714 -24.7992 -12.1308 -48.6929 -1.83861 -13.9716 -33.3284 -32.3931 -22.6565 -17.0717 -22.2932 -29.1612 -16.5312
internal_weight=11770 4204 7566 1423 2781 5273 2293 934 1998 267 667 489 783 1635 1102 723 3717 896 658 913 369 226 602 392 438 1156 727 354 1556 217 481 356 156 691 2580 155 189 693 463 355 186 132 594 199 205 141 165 246 849 479 476 182 210 183 113 411 150 261 329 143 707 481 364 334 125 617 359 109 135 267 194 112 255 174 161 310 140 1137 109 115 226 145 328 258 271 169 168
internal_count=11770 4204 7566 1423 2781 5273 2293 934 1998 267 667 489 783 1635 1102 723 3717 896 658 913 369 226 602 392 438 1156 727 354 1556 217 481 356 156 691 2580 155 189 693 463 355 186 132 594 199 205 141 165 246 849 479 476 182 210 183 113 411 150 261 329 143 707 481 364 334 125 617 359 109 135 267 194 112 255 174 161 310 140 1137 109 115 226 145 328 258 271 169 168
cat_boundaries=0 1 2 3
cat_threshold=40 56 32
is_linear=0
shrinkage=0.017876


Tree=6
num_leaves=85
num_cat=3
split_feature=0 7 0 7 7 7 7 7 1 7 7 7 7 5 7 6 5 7 7 5 7 6 5 5 7 6 5 1 0 6 7 7 7 5 6 6 6 7 7 6 5 6 5 6 0 6 0 0 7 6 5 0 7 5 0 6 5 5 7 5 6 7 0 1 6 0 5 7 6 0 6 5 7 5 7 7 6 0 5 5 7 0 6 0
split_gain=9.32971e+10 2.97778e+10 5.14706e+09 4.28866e+09 1.23709e+09 6.79006e+08 5.50226e+08 3.30218e+08 2.13505e+08 1.64605e+08 1.18398e+08 1.07345e+08 1.07265e+08 1.02939e+08 9.37835e+07 4.93161e+07 3.81128e+07 3.53313e+07 3.27855e+07 2.98183e+07 2.86961e+07 2.61194e+07 3.18336e+07 2.37333e+07 2.28506e+07 3.09257e+07 2.21566e+07 1.88662e+07 1.812e+07 1.55298e+07 3.21674e+07 1.53968e+07 1.51907e+07 1.48715e+07 1.44562e+07 1.41344e+07 2.31143e+07 1.31174e+07 1.28925e+07 1.18641e+07 1.09941e+07 1.04112e+07 1.0181e+07 9.91251e+06 9.43745e+06 8.91062e+06 8.48134e+06 8.30299e+06 8.03282e+06 6.8713e+06 6.38906e+06 9.22311e+06 7.13918e+06 5.15495e+06 5.07587e+06 5.04056e+06 5.02981e+06 4.99538e+06 4.77594e+06 4.73543e+06 4.70304e+06 3.84173e+06 3.69258e+06 3.68789e+06 3.20999e+06 2.92784e+06 5.81801e+06 2.29117e+06 1.90242e+06 1.23532e+06 1.59936e+06 2.61076e+06 1.0692e+06 998236 764158 519029 1.28228e+06 992761 628836 441372 334388 199443 161949 80615.8
threshold=0.99500000000000011 7.1850000000000014 0.60500000000000009 7.8550000000000013 6.8150000000000004 4.995000000000001 6.0750000000000011 7.5950000000000006 0 8.0250000000000004 6.6350000000000007 5.745000000000001 7.3550000000000013 58.350000000000001 6.3450000000000006 4.6350000000000007 58.350000000000001 6.6950000000000012 6.9650000000000007 57.050000000000004 7.0150000000000006 6.8950000000000005 56.95000000000001 57.95000000000001 7.2750000000000012 7.3450000000000006 56.95000000000001 1 1.2150000000000001 6.5950000000000006 6.535000000000001 5.5450000000000008 5.9450000000000012 58.350000000000001 6.6550000000000011 6.5050000000000008 6.3650000000000011 6.4250000000000007 5.3350000000000009 6.6950000000000012 56.750000000000007 4.3050000000000006 58.350000000000001 7.5150000000000006 1.3550000000000002 6.5450000000000008 1.0050000000000001 2.2850000000000006 6.9050000000000011 6.0950000000000006 58.350000000000001 1.0750000000000004 6.5550000000000006 58.350000000000001 1.3050000000000004 6.4150000000000009 57.750000000000007 58.350000000000001 6.285000000000001 59.95000000000001 5.1050000000000013 5.7150000000000007 1.0050000000000001 2 5.7150000000000007 0.89500000000000013 57.95000000000001 6.2250000000000005 4.8450000000000006 0.70500000000000007 5.8650000000000011 57.95000000000001 5.9850000000000012 56.45000000000001 5.9050000000000011 6.285000000000001 6.1850000000000014 0.90500000000000014 58.350000000000001 59.45000000000001 5.6350000000000007 0.71500000000000008 5.205000000000001 0.71500000000000008
decision_type=2 2 2 2 2 2 2 2 1 2 2 2 2 2 2 2 2 2 2 2 2 2 2 2 2 2 2 1 2 2 2 2 2 2 2 2 2 2 2 2 2 2 2 2 2 2 2 2 2 2 2 2 2 2 2 2 2 2 2 2 2 2 2 1 2 2 2 2 2 2 2 2 2 2 2 2 2 2 2 2 2 2 2 2
left_child=2 4 5 7 8 15 11 12 10 -5 19 31 24 18 58 41 -9 37 21 29 48 28 -23 34 57 -26 -14 49 -6 30 46 -4 42 -19 -12 36 -21 53 56 -36 -41 -1 69 -28 54 -32 -2 -11 -15 -8 51 -39 -52 -16 -20 -38 60 -3 62 -29 -7 80 -10 67 -63 66 72 -51 -17 -13 71 -71 -34 -40 -72 76 78 -78 -65 -44 -33 -82 -62 -81
right_child=1 3 6 9 13 38 27 16 14 47 23 32 26 20 17 68 -18 33 44 35 -22 22 -24 -25 25 -27 43 59 -30 -31 45 61 65 -35 39 -37 55 50 73 40 -42 -43 79 -45 -46 -47 -48 -49 -50 63 52 -53 -54 -55 -56 -57 -58 -59 -60 -61 82 64 -64 75 -66 -67 -68 -69 -70 70 74 -73 -74 -75 -76 -77 77 -79 -80 83 81 -83 -84 -85
leaf_value=-54.076243420178351 25.798581464848979 86.511059411540685 -30.79455554862961 155.90468909087056 69.054528317591178 -39.164032422330422 -4.0185523602975879 142.03743152201389 5.2322212318052452 181.03864590918641 37.478756175445945 -18.321338313258181 121.17358261080214 36.504517829405344 23.482243155834599 -48.085994011913854 122.6147543465752 37.710057333246361 69.808550799491471 20.256824681508352 56.260066407526104 61.180838497679154 41.689167700274822 34.999852076941643 109.74254585933579 92.240706184166811 112.74860930304877 -2.3370622829083199 55.980240592653743 23.805761467580247 45.519443943955523 -25.562303069221596 -8.8833112774126999 25.658332615207094 55.524074501091398 18.178493437842633 36.874433187630594 26.782369744790188 -31.249738493763854 49.571563763189637 38.556294231694643 -51.340687973123373 -19.291785065571055 103.28381169943789 74.853980594412107 35.725053073469098 32.667292448185925 193.11893397385197 45.756393861987945 3.5991169157412783 16.66209346504008 19.23220928584136 22.969314239761417 29.756104959753863 60.541897588563344 29.3736975934996 -39.140750665587056 96.910243575859468 14.223091636207382 -9.394843916210144 -36.327159660251709 -19.343340120951488 11.690131106288414 1.3590897192511204 -24.622368435916663 -9.2460937445124554 -17.710952208742871 8.9004697480205781 -45.640898620353013 -14.151442525943196 -19.073083783893548 -18.539246771346011 -12.465370590605483 -34.077346840711087 -15.753435881021467 3.1844332007359242 -1.859147228878095 1.5091856033805395 3.8335923017574856 -22.540616640363254 -23.670782722924997 -25.732778576513638 -34.951926178829787 -20.489132006889974
leaf_weight=721 77 64 118 95 76 186 52 108 51 318 53 63 106 67 83 972 69 83 50 79 62 52 61 86 102 64 218 58 78 55 80 152 50 58 59 62 56 123 122 83 53 1859 68 89 55 57 308 83 69 54 147 95 99 101 68 77 374 59 101 64 342 110 65 69 63 83 64 51 221 291 55 54 66 152 56 62 52 60 63 61 247 52 324 55
leaf_count=721 77 64 118 95 76 186 52 108 51 318 53 63 106 67 83 972 69 83 50 79 62 52 61 86 102 64 218 58 78 55 80 152 50 58 59 62 56 123 122 83 53 1859 68 89 55 57 308 83 69 54 147 95 99 101 68 77 374 59 101 64 342 110 65 69 63 83 64 51 221 291 55 54 66 152 56 62 52 60 63 61 247 52 324 55
internal_value=0.585824 68.1015 -36.9297 136.337 34.9289 -46.6522 -14.5694 112.57 28.5451 178.393 33.9855 -19.6936 106.973 56.8353 21.5789 -50.6992 134.618 24.6563 61.6821 30.715 46.0114 57.5816 50.7542 43.3112 98.3078 103.118 112.984 0.393167 62.5165 33.0368 33.9996 -24.8097 -15.7594 32.7975 46.1618 25.8044 28.0148 22.875 -36.4671 48.4796 45.3439 -52.1094 -17.1344 110.076 67.9343 41.5044 31.3081 183.637 41.2608 2.04843 21.2455 23.5135 19.2175 26.9556 64.5837 32.5843 -37.2714 91.6536 11.3702 -5.59159 -36.4415 -23.6682 8.86525 2.86748 -21.2929 -12.0734 -13.365 5.64951 -47.641 -15.8365 -15.485 -14.8489 -10.9399 -32.8429 -17.4307 1.67063 1.35201 -0.0552276 2.54425 -20.7735 -24.5691 -24.0469 -35.6692 -21.6061
internal_weight=11770 4204 7566 1375 2829 5273 2293 879 2191 496 1185 1708 702 638 1006 3773 177 789 440 851 198 267 113 334 289 166 413 585 154 577 522 742 966 141 248 274 212 648 1500 195 136 2580 703 307 173 137 385 401 136 463 464 218 246 184 118 133 1226 123 217 122 852 624 116 411 173 263 180 105 1193 519 456 345 116 274 111 306 244 112 132 184 451 299 666 116
internal_count=11770 4204 7566 1375 2829 5273 2293 879 2191 496 1185 1708 702 638 1006 3773 177 789 440 851 198 267 113 334 289 166 413 585 154 577 522 742 966 141 248 274 212 648 1500 195 136 2580 703 307 173 137 385 401 136 463 464 218 246 184 118 133 1226 123 217 122 852 624 116 411 173 263 180 105 1193 519 456 345 116 274 111 306 244 112 132 184 451 299 666 116
cat_boundaries=0 1 2 3
cat_threshold=40 56 32
is_linear=0
shrinkage=0.017876


Tree=7
num_leaves=95
num_cat=10
split_feature=6 6 6 3 6 6 3 6 3 6 8 6 6 3 3 2 8 8 8 6 6 3 5 2 8 6 3 6 3 6 6 6 6 8 6 8 6 8 6 8 6 6 8 8 6 6 6 8 8 8 8 6 6 8 6 6 6 6 8 8 8 8 8 6 5 6 8 8 8 8 6 6 5 6 5 6 8 8 6 6 6 8 5 5 6 8 6 5 6 6 8 5 6 5
split_gain=8.92727e+10 2.72099e+10 6.10821e+09 4.19031e+09 4.1882e+09 8.81811e+08 8.0196e+08 7.15316e+08 4.17237e+08 3.72495e+08 3.35798e+08 1.65861e+08 1.61845e+08 1.51228e+08 1.46503e+08 1.59915e+08 1.42649e+08 1.42002e+08 1.04951e+08 9.29728e+07 8.5284e+07 8.02509e+07 7.039e+07 5.82629e+07 4.99238e+07 4.42422e+07 4.2503e+07 3.95342e+07 3.6489e+07 3.55664e+07 3.12586e+07 2.849e+07 2.46341e+07 2.33643e+07 2.29256e+07 2.20191e+07 2.08641e+07 2.05631e+07 1.87116e+07 1.75127e+07 1.8467e+07 1.72523e+07 1.55191e+07 1.53064e+07 1.47139e+07 1.44769e+07 1.34459e+07 1.29288e+07 1.29073e+07 1.13459e+07 1.1011e+07 1.01556e+07 1.00438e+07 1.00024e+07 8.92438e+06 8.02913e+06 7.48157e+06 7.05615e+06 6.30298e+06 5.13342e+06 4.96452e+06 9.40366e+06 4.27702e+06 4.13492e+06 4.12898e+06 3.99362e+06 3.73593e+06 3.46425e+06 3.42499e+06 2.79918e+06 2.66944e+06 2.55806e+06 2.4493e+06 2.25515e+06 2.11995e+06 1.76081e+06 1.74572e+06 1.57285e+06 1.43153e+06 1.41e+06 1.39747e+06 1.28785e+06 1.22663e+06 4.96969e+06 1.20488e+06 1.01094e+06 993763 896256 565321 552178 548015 495314 300007 26871.7
threshold=6.3350000000000009 7.1950000000000012 5.5250000000000012 0 7.9050000000000011 6.0450000000000008 1 4.955000000000001 2 7.6050000000000013 4.205000000000001 6.6150000000000011 6.8450000000000006 3 4 5 4.4150000000000009 4.1850000000000014 3.9150000000000005 7.0150000000000006 7.995000000000001 6 56.95000000000001 7 4.7150000000000007 4.6350000000000007 8 7.0150000000000006 9 6.6550000000000011 7.3750000000000009 5.8650000000000011 5.2650000000000006 3.8850000000000002 6.8050000000000006 3.9750000000000005 7.3250000000000011 4.1350000000000007 5.6850000000000014 4.9850000000000012 8.4450000000000021 6.8950000000000005 4.1850000000000014 4.0050000000000008 6.4350000000000014 8.1750000000000025 5.7250000000000005 3.9350000000000005 3.5850000000000004 4.5750000000000011 4.0650000000000004 5.8450000000000006 4.3050000000000006 4.285000000000001 6.205000000000001 5.6650000000000009 5.0750000000000011 6.1150000000000011 3.9050000000000007 3.6450000000000005 4.5850000000000009 4.5450000000000008 4.4850000000000012 6.3850000000000007 57.750000000000007 6.1650000000000009 3.5150000000000001 3.2450000000000006 3.8350000000000004 3.4650000000000003 5.785000000000001 5.6750000000000007 58.350000000000001 6.705000000000001 57.95000000000001 6.1350000000000007 3.6450000000000005 3.9850000000000008 5.6450000000000005 5.9750000000000005 5.3550000000000013 3.3350000000000004 56.95000000000001 57.650000000000013 4.9150000000000009 3.3850000000000002 6.7250000000000005 57.95000000000001 5.1450000000000005 6.205000000000001 3.2850000000000006 56.95000000000001 4.7150000000000007 58.350000000000001
decision_type=2 2 2 1 2 2 1 2 1 2 2 2 2 1 1 1 2 2 2 2 2 1 2 1 2 2 1 2 1 2 2 2 2 2 2 2 2 2 2 2 2 2 2 2 2 2 2 2 2 2 2 2 2 2 2 2 2 2 2 2 2 2 2 2 2 2 2 2 2 2 2 2 2 2 2 2 2 2 2 2 2 2 2 2 2 2 2 2 2 2 2 2 2 2
left_child=2 3 7 8 9 21 12 25 17 16 13 43 29 37 26 65 -3 44 -17 34 -6 31 30 28 -11 52 35 -14 46 47 -18 55 56 -15 -12 57 60 58 78 45 -41 -19 -13 -10 -2 -22 -23 -5 66 62 77 71 -1 -36 75 -4 -9 -7 -8 -33 61 -24 -38 -60 88 -16 -40 -34 -59 -57 91 -25 -56 -52 -73 -28 -50 -35 -30 -61 90 -82 -49 -84 92 -83 -31 -46 -58 -70 -69 -71 -27 -51
right_child=1 4 5 6 20 14 10 32 11 24 19 42 27 33 15 18 22 41 -20 -21 39 23 36 51 -26 84 54 -29 38 86 -32 59 67 50 53 -37 49 -39 48 40 -42 -43 -44 -45 87 -47 -48 82 76 93 73 -53 -54 -55 72 69 64 68 63 79 -62 -63 -64 -65 -66 -67 -68 80 89 70 -72 74 -74 -75 -76 -77 -78 -79 -80 -81 81 85 83 -85 -86 -87 -88 -89 -90 -91 -92 -93 -94 -95
leaf_value=-53.109854560374913 39.512929317301101 76.638887690801482 -29.547987781208992 25.423506120466353 150.98429222963108 -4.9595271665945111 11.095310633190069 -40.366315410169982 76.095002987072945 120.36190090180011 17.647218777910798 101.69932402653986 50.552175813133168 -7.0207290202003474 -6.1021251877061333 14.349086930248172 105.91490686629656 64.066468612754704 42.852477204775411 46.166333120245689 178.22549204513564 -7.8423770583470001 93.569484729485495 -28.168709831605259 141.55751491574722 -48.153057778707073 -12.47886604924606 71.548779586624605 -22.026238730439221 47.397505060140091 123.98149331162499 -21.575235295736974 -35.106806240393269 1.847606109951083 25.515320431902207 12.949560242675819 102.77069547221434 27.357974830578328 -16.668528120719909 177.1328117065305 191.1353675962277 78.544974007459189 115.36844035638424 89.264864976442709 52.799745707005258 159.03479481510908 4.3100986476958889 32.015778557468863 -8.4989034164570896 103.71974017298574 6.9480730226515721 -16.613016199352089 -50.423024333226387 34.962622980566273 -1.4642116595323715 -28.589777158953858 -36.726113976642502 -1.1214509017213596 12.923706947462515 -17.600723158116509 90.225320561613245 106.96901831305397 112.37544472071156 17.964098192663734 -38.549764388361183 0.47576887397683959 -11.737842154612192 -31.106664923066464 2.9945413586817939 -23.690204951300245 -21.379199088851237 -21.197392204452633 -6.5420540112203378 10.989754606493168 -26.288216347268271 -8.1511554897526377 -4.0505355885115346 4.2682243409651281 -17.478698036995663 -13.602787818537262 -32.216075025718098 -27.152216296164145 39.552710911094479 33.062595050741436 -42.87762514743595 -31.053671823193302 42.329517166098796 48.239995540033156 -34.952791796908677 5.5527240365665698 -34.274871071900421 -25.829133361879919 -46.593640762175973 95.394447092458719
leaf_weight=721 55 58 143 63 51 56 66 215 74 73 90 71 74 56 56 101 64 58 70 90 58 53 60 58 108 322 72 51 54 50 101 79 139 151 104 57 61 61 86 235 89 68 90 71 85 56 64 66 57 76 110 67 1859 59 65 53 213 59 65 63 54 53 130 328 251 62 123 67 58 108 108 75 57 76 51 55 57 200 50 62 103 71 72 112 50 60 65 73 413 52 98 149 777 50
leaf_count=721 55 58 143 63 51 56 66 215 74 73 90 71 74 56 56 101 64 58 70 90 58 53 60 58 108 322 72 51 54 50 101 79 139 151 104 57 61 61 86 235 89 68 90 71 85 56 64 66 57 76 110 67 1859 59 65 53 213 59 65 63 54 53 130 328 251 62 123 67 58 108 108 75 57 76 51 55 57 200 50 62 103 71 72 112 50 60 65 73 413 52 98 149 777 50
internal_value=0.575996 68.7884 -34.9546 35.3299 133.261 -11.1226 22.1983 -45.5378 74.7092 110.075 14.988 93.7733 40.5666 10.3217 3.88491 13.8612 104.129 55.2629 24.617 30.551 175.299 -19.0106 106.561 -14.2939 133.156 -49.858 -1.77556 59.2228 -10.489 36.0393 117.115 -23.4143 -35.6493 3.88342 24.963 2.94257 102.914 17.2531 -12.9746 178.058 181.099 71.9962 109.479 82.6617 47.8961 169.104 -1.10474 32.8615 -11.1416 105.975 5.09509 -21.8082 -51.1781 28.9749 -7.02445 -25.8075 -37.2128 0.528563 16.2742 -17.9601 96.9807 100.038 109.422 17.1377 -36.4304 -2.44437 -13.7812 -32.4628 2.35094 -24.5139 -23.9062 -24.863 -3.8437 8.60989 -23.2977 -10.621 -6.28609 3.22858 -19.879 -15.6435 -31.524 -30.4346 34.7132 35.6438 -46.8853 -28.9853 44.6141 50.7589 -35.5681 4.21202 -33.0289 -24.9501 -47.0595 100.578
internal_weight=11770 4031 7739 2654 1377 2380 2009 5359 645 888 1456 306 553 1113 820 289 707 339 171 343 489 1560 649 795 181 3729 531 125 544 428 165 765 1630 593 253 282 484 520 427 438 324 126 161 145 213 114 117 313 323 317 537 251 2580 163 249 561 1092 225 459 204 167 113 191 393 877 118 209 538 169 418 365 184 122 186 126 127 114 351 104 125 399 234 250 184 1149 131 115 158 626 110 165 257 1099 126
internal_count=11770 4031 7739 2654 1377 2380 2009 5359 645 888 1456 306 553 1113 820 289 707 339 171 343 489 1560 649 795 181 3729 531 125 544 428 165 765 1630 593 253 282 484 520 427 438 324 126 161 145 213 114 117 313 323 317 537 251 2580 163 249 561 1092 225 459 204 167 113 191 393 877 118 209 538 169 418 365 184 122 186 126 127 114 351 104 125 399 234 250 184 1149 131 115 158 626 110 165 257 1099 126
cat_boundaries=0 1 2 3 4 5 6 7 8 9 10
cat_threshold=480 16 32 8 14 224 14 30 8 448
is_linear=0
shrinkage=0.017876


Tree=8
num_leaves=85
num_cat=14
split_feature=8 8 8 3 8 8 3 8 3 8 8 8 8 8 3 3 2 3 8 2 3 8 2 8 5 3 8 3 8 8 1 8 8 8 8 8 8 8 8 8 8 5 8 8 5 8 8 8 5 8 8 5 8 8 5 5 8 8 5 8 8 5 8 5 8 5 1 8 8 8 8 8 8 5 5 8 8 5 8 8 5 5 5 8
split_gain=8.53756e+10 2.62832e+10 5.83474e+09 4.22342e+09 3.64178e+09 8.37725e+08 8.32586e+08 6.9442e+08 4.40469e+08 3.01123e+08 2.84872e+08 2.16174e+08 1.66749e+08 1.42684e+08 1.39759e+08 1.35764e+08 1.3383e+08 9.02244e+07 8.05203e+07 6.58829e+07 4.72188e+07 4.67438e+07 4.66095e+07 4.61747e+07 4.07242e+07 3.70744e+07 3.24813e+07 2.68871e+07 2.67336e+07 2.58071e+07 2.41734e+07 2.1174e+07 2.04839e+07 1.65813e+07 1.55465e+07 1.37436e+07 1.20639e+07 1.20308e+07 1.38525e+07 1.19058e+07 1.188e+07 1.02183e+07 7.7876e+06 5.59796e+06 5.37626e+06 5.08396e+06 4.69319e+06 4.51073e+06 3.83567e+06 3.52064e+06 3.21683e+06 3.14695e+06 2.4679e+06 2.44949e+06 2.37651e+06 6.65516e+06 2.35539e+06 2.26828e+06 2.17345e+06 2.16304e+06 6.95559e+06 2.06173e+06 1.98886e+06 1.87856e+06 1.86614e+06 1.85388e+06 1.74468e+06 1.71223e+06 1.48863e+06 1.26987e+06 1.12933e+06 927093 858659 713618 666335 568977 542279 520693 493172 432088 348442 245672 196959 16060.3
threshold=3.9150000000000005 4.4350000000000014 3.4050000000000007 0 4.8450000000000006 3.7550000000000003 1 3.0650000000000004 2 4.6650000000000009 4.205000000000001 4.205000000000001 4.1850000000000014 4.1750000000000007 3 4 5 6 4.3550000000000013 7 8 2.8350000000000004 9 4.5050000000000008 59.95000000000001 10 3.6450000000000005 11 3.6350000000000002 4.2650000000000006 12 3.2750000000000004 4.1350000000000007 4.0550000000000006 4.0750000000000011 4.0450000000000008 4.035000000000001 4.745000000000001 4.705000000000001 3.5850000000000004 3.5950000000000002 55.95000000000001 4.9450000000000012 2.5650000000000004 57.95000000000001 3.8250000000000006 3.4650000000000003 3.1950000000000007 58.350000000000001 3.3450000000000002 4.2950000000000008 59.95000000000001 3.9550000000000005 3.8450000000000002 58.350000000000001 57.95000000000001 3.5050000000000003 4.1150000000000011 57.95000000000001 5.035000000000001 5.1050000000000013 56.45000000000001 3.5250000000000004 57.150000000000013 3.0350000000000006 57.95000000000001 13 3.0950000000000002 3.9550000000000005 3.7050000000000005 4.0250000000000012 3.5450000000000004 4.1450000000000005 59.95000000000001 57.95000000000001 3.5950000000000002 4.0650000000000004 57.250000000000007 4.2650000000000006 3.8550000000000004 58.350000000000001 57.750000000000007 57.95000000000001 3.5450000000000004
decision_type=2 2 2 1 2 2 1 2 1 2 2 2 2 2 1 1 1 1 2 1 1 2 1 2 2 1 2 1 2 2 1 2 2 2 2 2 2 2 2 2 2 2 2 2 2 2 2 2 2 2 2 2 2 2 2 2 2 2 2 2 2 2 2 2 2 2 1 2 2 2 2 2 2 2 2 2 2 2 2 2 2 2 2 2
left_child=2 3 7 8 9 17 13 21 11 23 14 35 34 36 32 22 24 26 20 27 65 43 25 51 -17 73 46 40 44 -15 33 47 52 66 -10 -2 68 38 -11 56 62 -25 -6 -1 71 -27 -4 67 -18 82 -13 -3 -8 -24 55 -43 -29 76 -54 -44 -61 -51 -19 75 -23 -12 -16 -9 -5 -28 -32 -21 -35 79 -70 83 -38 -49 -22 -7 -47 -69 -33 -48
right_child=1 4 5 6 42 15 10 31 12 37 18 50 -14 29 30 16 48 19 -20 28 78 64 53 41 -26 45 69 39 -30 -31 70 49 -34 72 -36 -37 57 -39 -40 -41 -42 54 59 -45 -46 80 63 77 -50 61 -52 -53 58 -55 -56 -57 -58 -59 -60 60 -62 -63 -64 -65 -66 -67 -68 81 74 -71 -72 -73 -74 -75 -76 -77 -78 -79 -80 -81 -82 -83 -84 -85
leaf_value=-53.107112709214753 41.610461789858604 88.72044123731169 -29.935362669739479 28.067031512571717 158.71747205282244 5.77090327001026 11.715086552501294 -40.61838072277402 83.410360699091825 128.82530767522698 32.815818711359789 71.560258458249407 116.26645606693333 47.361076193648188 0.68446210466770463 20.920993348873889 -3.7904747286449387 -18.418384841261926 46.75159594487679 -21.496462360700171 13.573309569199978 -46.173024929955133 -13.60012173033657 112.95205861069988 40.94008052220255 -8.3254460483436752 -17.443973555137529 -8.7062672027854173 -10.670493707621665 61.631526855646797 -2.3833133756127642 -32.842349960546471 25.986229912514521 8.5860790789306005 95.644452142780011 50.707936662629272 37.934182049096862 133.73866147670532 112.83373986308027 3.8418492112982072 -6.1179978109328639 104.38949764016726 175.59244752718385 -49.933337501131824 -24.575064621170014 -2.6420910686985088 -22.989597131286057 -34.325960501585513 2.9039075037879516 -25.389694082152399 80.253309455144191 97.328103291636822 17.014183768093538 -8.4108832959089632 106.54103597861128 96.183972314864178 -4.0239222986673555 41.213372476250157 14.288415152199867 160.41194743075661 171.20996019457613 -30.594987789962246 -13.958693329266957 -25.550992536028957 -42.250057497230124 38.058998005024073 3.6652409867290281 -36.027265023631827 33.833364793975775 -14.086113722534909 -6.0621353703895506 -18.565947509728733 11.290558262495225 9.4432420751158972 30.66357748457601 -21.498347362023736 33.803029999275026 -36.263994298180684 15.947352170778343 7.9324873842391721 -0.70387623899499385 -37.703351085481849 -30.419714736192628 -24.456119733715873
leaf_weight=255 129 82 57 50 77 52 61 61 158 65 67 66 90 99 116 95 55 60 62 68 84 1173 56 71 50 54 83 53 94 77 50 189 64 128 60 106 53 89 53 58 56 162 140 2274 122 62 104 491 54 56 52 69 204 64 180 103 99 59 197 111 179 66 81 259 71 57 196 313 83 79 58 122 58 65 87 72 50 143 62 81 57 214 63 125
leaf_count=255 129 82 57 50 77 52 61 61 158 65 67 66 90 99 116 95 55 60 62 68 84 1173 56 71 50 54 83 53 94 77 50 189 64 128 60 106 53 89 53 58 56 162 140 2274 122 62 104 491 54 56 52 69 204 64 180 103 99 59 197 111 179 66 81 259 71 57 196 313 83 79 58 122 58 65 87 72 50 143 62 81 57 214 63 125
internal_value=0.566469 66.8603 -34.3965 34.2405 130.219 -10.8185 21.0324 -44.6586 73.1995 108.058 13.7235 54.21 92.5265 39.6175 9.54364 4.82589 15.1224 -18.1393 28.3738 -13.3244 24.1211 -48.842 -0.796394 102.114 26.0768 2.37482 -22.6972 -7.73031 -18.6051 53.6694 3.45281 -34.7638 16.1835 5.11635 86.865 45.755 34.1543 127.091 121.853 -2.90096 -12.4819 104.807 168.362 -50.2577 -21.5829 -3.58021 -24.8629 -35.9193 -0.434946 -30.9706 75.5248 92.7815 15.1647 -10.0183 103.455 101.278 -5.6662 37.9492 15.6831 170.012 167.194 -28.2527 -15.8806 -24.3358 -45.9562 32.6562 2.69751 -37.1407 31.3269 -15.8266 -3.99737 -19.637 9.44102 7.4984 32.2504 -23.2733 36.0005 -34.7748 13.6678 7.09763 -1.71653 -36.7224 -32.2621 -23.8115
internal_weight=11770 4064 7706 2683 1381 2337 2022 5369 661 874 1464 353 308 558 1132 745 254 1592 332 813 270 3773 491 667 145 371 779 407 406 176 606 1596 526 498 218 235 382 207 118 210 197 516 507 2529 312 173 617 1222 109 374 118 151 462 120 445 265 152 162 401 430 290 122 141 560 1244 124 312 588 220 162 108 190 186 198 170 301 103 634 146 133 119 527 252 229
internal_count=11770 4064 7706 2683 1381 2337 2022 5369 661 874 1464 353 308 558 1132 745 254 1592 332 813 270 3773 491 667 145 371 779 407 406 176 606 1596 526 498 218 235 382 207 118 210 197 516 507 2529 312 173 617 1222 109 374 118 151 462 120 445 265 152 162 401 430 290 122 141 560 1244 124 312 588 220 162 108 190 186 198 170 301 103 634 146 133 119 527 252 229
cat_boundaries=0 1 2 3 4 5 6 7 8 9 10 11 12 13 14
cat_threshold=480 16 32 8 14 30 14 14 8 30 8 16 56 16
is_linear=0
shrinkage=0.017876


Tree=9
num_leaves=89
num_cat=1
split_feature=0 7 0 7 7 7 7 7 1 7 7 7 7 7 8 8 0 0 0 7 7 8 8 8 8 8 7 7 7 0 8 0 0 7 8 0 7 8 7 7 8 0 7 7 7 8 0 8 7 7 7 7 8 7 7 8 0 8 8 8 7 8 8 8 7 8 8 0 7 8 8 0 8 8 8 7 8 7 7 8 8 8 0 8 0 8 8 8
split_gain=8.3794e+10 2.67818e+10 4.61074e+09 3.85545e+09 1.10319e+09 6.09571e+08 4.9454e+08 3.63567e+08 1.95995e+08 1.07158e+08 1.00114e+08 9.73258e+07 8.92515e+07 8.65518e+07 8.51074e+07 5.023e+07 4.37519e+07 4.00448e+07 5.23582e+07 6.87475e+07 3.15266e+07 2.83128e+07 2.06113e+07 2.89916e+07 1.96452e+07 2.48389e+07 2.79588e+07 1.8607e+07 1.70066e+07 1.69196e+07 1.51462e+07 1.48619e+07 1.4634e+07 1.41086e+07 1.39767e+07 1.35497e+07 1.30426e+07 1.27342e+07 1.20472e+07 1.17007e+07 1.06457e+07 2.91397e+07 9.82949e+06 8.96105e+06 8.11884e+06 7.67665e+06 6.85336e+06 6.47995e+06 5.90779e+06 4.86877e+06 4.32568e+06 4.29531e+06 4.26812e+06 3.96972e+06 3.53648e+06 3.23699e+06 5.74656e+06 3.09473e+06 2.77793e+06 2.59433e+06 2.55193e+06 2.36708e+06 2.10468e+06 2.09807e+06 2.09306e+06 2.00219e+06 1.47704e+06 1.36024e+06 1.25875e+06 1.62413e+06 1.19438e+06 3.02165e+06 1.07499e+06 874609 1.10703e+06 1.3607e+06 717505 667435 641775 611930 1.22622e+06 576508 627326 455671 157243 71972.1 19544.4 430887
threshold=0.99500000000000011 7.1850000000000014 0.60500000000000009 7.9050000000000011 6.8150000000000004 4.995000000000001 6.0750000000000011 7.5950000000000006 0 6.6350000000000007 7.3550000000000013 5.745000000000001 8.0250000000000004 6.3450000000000006 4.1850000000000014 4.5050000000000008 0.37500000000000006 1.405 1.2150000000000001 6.8850000000000007 6.6950000000000012 4.9850000000000012 4.705000000000001 4.4750000000000005 3.9950000000000006 4.0850000000000009 6.5050000000000008 7.2750000000000012 6.3850000000000007 1.6850000000000003 3.7350000000000008 1.2850000000000004 1.7350000000000001 5.5450000000000008 4.0550000000000006 1.1250000000000002 5.9450000000000012 4.0150000000000006 6.4250000000000007 5.3350000000000009 4.6450000000000005 1.5550000000000004 6.5750000000000011 6.5450000000000008 6.4650000000000007 3.4650000000000003 0.29500000000000004 4.0450000000000008 6.9450000000000012 6.1350000000000007 5.0950000000000006 8.4450000000000021 3.6450000000000005 6.745000000000001 5.7150000000000007 3.9250000000000003 1.0650000000000002 3.9750000000000005 3.8450000000000002 4.1350000000000007 6.5050000000000008 3.8950000000000005 3.0950000000000002 4.0150000000000006 6.285000000000001 3.8050000000000002 4.3350000000000009 0.44500000000000006 6.205000000000001 3.8450000000000002 3.8050000000000002 0.81500000000000006 3.4250000000000003 3.5150000000000001 3.7050000000000005 5.785000000000001 3.5850000000000004 5.205000000000001 6.7650000000000006 3.5250000000000004 3.5550000000000002 3.5550000000000002 0.70500000000000007 3.8450000000000002 0.33500000000000008 3.2650000000000001 3.2850000000000006 3.2150000000000003
decision_type=2 2 2 2 2 2 2 2 1 2 2 2 2 2 2 2 2 2 2 2 2 2 2 2 2 2 2 2 2 2 2 2 2 2 2 2 2 2 2 2 2 2 2 2 2 2 2 2 2 2 2 2 2 2 2 2 2 2 2 2 2 2 2 2 2 2 2 2 2 2 2 2 2 2 2 2 2 2 2 2 2 2 2 2 2 2 2 2
left_child=2 4 5 7 8 16 11 10 9 24 15 33 -5 47 59 -3 46 18 -16 -20 38 -14 23 -12 28 26 37 -17 -2 -9 -8 48 -31 72 -11 -36 45 -26 57 50 41 -25 -28 44 -30 -13 -1 64 -21 58 -7 -23 -38 -37 76 60 -57 -15 -32 -6 -40 65 -52 -59 -10 -51 -33 -18 83 -70 71 -54 -4 -47 75 -75 81 -64 -22 -56 -81 82 -35 -67 -48 -41 87 -79
right_child=1 3 6 12 14 39 30 29 13 34 22 36 21 20 17 27 67 -19 19 31 78 51 -24 40 25 -27 42 -29 43 32 49 66 -34 54 35 53 52 -39 55 85 -42 -43 -44 -45 -46 73 84 -49 -50 61 62 -53 70 -55 79 56 -58 63 -60 -61 -62 -63 77 -65 -66 68 -68 -69 69 -71 -72 -73 -74 74 -76 -77 -78 86 -80 80 -82 -83 -84 -85 -86 -87 -88 -89
leaf_value=-51.908939796834133 17.219503384821493 78.703467551653631 -27.212192430534731 150.31203029330555 36.185682954008556 -37.759977837799362 -7.2538040160232935 117.7505233909088 10.17480160729602 32.074629395964976 97.980426678693178 -21.796944729538264 163.688642586763 28.884651429274495 69.275474004339614 89.99110689899652 -45.393974386041535 70.703739163786949 37.438878753362118 56.8142914727893 32.602199042752382 174.41708535406883 94.630492328371588 114.06801739808539 34.522356108041492 22.786825573612628 42.418293895650336 102.13096383568016 25.747846239920417 141.53009336470686 1.1641826201638723 48.60042040494757 126.32187273585728 -22.921921389510533 48.685179425979904 36.97153438472256 -15.982957996800813 26.147727974407907 20.478081730001914 -32.39383796564185 121.50893799061109 98.518484959862619 32.776059231641085 21.012729142602378 32.714270492102536 -17.329487810615586 -49.215557723659572 6.1285334447722519 65.34580295646721 0.51740999576886126 -38.584604294055183 185.86141820513959 -9.1315765740017873 42.69111249126216 -21.825859086920147 23.470581037149838 18.758780698558056 21.455560504434811 -4.1859927655154916 42.61162533457739 14.945175707527049 -1.0450406134921435 -35.207063611146502 26.641591245455835 14.605594601196719 3.6893353732975784 53.878829705234892 -42.221636162859184 2.7304054040472905 7.0064054259315158 -8.5840168661722664 -14.824447595408454 -31.408450984606858 -16.34194987972041 -17.851292809549275 -14.250753012081525 -25.301252649855794 -34.64492883992304 29.217244075595417 -17.109843351780395 -21.245995595244157 -21.377498857387636 -25.654133316276923 1.6247327209893649 -48.035336292949765 -30.458258465263647 -35.572451413761591 -32.704407630966465
leaf_weight=357 62 67 61 71 57 223 73 53 62 50 78 72 104 65 71 90 1104 61 81 87 74 213 50 165 100 90 106 132 114 61 59 56 87 235 89 96 55 153 51 87 51 69 57 55 114 91 1712 71 62 80 59 84 76 99 64 164 184 68 65 54 65 54 471 51 84 65 109 92 51 65 81 51 57 168 54 318 73 165 67 55 54 92 51 73 508 187 66 242
leaf_count=357 62 67 61 71 57 223 73 53 62 50 78 72 104 65 71 90 1104 61 81 87 74 213 50 165 100 90 106 132 114 61 59 56 87 235 89 96 55 153 51 87 51 69 57 55 114 91 1712 71 62 80 59 84 76 99 64 164 184 68 65 54 65 54 471 51 84 65 109 92 51 65 81 51 57 168 54 318 73 165 67 55 54 92 51 73 508 187 66 242
internal_value=0.55704 64.5418 -34.9965 129.254 33.0822 -44.1986 -13.8333 107.564 27.0538 32.2577 101.407 -18.6912 170.685 20.3954 53.7691 93.0464 -48.0331 56.7821 54.9292 52.3155 23.3484 174.212 107.208 108.885 29.1457 31.4122 33.266 97.2978 25.8048 128.941 0.351992 56.126 132.779 -23.5627 41.129 42.6985 -14.9451 29.4834 21.6656 -34.5482 111.796 109.574 39.0923 27.6717 29.2576 -16.2195 -49.364 10.5854 60.45 1.4389 -35.3142 177.781 -11.5288 39.9175 -22.4702 20.1046 20.9919 25.5752 -1.64265 39.3853 17.4099 2.42408 -34.7628 23.7205 12.7411 2.98525 52.1505 -45.1573 3.76148 5.13465 -10.3363 -11.4381 -29.2906 -15.5761 -15.2741 -14.9803 -23.334 -34.5155 31.0389 -20.1934 -19.1953 -22.9404 -23.4273 2.60126 -48.95 -31.0968 -33.8118 -33.5083
internal_weight=11770 4204 7566 1375 2829 5273 2293 903 2191 1185 702 1708 472 1006 638 289 3773 527 466 395 789 401 413 363 851 506 416 222 345 201 585 314 148 742 334 284 966 253 648 1500 285 234 163 283 228 703 2577 217 149 512 1226 297 263 195 624 464 348 184 124 111 116 388 1003 119 146 334 165 1196 254 116 208 127 118 631 540 486 451 944 141 173 109 378 286 138 2220 274 473 407
internal_count=11770 4204 7566 1375 2829 5273 2293 903 2191 1185 702 1708 472 1006 638 289 3773 527 466 395 789 401 413 363 851 506 416 222 345 201 585 314 148 742 334 284 966 253 648 1500 285 234 163 283 228 703 2577 217 149 512 1226 297 263 195 624 464 348 184 124 111 116 388 1003 119 146 334 165 1196 254 116 208 127 118 631 540 486 451 944 141 173 109 378 286 138 2220 274 473 407
cat_boundaries=0 1
cat_threshold=40
is_linear=0
shrinkage=0.017876


Tree=10
num_leaves=96
num_cat=11
split_feature=7 7 7 3 7 3 7 7 3 7 7 7 7 7 3 4 2 3 7 4 4 3 7 7 2 7 7 7 7 7 4 7 7 3 4 7 4 7 4 4 3 7 4 7 7 2 4 7 7 7 7 7 4 4 7 7 4 7 7 7 7 7 4 7 4 4 7 7 4 4 4 7 4 4 4 4 7 7 4 4 7 7 4 4 4 4 4 4 7 4 4 4 4 7 4
split_gain=7.96229e+10 2.44384e+10 5.21808e+09 3.80341e+09 3.67617e+09 7.67401e+08 6.80889e+08 6.5724e+08 4.26377e+08 2.5193e+08 2.43587e+08 1.47771e+08 1.45405e+08 1.37466e+08 1.26178e+08 1.18159e+08 1.024e+08 1.02402e+08 8.89399e+07 7.879e+07 8.40293e+07 7.17254e+07 7.09663e+07 6.53529e+07 5.68044e+07 5.0589e+07 3.96487e+07 3.92144e+07 3.83625e+07 3.82786e+07 3.49847e+07 3.58734e+07 3.36784e+07 2.87655e+07 2.81029e+07 1.97173e+07 1.9702e+07 1.93935e+07 1.84026e+07 7.61212e+07 1.77068e+07 1.75586e+07 1.38616e+07 1.21893e+07 1.11082e+07 1.07609e+07 8.78644e+06 8.73649e+06 8.37711e+06 8.27206e+06 8.22763e+06 7.00057e+06 6.52833e+06 6.43934e+06 6.22653e+06 5.10446e+06 4.93947e+06 4.24896e+06 3.91653e+06 3.9112e+06 3.57892e+06 3.12837e+06 3.40701e+06 2.90046e+06 2.85537e+06 2.68616e+06 2.47758e+06 2.37802e+06 1.86848e+06 1.61485e+06 1.47301e+06 1.44686e+06 1.30084e+06 1.22222e+06 1.06438e+06 890736 867409 778424 659921 1.22849e+06 555782 529874 350830 274386 266535 1.04868e+06 252699 195449 184502 415848 180627 50356.4 46678.2 34509 10736.9
threshold=6.3250000000000011 7.1850000000000014 5.5450000000000008 0 7.8550000000000013 1 6.0750000000000011 4.995000000000001 2 6.745000000000001 7.5950000000000006 6.7650000000000006 6.7950000000000008 6.6350000000000007 3 63.250000000000007 4 5 7.2750000000000012 59.45000000000001 63.050000000000004 6 6.9450000000000012 6.2250000000000005 7 8.0250000000000004 4.5950000000000006 7.4150000000000009 5.9450000000000012 6.9650000000000007 59.750000000000007 8.4150000000000009 5.7350000000000012 8 61.750000000000007 6.455000000000001 61.45000000000001 5.3150000000000004 61.95000000000001 60.750000000000007 9 6.6350000000000007 59.45000000000001 5.9250000000000007 5.9450000000000012 10 60.850000000000001 6.6750000000000007 6.9250000000000007 6.3850000000000007 5.7150000000000007 6.1750000000000007 61.350000000000001 61.150000000000013 6.2250000000000005 6.4650000000000007 60.45000000000001 5.7250000000000005 6.6350000000000007 4.2550000000000008 5.1050000000000013 6.4350000000000014 62.050000000000004 5.8250000000000011 62.95000000000001 59.750000000000007 6.0250000000000012 5.7750000000000012 61.45000000000001 60.45000000000001 62.650000000000013 5.705000000000001 62.650000000000013 60.650000000000013 62.550000000000004 59.850000000000001 4.6950000000000012 5.3950000000000005 62.050000000000004 62.750000000000007 6.205000000000001 5.9850000000000012 62.350000000000001 62.150000000000013 61.350000000000001 62.750000000000007 62.050000000000004 61.250000000000007 5.205000000000001 61.350000000000001 62.650000000000013 61.95000000000001 62.150000000000013 5.6350000000000007 61.95000000000001
decision_type=2 2 2 1 2 1 2 2 1 2 2 2 2 2 1 2 1 1 2 2 2 1 2 2 1 2 2 2 2 2 2 2 2 1 2 2 2 2 2 2 1 2 2 2 2 1 2 2 2 2 2 2 2 2 2 2 2 2 2 2 2 2 2 2 2 2 2 2 2 2 2 2 2 2 2 2 2 2 2 2 2 2 2 2 2 2 2 2 2 2 2 2 2 2 2
left_child=2 3 7 8 10 11 21 26 12 14 18 41 35 55 47 25 17 33 72 -20 27 28 40 -19 32 -6 59 52 50 -13 -27 -32 71 54 -24 -2 -15 60 39 -12 94 56 -16 57 46 70 -34 61 -14 -44 93 -35 -21 -42 74 -10 -5 -26 -51 -1 -9 62 -7 87 65 -62 81 -48 -37 -63 -18 83 -3 -65 -8 -39 -28 86 -58 -80 -47 -30 -53 -23 -79 -86 -77 -52 -67 -90 -61 -89 -75 -4 -11
right_child=1 4 6 5 15 9 16 37 13 22 38 29 48 36 42 -17 45 23 19 20 -22 24 34 -25 43 30 76 -29 66 -31 31 -33 44 51 -36 68 -38 75 -40 -41 53 -43 49 -45 -46 80 67 -49 -50 58 63 82 -54 -55 -56 -57 78 -59 -60 90 64 69 -64 73 -66 88 -68 -69 -70 -71 -72 -73 -74 92 -76 77 -78 84 79 -81 -82 -83 -84 -85 85 -87 -88 91 89 -91 -92 -93 -94 -95 -96
leaf_value=-50.442868211381239 36.585066868951742 79.877458555610716 -27.750400975706651 26.026141068539562 151.2902417712308 9.1302336241201498 6.9612939001387586 -36.798972336876048 76.06799047225995 27.644589915582539 112.92071784579466 47.34936008772609 63.275873599375856 97.570350985361372 -4.9767825926096698 140.27759840482182 -0.33385651309225528 11.372078057006604 79.860140546741931 94.903835734217395 82.353681726440769 -17.73072735600595 27.361020549717793 35.763620754304533 -26.140231517846416 157.06682263994296 -45.896650261365615 112.97717538727593 -17.404253444058366 66.22612194009065 171.12106640465973 190.83675872209804 -12.280798873946882 -8.2172898716582488 43.518443021779461 45.419610676612464 112.82242737315671 -33.077216977590744 113.60474998159225 144.08481923331061 8.4284174648606829 40.732538782383074 -0.98670173363617375 -13.677848795275722 1.1999590475701394 -12.572576247561036 -7.7361405159612522 22.331431305628392 74.568283805575533 4.2736450352356394 -24.599215157693546 -1.421970099149928 104.05501360158735 16.333825277418594 11.907812157216862 85.048331521067325 30.975703644197626 -20.671266661641639 8.3185117809275848 -47.913829162657684 -37.696995479929434 13.7883976471417 14.907384574828479 -22.784563505357298 -38.223370646536537 -34.114340222075953 -11.414279698418561 -3.8028179299603435 50.798136234891508 16.993762356054077 -4.2645866868162958 -12.894115027261471 87.901527331940599 -18.165681947902844 3.4228553471913421 -30.170653024239794 -44.180099626614492 -30.636470938150417 35.296082539843837 31.234592684446636 -9.8320384456384424 -14.501983855064347 0.65069241641450426 -15.610020614084121 -26.587396158549307 -30.439306021575305 -32.858290504551086 -21.764229369762553 -34.101731223401643 -32.139285224125182 -49.361905292041044 -23.565679999593417 -19.972766286294117 -25.980563657042875 30.085842737699956
leaf_weight=381 67 51 77 51 61 51 50 259 70 65 60 107 51 70 58 60 64 83 50 70 54 50 66 61 89 66 303 211 51 54 246 56 86 56 76 65 78 53 71 54 51 86 81 57 56 53 85 62 66 319 91 52 178 97 68 78 114 109 101 1807 68 74 98 50 65 398 66 118 88 220 58 59 69 57 61 140 1017 55 85 68 55 54 52 87 88 54 53 65 149 244 298 92 53 144 53
leaf_count=381 67 51 77 51 61 51 50 259 70 65 60 107 51 70 58 60 64 83 50 70 54 50 66 61 89 66 303 211 51 54 246 56 86 56 76 65 78 53 71 54 51 86 81 57 56 53 85 62 66 319 91 52 178 97 68 78 114 109 101 1807 68 74 98 50 65 398 66 118 88 220 58 59 69 57 61 140 1017 55 85 68 55 54 52 87 88 54 53 65 149 244 298 92 53 144 53
internal_value=0.0396142 64.5058 -33.4976 33.107 126.271 20.8375 -10.9854 -43.0662 71.1182 13.8125 104.138 38.57 52.0677 90.3489 9.32366 165.497 3.53737 8.11887 99.1136 102.167 104.309 -17.4729 25.8463 20.3312 -13.0074 168.954 -47.1325 106.853 -21.4805 53.7576 171.796 174.905 -9.27938 2.48869 36.0594 44.9631 105.755 -33.5434 122.557 127.917 20.3704 33.4474 3.22599 -20.2551 -6.08312 -6.16722 -7.49422 15.6948 69.7663 4.24164 -23.7929 -2.95014 101.553 12.764 7.2471 80.913 31.452 -23.1543 5.24996 -48.4833 -34.756 15.11 12.9454 -22.2474 -34.1753 -33.8598 -14.211 -5.45597 48.5776 16.1972 -2.03971 -15.3661 84.6346 -20.2603 5.02673 -30.2904 -44.5813 -29.8943 32.4674 33.5356 -10.251 -15.9431 -0.386404 -16.4096 -28.8355 -28.0944 -30.9431 -23.5115 -33.5202 -32.9009 -48.1237 -22.8495 -19.0722 -26.6226 26.5461
internal_weight=11768 4027 7741 2670 1357 2037 2309 5432 633 1472 868 565 337 296 1064 489 713 483 683 563 513 1596 408 144 796 429 3806 459 800 161 368 302 541 339 142 220 148 1626 185 114 266 404 559 255 345 230 289 505 117 501 629 160 248 148 179 148 318 198 420 2486 1183 443 149 408 924 859 171 203 153 294 122 196 120 160 111 443 1320 390 267 153 108 105 104 137 197 142 193 248 791 393 2105 157 110 221 118
internal_count=11768 4027 7741 2670 1357 2037 2309 5432 633 1472 868 565 337 296 1064 489 713 483 683 563 513 1596 408 144 796 429 3806 459 800 161 368 302 541 339 142 220 148 1626 185 114 266 404 559 255 345 230 289 505 117 501 629 160 248 148 179 148 318 198 420 2486 1183 443 149 408 924 859 171 203 153 294 122 196 120 160 111 443 1320 390 267 153 108 105 104 137 197 142 193 248 791 393 2105 157 110 221 118
cat_boundaries=0 1 2 3 4 5 6 7 8 9 10 11
cat_threshold=480 16 32 8 30 12 14 30 8 8 32
is_linear=0
shrinkage=0.017876


Tree=11
num_leaves=86
num_cat=5
split_feature=0 0 0 3 0 3 0 0 3 0 0 0 3 0 0 0 8 0 0 8 0 8 5 3 0 0 5 0 0 0 8 8 0 5 0 8 5 5 8 5 0 0 8 0 0 0 5 8 5 0 0 0 8 8 5 8 0 0 8 0 0 8 0 8 8 0 5 5 5 0 8 8 5 8 8 8 8 5 8 5 5 8 5 0 8
split_gain=7.69479e+10 2.43137e+10 4.30166e+09 3.92487e+09 3.28104e+09 7.55847e+08 5.66353e+08 4.48134e+08 4.19252e+08 3.07962e+08 2.45662e+08 1.69742e+08 1.33173e+08 1.3155e+08 1.12819e+08 9.11327e+07 8.44236e+07 7.48832e+07 5.711e+07 5.36691e+07 4.79276e+07 3.82088e+07 3.58758e+07 3.54819e+07 3.52483e+07 2.54834e+07 2.37542e+07 3.06469e+07 1.77533e+07 1.33783e+07 1.33472e+07 1.25411e+07 1.2332e+07 1.2034e+07 1.17915e+07 1.08575e+07 1.0283e+07 8.89281e+06 8.32838e+06 7.47355e+06 6.25312e+06 5.54491e+06 5.33932e+06 5.13038e+06 5.10726e+06 4.90604e+06 4.27076e+06 4.21529e+06 3.8731e+06 3.54715e+06 3.23697e+06 3.06445e+06 2.94746e+06 1.89053e+07 2.74836e+06 2.61574e+06 2.48188e+06 2.4296e+06 3.48877e+06 2.28638e+06 2.25669e+06 2.12999e+06 2.0134e+06 1.99434e+06 1.8501e+06 1.25463e+06 1.1747e+06 1.12891e+06 1.08077e+06 754688 749633 1.7724e+06 1.05294e+06 708802 702925 661752 600169 532744 830803 310978 300863 634057 67888 23405.8 5096.72
threshold=0.99500000000000011 1.4850000000000001 0.60500000000000009 0 1.8400000000000003 1 0.45500000000000007 0.8650000000000001 2 1.5950000000000004 1.1950000000000001 1.2150000000000001 3 1.0750000000000004 1.175 2.2850000000000006 5.1450000000000005 2.0450000000000004 1.3250000000000004 5.0450000000000008 0.72500000000000009 4.6150000000000011 60.800000000000004 4 0.37500000000000006 1.0150000000000003 56.95000000000001 1.6850000000000003 1.0450000000000002 0.68500000000000016 4.1850000000000014 3.9050000000000007 0.52500000000000013 58.350000000000001 1.0650000000000002 3.5850000000000004 57.95000000000001 57.150000000000013 4.1350000000000007 61.95000000000001 0.29500000000000004 1.0050000000000001 4.0450000000000008 1.0350000000000004 0.78500000000000014 1.2850000000000004 57.95000000000001 4.0050000000000008 57.95000000000001 1.0150000000000003 0.48500000000000004 1.7150000000000001 4.5050000000000008 4.535000000000001 56.95000000000001 3.7250000000000005 2.0150000000000001 0.70500000000000007 3.5350000000000006 1.2250000000000003 1.0150000000000003 3.6150000000000007 0.55500000000000016 3.5550000000000002 3.6450000000000005 1.2350000000000001 55.95000000000001 57.750000000000007 59.95000000000001 1.1050000000000002 3.8050000000000002 3.8450000000000002 58.350000000000001 3.2150000000000003 3.5850000000000004 4.0650000000000004 4.1150000000000011 56.050000000000004 3.2550000000000003 59.95000000000001 60.800000000000004 3.4750000000000005 57.650000000000013 0.32500000000000007 3.7750000000000004
decision_type=2 2 2 1 2 1 2 2 1 2 2 2 1 2 2 2 2 2 2 2 2 2 2 1 2 2 2 2 2 2 2 2 2 2 2 2 2 2 2 2 2 2 2 2 2 2 2 2 2 2 2 2 2 2 2 2 2 2 2 2 2 2 2 2 2 2 2 2 2 2 2 2 2 2 2 2 2 2 2 2 2 2 2 2 2
left_child=2 3 6 8 9 14 24 20 11 21 12 25 34 49 33 16 17 19 23 56 29 22 52 65 40 -2 -11 -28 41 -4 -15 39 50 43 42 37 44 57 -27 54 -1 -14 60 47 61 -16 76 -5 -36 -10 -8 -29 -3 -54 66 -46 -6 58 -31 -25 -7 74 77 -59 79 -12 -9 73 -43 -45 84 -72 -73 -52 -22 -48 -30 78 -34 -38 81 -39 -64 -42 -56
right_child=1 4 7 5 15 10 32 31 13 26 18 -13 28 30 45 -17 -18 -19 -20 -21 36 -23 -24 59 -26 38 27 51 46 35 -32 -33 62 -35 48 -37 64 80 -40 -41 83 68 -44 69 55 -47 75 -49 -50 -51 67 -53 53 -55 70 -57 -58 63 -60 -61 -62 -63 82 -65 -66 -67 -68 -69 -70 -71 71 72 -74 -75 -76 -77 -78 -79 -80 -81 -82 -83 -84 -85 -86
leaf_value=-50.02599273513691 37.126831078244386 94.461474137319158 -25.955718646544835 34.088600807091296 153.57914616063624 13.332141754424672 -38.978676689409269 1.5580391771093529 75.610299770688343 129.2038229106185 29.854277940686995 74.059778874477729 -3.3806276506910642 95.438327499383647 46.868682014284126 177.60648212241432 134.75144507136906 171.23794925741561 41.706364951005568 133.92557606944055 -13.968294751033765 82.992126672895139 85.217678938240397 11.778281958399416 -43.745023950876508 46.273544975041965 102.89617837853555 126.09790794324452 10.280740200832879 -16.513899045074467 108.88629479467102 -7.1201450876026255 -31.21669265839283 27.28968202035885 21.865508655165723 -25.465200444893014 -17.622192201938436 -18.548500874047029 55.293508861297951 -5.318093705282303 -47.53588284076266 2.272468868199311 8.5693095038792606 34.950715737589981 -8.2435296316389763 54.390309377819179 2.8141423632905105 27.442449359573462 16.046183481289077 83.388884684386369 -33.545784363359239 114.38867030316365 109.89168289619428 97.868464216142897 -0.98151021836370445 -13.140061864301854 165.90383696197733 -14.406574129187554 -21.349390099571611 16.206541368969972 16.445549191898827 -16.132776323425531 -30.221571717195303 -17.993643914665519 -14.729292869063272 34.077228787653731 5.152287602552617 -35.888195521840331 -0.36960224202307534 38.846628099266262 2.6825954510268124 0.87818131917586106 -2.1173115437281975 -36.424746983369275 -11.11445084682941 5.4161612402516042 7.6708582281035271 -34.062706098689887 -34.448700663953581 -19.764084357836762 -22.196301227569229 -21.159492775302002 -31.913508802024847 -46.587193657047834 -0.73403467444438597
leaf_weight=357 87 109 133 91 137 222 80 55 84 70 86 88 92 62 127 83 64 125 59 51 64 84 83 73 1138 121 60 60 60 110 84 83 181 127 90 99 101 53 57 66 1441 217 59 79 101 51 56 57 68 77 370 56 71 267 59 55 54 126 94 85 122 105 244 93 68 56 62 281 64 60 103 92 63 66 62 73 62 165 61 58 113 215 110 814 57
leaf_count=357 87 109 133 91 137 222 80 55 84 70 86 88 92 62 127 83 64 125 59 51 64 84 83 73 1138 121 60 60 60 110 84 83 181 127 90 99 101 53 57 66 1441 217 59 79 101 51 56 57 68 77 370 56 71 267 59 55 54 126 94 85 122 105 244 93 68 56 62 281 64 60 103 92 63 66 62 73 62 165 61 58 113 215 110 814 57
internal_value=0.0395414 61.7396 -33.824 31.4765 123.309 19.3652 -42.6585 -13.3445 69.3116 101.904 12.5832 51.0512 8.73727 87.9899 36.5403 159.067 155.413 158.939 25.6161 152.445 -18.2689 95.0351 96.9107 22.4251 -46.4244 45.2837 118.955 114.731 2.85234 -20.6172 103.319 -0.646843 -33.5891 32.0072 14.9622 -19.8252 -14.301 -19.1243 49.2228 0.320046 -47.5882 0.423754 13.5901 34.0736 -12.5134 49.0844 6.57158 31.5708 19.3852 79.4327 -35.1839 120.659 99.0414 100.46 1.07984 -9.98499 157.239 -17.312 -18.7614 13.3357 14.4455 -14.2104 -31.9098 -15.9454 -17.3346 29.4929 3.46842 -34.7493 1.67089 36.6876 0.331111 0.867552 -0.340541 -33.9987 -12.5845 4.29292 8.96964 -32.8889 -32.0601 -18.4282 -21.1259 -20.6578 -30.7656 -47.1977 -0.861429
internal_weight=11768 4170 7598 2796 1374 2136 5308 2290 660 860 1544 353 1185 307 592 514 431 367 359 242 1650 614 530 300 3750 265 246 176 624 1036 146 640 1558 414 561 903 614 804 178 557 2612 373 403 287 387 178 251 148 158 161 797 116 447 338 491 156 191 423 204 158 344 231 761 219 227 142 117 717 281 139 374 258 155 436 126 129 122 407 242 159 381 268 354 2255 116
internal_count=11768 4170 7598 2796 1374 2136 5308 2290 660 860 1544 353 1185 307 592 514 431 367 359 242 1650 614 530 300 3750 265 246 176 624 1036 146 640 1558 414 561 903 614 804 178 557 2612 373 403 287 387 178 251 148 158 161 797 116 447 338 491 156 191 423 204 158 344 231 761 219 227 142 117 717 281 139 374 258 155 436 126 129 122 407 242 159 381 268 354 2255 116
cat_boundaries=0 1 2 3 4 5
cat_threshold=480 16 32 8 8
is_linear=0
shrinkage=0.017876


Tree=12
num_leaves=86
num_cat=0
split_feature=0 0 0 6 0 0 0 4 4 8 4 4 5 8 8 6 5 4 6 4 6 4 4 8 0 4 6 4 5 5 4 6 5 4 8 4 8 4 6 6 6 8 8 4 0 5 5 4 6 6 6 4 4 4 0 4 4 0 4 4 4 4 6 5 4 6 6 4 6 6 0 0 8 6 8 8 4 6 8 6 8 4 4 4 4
split_gain=7.42262e+10 2.34541e+10 4.1492e+09 3.4295e+09 8.05705e+08 5.46238e+08 4.32287e+08 2.95074e+08 2.40471e+08 2.31403e+08 1.61463e+08 1.46206e+08 1.35677e+08 1.2483e+08 9.38973e+07 6.22488e+07 6.02603e+07 8.86471e+07 5.59774e+07 4.74209e+07 4.91859e+07 4.14905e+07 4.10068e+07 4.00163e+07 3.78891e+07 3.5503e+07 3.46672e+07 3.20211e+07 2.6954e+07 2.53603e+07 2.47244e+07 2.11421e+07 2.08452e+07 2.01808e+07 2.00594e+07 1.95703e+07 1.47137e+07 1.42769e+07 1.37312e+07 1.27277e+07 1.22378e+07 1.07775e+07 1.04917e+07 5.41799e+07 9.56613e+06 9.45684e+06 9.38607e+06 7.91467e+06 7.44221e+06 6.1791e+06 6.06332e+06 5.82228e+06 5.51846e+06 7.08387e+06 5.36074e+06 5.1815e+06 4.81225e+06 4.55948e+06 4.30811e+06 4.26344e+06 4.11215e+06 3.8512e+06 3.43435e+06 2.80836e+06 3.40177e+06 2.02496e+06 2.00673e+06 1.9945e+06 1.96979e+06 1.95174e+06 1.6929e+06 1.49643e+06 1.24305e+06 1.12311e+06 986620 786459 744122 689250 654464 453596 298466 205527 1.00399e+06 101002 81057.8
threshold=0.99500000000000011 1.4850000000000001 0.60500000000000009 7.7950000000000008 1.175 0.45500000000000007 0.8650000000000001 63.250000000000007 63.250000000000007 4.6650000000000009 63.850000000000001 63.150000000000013 57.050000000000004 4.9450000000000012 4.2650000000000006 5.6850000000000014 56.95000000000001 61.250000000000007 6.6550000000000011 59.45000000000001 7.2650000000000006 63.95000000000001 61.95000000000001 4.1850000000000014 2.2850000000000006 61.750000000000007 4.5950000000000006 60.650000000000013 56.95000000000001 61.95000000000001 62.550000000000004 6.9150000000000009 57.95000000000001 63.750000000000007 3.9850000000000008 64.850000000000009 4.3550000000000013 61.95000000000001 5.2650000000000006 6.5950000000000006 6.3350000000000009 4.0250000000000012 3.9150000000000005 59.95000000000001 0.78500000000000014 56.150000000000013 61.95000000000001 62.350000000000001 4.2950000000000008 5.0650000000000004 6.4750000000000005 63.750000000000007 62.95000000000001 61.050000000000004 0.63500000000000012 62.350000000000001 62.150000000000013 0.76500000000000012 61.150000000000013 62.45000000000001 60.150000000000013 60.050000000000004 8.2950000000000017 57.750000000000007 62.95000000000001 4.7150000000000007 8.1750000000000025 62.95000000000001 6.495000000000001 6.205000000000001 0.72500000000000009 0.90500000000000014 3.2150000000000003 5.8850000000000007 3.4450000000000007 3.7750000000000004 61.550000000000004 5.7550000000000008 3.6450000000000005 5.6650000000000009 3.5150000000000001 62.050000000000004 61.350000000000001 63.050000000000004 62.250000000000007
decision_type=2 2 2 2 2 2 2 2 2 2 2 2 2 2 2 2 2 2 2 2 2 2 2 2 2 2 2 2 2 2 2 2 2 2 2 2 2 2 2 2 2 2 2 2 2 2 2 2 2 2 2 2 2 2 2 2 2 2 2 2 2 2 2 2 2 2 2 2 2 2 2 2 2 2 2 2 2 2 2 2 2 2 2 2 2
left_child=2 4 5 7 10 26 15 9 13 19 12 14 18 -5 23 51 -16 -18 30 -3 -21 -9 58 60 62 31 48 -22 -29 40 34 -25 44 46 50 -12 -19 -11 49 -36 -14 -32 68 -44 47 -27 52 70 -1 -7 -2 54 53 75 -4 -47 69 74 -20 -46 -6 -31 66 64 -51 -28 -15 -43 -42 -55 77 -58 -40 -72 -34 -8 80 -17 -59 83 -76 82 -74 84 -56
right_child=1 3 6 8 11 38 33 21 -10 37 35 -13 29 24 16 32 17 36 22 20 27 -23 -24 25 -26 45 65 28 -30 61 41 -33 57 -35 39 -37 -38 -39 72 -41 42 67 43 -45 59 55 -48 -49 -50 63 -52 -53 -54 56 79 -57 71 78 -60 -61 -62 -63 -64 -65 -66 -67 -68 -69 -70 -71 73 -73 81 -75 76 -77 -78 -79 -80 -81 -82 -83 -84 -85 -86
