tree
version=v4
num_class=1
num_tree_per_iteration=1
label_index=0
max_feature_idx=8
objective=binary sigmoid:1
feature_names=Age SibSp Parch Fare Pclass_X2 Pclass_X3 Sex_male Embarked_Q Embarked_S
feature_infos=[0.41999999999999998:74] [0:8] [0:6] [0:512.32920000000001] [0:1] [0:1] [0:1] [0:1] [0:1]
tree_sizes=2893 2929 2919 3029 2930 3045 3144 2950 3040 3240 2944 3258 2946 3142 3042 3049 3162 2842 3383 2842 3049 3059 3163 3254 3270 2647 2649 3285 2748 3177 2979 3384 3249

Tree=0
num_leaves=27
num_cat=0
split_feature=6 3 0 5 3 3 8 3 0 3 3 3 3 3 3 0 0 3 8 0 3 0 3 0 3 3
split_gain=308.426 48.5209 39.7437 33.9025 14.1969 8.72312 6.65029 7.39806 10.7083 5.82513 6.42497 6.65414 3.88619 5.16103 3.82855 3.7908 3.1305 2.49907 2.20367 0.782013 0.733501 0.629842 0.231549 0.360081 0.208122 0.149368
threshold=1.0000000180025095e-35 26.266650000000002 16.500000000000004 1.0000000180025095e-35 21.037500000000005 7.7625000000000011 1.0000000180025095e-35 13.250000000000002 28.843304260257167 27.735400000000002 52.277100000000011 36.125000000000007 7.977100000000001 15.147900000000002 7.977100000000001 27.067457544341611 34.928214192749536 8.9250000000000025 1.0000000180025095e-35 28.442699668623067 22.441650000000003 34.216180197599641 29.850000000000005 25.944178313077686 126.82500000000002 7.977100000000001
decision_type=2 2 2 2 2 2 2 2 2 2 2 2 2 2 2 2 2 2 2 2 2 2 2 2 2 2
left_child=3 2 -2 22 12 18 -7 8 15 -3 11 -11 -5 -14 -10 17 -16 25 19 -4 -9 -12 23 -1 -24 -8
right_child=1 9 5 4 -6 6 7 20 14 10 21 -13 13 -15 16 -17 -18 -19 -20 -21 -22 -23 24 -25 -26 -27
leaf_value=0.18761062971088463 0.09723436452202347 0.098767193977802634 -0.10404439413130012 0.13641791521282412 -0.023946627808758957 -0.018498111527798528 -0.089993104598356272 -0.18761066763488116 0.02371270699119717 0.019196014332912632 0.065108410186429821 -0.093169089137983524 0.040305102627833017 0.13064866481148871 -0.020170380763139303 -0.1876106676348811 -0.11068785846145614 -0.15120596293186525 -0.18761066763488105 -0.15120596293186525 -0.14059168591049098 0.030518385779443255 0.18761062971088463 0.16736701541767082 0.17424640757344403 -0.070261349466168133
leaf_weight=11.604237198829649 9.3414782881736738 8.4467984437942487 5.7893596887588501 20.156355798244476 8.8680790662765485 10.012758910655974 7.4340395331382805 6.7499999999999982 6.868079066276553 11.696798443794252 11.486158132553102 7.6840395331382743 12.736158132553102 9.8808379769325239 7.2233992218971235 6.2499999999999991 6.2893596887588501 6.6446798443794242 10.5 6.644679844379425 5.144679844379425 7.7627589106559745 38.036110818386078 23.169114708900452 14.038276731967924 6.1840395331382751
leaf_count=18 20 18 20 38 26 29 25 27 18 31 27 26 32 19 21 25 22 25 42 25 19 20 59 39 23 20
internal_value=0.0436181 -0.0504593 -0.0870958 0.14426 0.0840716 -0.105866 -0.0891654 -0.101201 -0.084442 0.0282016 0.0127717 -0.0253541 0.106467 0.0797741 -0.0333153 -0.123744 -0.0623007 -0.104044 -0.155968 -0.129247 -0.167274 0.0511588 0.18005 0.174123 0.184008 -0.0810328
internal_weight=286.642 148.153 101.077 138.489 51.6414 91.7351 68.801 58.7883 46.8936 47.0766 38.6298 19.3808 42.7734 22.617 20.3808 26.5128 13.5128 20.2628 22.934 12.434 11.8947 19.2489 86.8477 34.7734 52.0744 13.6181
internal_count=714 460 338 254 115 318 231 202 156 122 104 57 89 51 61 95 43 70 87 45 46 47 139 57 82 45
is_linear=0
shrinkage=1


Tree=1
num_leaves=27
num_cat=0
split_feature=6 0 3 5 2 3 3 8 3 0 0 3 1 0 3 0 0 8 3 4 0 3 0 0 3 0
split_gain=254.93 41.3861 41.8697 28.4485 12.0223 11.7165 7.71136 7.2196 7.16427 8.35768 5.48808 4.34981 4.95176 3.51248 5.347 2.71077 1.93604 1.86802 1.857 0.683563 0.656043 0.19809 0.307878 0.186919 0.000661145 7.10543e-15
threshold=1.0000000180025095e-35 8.5000000000000018 26.266650000000002 1.0000000180025095e-35 1.0000000180025095e-35 21.037500000000005 7.7625000000000011 1.0000000180025095e-35 13.250000000000002 30.094904663000836 34.928214192749536 30.597900000000003 1.0000000180025095e-35 19.345778998677698 7.977100000000001 19.872836776230447 24.250000000000004 1.0000000180025095e-35 8.6583500000000004 1.0000000180025095e-35 28.442699668623067 29.850000000000005 25.944178313077686 25.944178313077686 109.89165000000001 34.928214192749536
decision_type=2 2 2 2 2 2 2 2 2 2 2 2 2 2 2 2 2 2 2 2 2 2 2 2 2 2
left_child=3 -2 6 21 11 13 17 -8 9 15 -11 -4 -13 -5 -15 -9 -17 20 -18 -10 -3 22 -1 -23 -25 -19
right_child=1 2 4 5 -6 -7 7 8 19 10 -12 12 -14 14 -16 16 18 25 -20 -21 -22 23 -24 24 -26 -27
leaf_value=0.1715640582359981 0.12581839931098485 -0.094548665119068953 0.086691094622519921 0.13411737655476177 -0.079103189575987734 -0.021703501761717384 -0.0093494602481818106 -0.054527379216759958 -0.17424613206019965 0.037712780190534263 -0.071423905306904192 -0.022664331194419077 0.07217253941194951 0.11714873150066255 0.035172752635083314 -0.15231637554759156 -0.12433638270369309 -0.1715640562283926 -0.057022513229211882 -0.13000148500576431 -0.13783381726537011 0.159473998832833 0.15276851334880792 0.1715640582359981 0.17240119671388837 -0.1715640562283926
leaf_weight=11.502723097801207 11.400461897253988 5.7737200558185577 12.899219855666159 14.601858675479887 8.8208734542131406 8.8668079972267133 10.904471054673193 7.55716449022293 7.1964605748653394 7.5118559002876308 8.8091377913951856 11.646228298544884 8.2953411638736725 14.431670099496843 13.599121630191801 9.3653273433446902 9.2401922047138196 4.9562597274780273 5.9146253764629355 5.3620611280202866 6.606844425201416 15.198002487421034 23.007617548108101 23.644486367702484 12.793138265609739 5.4518857002258301
leaf_count=18 22 20 28 27 29 26 31 24 29 19 29 34 19 28 34 36 34 20 19 20 25 25 39 37 20 22
internal_value=0.0397143 -0.0458743 -0.0602338 0.131562 0.0181277 0.0764065 -0.0947259 -0.0796478 -0.0922234 -0.0758418 -0.021193 0.0442434 0.0167861 0.0968116 0.0773781 -0.103647 -0.118786 -0.142273 -0.0980651 -0.155355 -0.117648 0.164536 0.159033 0.168213 0.171858 -0.171564
internal_weight=285.358 147.712 136.312 137.645 41.6617 51.4995 94.65 71.8613 60.9568 48.3983 16.321 32.8408 19.9416 42.6327 28.0308 32.0773 24.5201 22.7887 15.1548 12.5585 12.3806 86.146 34.5103 51.6356 36.4376 10.4081
internal_count=714 460 438 254 110 115 328 241 210 161 48 81 53 89 62 113 89 87 53 49 45 139 57 82 57 42
is_linear=0
shrinkage=0.0938053


Tree=2
num_leaves=27
num_cat=0
split_feature=6 0 3 5 2 3 3 0 0 0 3 3 3 1 0 3 0 3 0 0 3 3 0 3 3 0
split_gain=213.019 34.261 34.8587 24.7714 9.89259 9.74261 6.88326 4.24792 5.85932 9.58224 5.05264 4.5457 3.60403 4.07556 2.957 4.50607 2.60341 2.37327 1.38301 0.887824 0.396904 0.181095 0.281211 0.189565 0.00121535 0.000368984
threshold=1.0000000180025095e-35 8.5000000000000018 26.266650000000002 1.0000000180025095e-35 1.0000000180025095e-35 21.037500000000005 7.227100000000001 20.615136197673575 28.843304260257167 34.928214192749536 11.750000000000002 7.7979000000000012 30.597900000000003 1.0000000180025095e-35 19.345778998677698 7.977100000000001 18.500000000000004 15.372900000000001 30.750000000000004 41.671325453553671 8.6583500000000004 29.850000000000005 25.944178313077686 126.82500000000002 7.910400000000001 30.750000000000004
decision_type=2 2 2 2 2 2 2 2 2 2 2 2 2 2 2 2 2 2 2 2 2 2 2 2 2 2
left_child=3 -2 6 21 12 14 -3 16 11 18 19 -9 -4 -14 -5 -16 -8 20 -10 -11 24 22 -1 25 -13 -23
right_child=1 2 4 5 -6 -7 7 8 9 10 -12 17 13 -15 15 -17 -18 -19 -20 -21 -22 23 -24 -25 -26 -27
leaf_value=0.15930510606388792 0.11484577549976654 -0.16241879042563057 0.078966880777934678 0.12293049879471585 -0.071766168160255023 -0.019675366161312623 -0.075846042431797031 -0.060803869773540721 -0.04221551082254358 -0.093129675341379017 -0.16667767252333296 -0.16845836938002096 -0.020538309501806164 0.065556819195851629 0.1074315521339769 0.031933808817453696 0.002177932737429499 -0.084450449623878501 0.012223335522014246 -0.041651601664621521 -0.13944609695177287 0.15990294338447572 0.14114598992274391 0.1465982646289172 -0.16639759926986072 0.15929884344674544
leaf_weight=11.237884998321531 11.32139106094837 9.5021950453519803 12.835465386509894 14.443295955657957 8.8109156489372236 8.8634607791900617 6.8955383300781241 9.1649308949708921 7.0408562272787121 6.2074615210294741 7.6099375188350669 4.9216258078813606 11.646198481321335 8.2765812426805496 14.268336459994318 13.574576318264006 8.283637657761572 5.459615319967269 9.852800250053404 5.6145381033420563 8.0268604904413206 15.007614254951475 22.585478976368904 13.632734805345534 5.1567941308021545 21.851071119308472
leaf_count=18 22 39 28 27 29 26 23 31 22 22 31 20 34 19 28 34 24 19 27 18 31 24 39 23 21 35
internal_value=0.0364397 -0.0419117 -0.055028 0.121248 0.01647 0.069746 -0.086735 -0.0781974 -0.0880738 -0.0621369 -0.107059 -0.11686 0.0402027 0.0152285 0.0884893 0.0706233 -0.0332665 -0.138662 -0.0104654 -0.0686816 -0.155009 0.152491 0.147179 0.156049 -0.167404 0.159545
internal_weight=282.092 146.627 135.306 135.464 41.5692 51.1497 93.7368 84.2346 69.0554 36.3256 19.4319 32.7298 32.7582 19.9228 42.2862 27.8429 15.1792 23.5649 16.8937 11.822 18.1053 84.3148 33.8234 50.4914 10.0784 36.8587
internal_count=714 460 438 254 110 115 328 289 242 120 71 122 81 53 89 62 47 91 49 40 72 139 57 82 41 59
is_linear=0
shrinkage=0.0938053


Tree=3
num_leaves=28
num_cat=0
split_feature=6 0 3 5 0 3 3 0 8 3 0 0 0 3 0 0 8 3 3 3 0 0 1 0 3 3 3
split_gain=179.486 28.5033 29.1489 22.1399 8.19879 8.1535 6.40331 6.29424 5.99229 6.0059 6.27187 3.82117 2.54069 3.8424 1.94527 1.72781 1.63248 1.50881 1.01611 0.688371 0.579025 0.174267 0.687602 0.204441 0.398531 0.00725242 0.00689032
threshold=1.0000000180025095e-35 8.5000000000000018 26.266650000000002 1.0000000180025095e-35 25.944178313077686 21.037500000000005 7.7625000000000011 36.014029283535891 1.0000000180025095e-35 13.250000000000002 30.094904663000836 34.928214192749536 19.345778998677698 7.977100000000001 19.872836776230447 24.250000000000004 1.0000000180025095e-35 8.6583500000000004 31.137500000000003 23.725000000000005 28.442699668623067 27.439641677409007 1.0000000180025095e-35 37.500000000000007 54.050000000000004 30.597900000000003 7.0521000000000003
decision_type=2 2 2 2 2 2 2 2 2 2 2 2 2 2 2 2 2 2 2 2 2 2 2 2 2 2 2
left_child=3 -2 6 21 -4 12 16 -6 -8 10 14 -12 -5 -14 -10 -16 20 -17 -9 -11 -3 22 -1 25 -25 -23 -18
right_child=1 2 4 5 7 -7 8 18 9 19 11 -13 13 -15 15 17 26 -19 -20 -21 -22 23 -24 24 -26 -27 -28
leaf_value=0.15022438926733087 0.1055197540089256 -0.078895109315081369 -0.078445784041602434 0.11349506376220295 0.082983488057448235 -0.01783992285199603 -0.0018800877372216534 0.023858433745162815 -0.045474571834340158 -0.15519627591017029 0.033823836409913446 -0.057518049600404408 0.099039669832538424 0.029004333347653323 -0.13240620016578072 -0.10461070944888164 -0.14948571773498923 -0.04325882262107987 -0.017786386160936998 -0.10969577906860456 -0.12006278111362659 0.15294724190452516 0.12045309244842337 0.12642226508178445 0.15028031446310983 0.14996695618405576 -0.15443917075955693
leaf_weight=15.117577016353609 11.173093274235724 5.6666054725646973 6.8881292939186087 14.18862798810005 13.712083846330641 8.8586251735687238 10.873289346694945 9.441025063395502 7.5199704021215465 7.1549937725067121 7.5081862360239056 8.6996556222438794 14.036617636680605 13.545108288526533 9.0749102085828799 8.9364378750324232 4.6747714281082153 5.8272682428359976 11.357835724949835 4.9499095231294632 6.4038161784410477 12.842897415161135 12.447053849697111 11.058056786656381 13.91184628009796 16.308903157711029 5.2417780458927155
leaf_count=25 22 20 23 27 30 26 31 24 24 30 19 29 28 34 36 34 20 19 33 19 25 21 23 20 23 27 22
internal_value=0.0336283 -0.0384227 -0.0504311 0.112643 0.0149947 0.0639031 -0.0797028 0.0336447 -0.0659265 -0.077597 -0.0625841 -0.0152045 0.0812392 0.064646 -0.0870725 -0.100195 -0.123904 -0.080395 0.00111704 -0.13659 -0.100736 0.142852 0.136781 0.145944 0.139715 0.15128 -0.152104
internal_weight=277.419 145.104 133.931 132.315 41.3991 50.629 92.5316 34.5109 70.5446 59.6713 47.5664 16.2078 41.7704 27.5817 31.3586 23.8386 21.987 14.7637 20.7989 12.1049 12.0704 81.6863 27.5646 54.1217 24.9699 29.1518 9.91655
internal_count=714 460 438 254 110 115 328 87 241 210 161 48 89 62 113 89 87 53 57 49 45 139 48 91 43 48 42
is_linear=0
shrinkage=0.0938053


Tree=4
num_leaves=27
num_cat=0
split_feature=6 0 3 5 2 3 3 0 0 0 3 3 3 3 1 0 0 3 0 0 3 0 3 0 3 0
split_gain=152.2 23.8118 24.5469 20.1714 7.23878 6.85577 5.73447 3.56403 4.60281 7.27058 4.28292 3.21531 3.03647 2.73603 3.59993 2.22775 2.21571 3.30415 1.4923 1.12735 0.379952 0.613765 0.184951 0.301209 0.194195 0.00046778
threshold=1.0000000180025095e-35 8.5000000000000018 26.266650000000002 1.0000000180025095e-35 1.0000000180025095e-35 21.037500000000005 7.227100000000001 20.615136197673575 28.843304260257167 33.968130999581852 7.7979000000000012 13.250000000000002 15.950000000000001 30.597900000000003 1.0000000180025095e-35 18.500000000000004 19.345778998677698 7.977100000000001 30.750000000000004 43.500000000000007 8.6729000000000003 27.067457544341611 29.850000000000005 25.944178313077686 126.82500000000002 30.750000000000004
decision_type=2 2 2 2 2 2 2 2 2 2 2 2 2 2 2 2 2 2 2 2 2 2 2 2 2 2
left_child=3 -2 6 22 13 16 -3 15 10 18 -9 19 20 -4 -15 -8 -5 -18 -10 -11 21 -12 23 -1 25 -24
right_child=1 2 4 5 -6 -7 7 8 9 11 12 -13 -14 14 -16 -17 17 -19 -20 -21 -22 -23 24 -25 -26 -27
leaf_value=0.14243662246204392 0.097422299976698976 -0.14518233604155834 0.068101308611420386 0.10535124709181397 -0.062125582202035158 -0.01617768262432924 -0.064171105381760615 -0.046027874088333545 -0.033729157521529995 -0.084847284194468214 -0.10636486881085785 -0.14751869141858742 -0.05456858974849689 -0.02130026911584364 0.059755060821238659 0.0083946388061761079 0.091657001053758347 0.026350250964986756 0.025753405180935742 -0.031388543040606932 -0.15702704605802323 -0.15086830602469734 0.1427746722515161 0.12296582741645863 0.12877744105186617 0.14206862395387046
leaf_weight=10.436067819595339 10.97608971595764 8.8843293935060483 12.654820412397383 13.867154166102408 8.7453801482915861 8.8527630567550641 6.8164292722940436 8.8863659650087374 6.9680358767509443 9.3353241086006182 5.3183169215917641 5.7616626620292655 4.5678717195987693 11.632781103253365 8.2346126288175583 8.2022238373756391 13.758066892623903 13.512470066547392 7.9408584237098694 5.5258967429399481 7.1295180022716513 5.5963907986879349 13.944783508777617 21.180113285779953 12.713128238916395 20.244404315948486
leaf_count=18 22 39 28 27 29 26 23 31 22 34 21 25 16 34 19 24 28 34 21 18 30 24 24 39 23 35
internal_value=0.0311749 -0.0353418 -0.0463647 0.105284 0.0136372 0.0587069 -0.0735949 -0.0658434 -0.0750976 -0.0519535 -0.101205 -0.0880323 -0.12289 0.0340102 0.0122954 -0.0245404 0.0748219 0.0592977 -0.00204722 -0.0649695 -0.140185 -0.129183 0.134938 0.129393 0.138676 0.142357
internal_weight=271.686 143.177 132.201 128.509 41.2676 49.9905 90.9332 82.0489 67.0302 35.5318 31.4985 20.6229 22.6121 32.5222 19.8674 15.0187 41.1377 27.2705 14.9089 14.8612 18.0442 10.9147 78.5185 31.6162 46.9023 34.1892
internal_count=714 460 438 254 110 115 328 289 242 120 122 77 91 81 53 47 89 62 43 52 75 45 139 57 82 59
is_linear=0
shrinkage=0.0938053


Tree=5
num_leaves=28
num_cat=0
split_feature=6 0 5 3 0 8 3 3 0 8 3 0 0 0 0 8 3 3 3 4 0 3 3 0 3 3 0
split_gain=129.691 21.0177 18.6459 18.6415 9.48721 6.39266 14.5218 6.27561 4.81845 4.5209 5.96097 3.63311 3.88023 2.78211 1.65743 1.54172 1.33973 1.24514 0.724524 0.711223 0.525289 0.227046 0.18571 0.298641 0.191675 0.0134832 0.000303606
threshold=1.0000000180025095e-35 3.5000000000000004 1.0000000180025095e-35 26.266650000000002 22.234965423280588 1.0000000180025095e-35 17.600000000000005 7.7625000000000011 36.014029283535891 1.0000000180025095e-35 13.250000000000002 30.094904663000836 19.872836776230447 34.928214192749536 24.250000000000004 1.0000000180025095e-35 8.6583500000000004 9.8312500000000025 51.670850000000009 1.0000000180025095e-35 28.442699668623067 8.0937500000000018 29.850000000000005 25.944178313077686 126.82500000000002 7.0521000000000003 30.750000000000004
decision_type=2 2 2 2 2 2 2 2 2 2 2 2 2 2 2 2 2 2 2 2 2 2 2 2 2 2 2
left_child=2 -2 22 7 -5 21 17 15 -6 -9 11 12 -11 -13 -14 20 -16 -7 -10 -12 -3 -4 23 -1 26 -17 -24
right_child=1 3 5 4 8 6 -8 9 18 10 19 13 14 -15 16 25 -18 -19 -20 -21 -22 -23 24 -25 -26 -27 -28
leaf_value=0.13598101084080796 0.12440347893960021 -0.06667929031783193 0.10060998466525588 -0.090617678126615406 0.067725502743239852 0.043912716707162291 -0.088573371544957313 0.0040950121911348383 -0.014962217743692106 -0.012403354407881694 -0.14320587239694341 0.030723046714601025 -0.11865339910612713 -0.047552642240062393 -0.090066720862766583 -0.1352748961909265 -0.031206887967767629 0.090730924047938061 0.02115175563543387 -0.095841178898266877 -0.10665836037552076 0.081312578939505775 0.13626002878488749 0.1161393339143878 0.12211698588448111 -0.14248381919798284 0.13567692696406777
leaf_weight=9.9303857684135455 7.1259548962116233 5.5012643039226532 12.106350898742678 6.9805166423320761 15.810178205370901 10.976391598582273 7.3793703913688651 10.800440922379492 12.717213824391367 8.6582746803760546 6.5008533447980863 7.4955734610557583 8.6042284816503543 8.5567252635955793 8.4825792610645276 4.2516022920608521 5.6821808964014044 9.1781600862741453 7.9404917210340491 4.8866106271743774 6.0970654338598251 9.6347189396619779 13.27313321828842 20.361225590109825 12.174974352121351 4.9306457936763763 19.257080137729645
leaf_count=18 13 20 24 24 36 26 25 31 36 26 29 19 36 29 34 20 19 19 21 20 25 21 24 39 23 22 35
internal_value=0.0289943 -0.0325746 0.0988621 -0.0409289 0.00957162 0.054035 0.0240115 -0.0651878 0.0287494 -0.0516929 -0.0619284 -0.0473097 -0.0658547 -0.011002 -0.0861805 -0.11043 -0.0664552 0.0652332 -0.00108058 -0.122881 -0.0876957 0.0920582 0.128315 0.122644 0.132157 -0.139146 0.135915
internal_weight=265.294 141.022 124.272 133.896 43.4484 49.275 27.5339 90.448 36.4679 69.6675 58.867 47.4796 31.4273 16.0523 22.769 20.7806 14.1648 20.1546 20.6577 11.3875 11.5983 21.7411 74.9968 30.2916 44.7052 9.18225 32.5302
internal_count=714 460 254 447 117 115 70 330 93 243 212 163 115 48 89 87 53 45 57 49 45 45 139 57 82 42 59
is_linear=0
shrinkage=0.0938053


Tree=6
num_leaves=29
num_cat=0
split_feature=6 0 5 3 0 3 8 3 0 8 3 3 0 0 8 0 3 3 3 0 0 3 0 1 0 0 3 3
split_gain=110.905 17.769 17.4268 15.8059 7.8064 5.59412 5.44955 12.0395 3.99857 3.85013 5.32774 3.66576 3.66393 8.97524 1.49609 1.10462 0.753417 0.729476 0.713979 0.645895 0.478896 0.226955 0.195821 0.726845 0.239839 0.0530866 0.00889149 0.00694921
threshold=1.0000000180025095e-35 3.5000000000000004 1.0000000180025095e-35 26.266650000000002 22.234965423280588 7.7625000000000011 1.0000000180025095e-35 17.600000000000005 36.014029283535891 1.0000000180025095e-35 13.250000000000002 7.8646000000000003 19.872836776230447 28.843304260257167 1.0000000180025095e-35 24.250000000000004 31.137500000000003 9.4791500000000024 23.725000000000005 26.721393645185746 28.442699668623067 8.0937500000000018 27.439641677409007 1.0000000180025095e-35 47.500000000000007 37.500000000000007 7.0521000000000003 30.597900000000003
decision_type=2 2 2 2 2 2 2 2 2 2 2 2 2 2 2 2 2 2 2 2 2 2 2 2 2 2 2 2
left_child=2 -2 22 5 -5 14 21 15 -6 -7 11 -11 -13 19 20 -8 -10 -15 -12 -14 -3 -4 23 -1 25 27 -16 -24
right_child=1 3 6 4 8 9 7 -9 16 10 18 12 13 17 26 -17 -18 -19 -20 -21 -22 -23 24 -25 -26 -27 -28 -29
leaf_value=0.1307001997562392 0.1168430468348526 -0.061410983588650575 0.094093098554945659 -0.082229702856005421 0.061817395098698678 0.0037096919313987669 0.080184327389446947 -0.080515568480318891 0.018707877876002903 0.021215891092464724 -0.13644776186590166 0.0030124271416854262 -0.14069867069829395 -0.042152468699215365 -0.13002798704189028 0.035808457693791561 -0.017272677284488003 -0.004252992021138738 -0.087776213433030062 -0.100604935003483 -0.10003880782209913 0.074606204285744729 0.13376567704146947 0.097907130137744575 0.11322947395982474 0.12444729640619007 -0.1360399163391994 0.13064656032309108
leaf_weight=13.057230651378633 6.8869290053844443 5.4170878678560257 11.748137056827547 6.9712254852056494 15.701676785945891 10.803725495934485 10.813465654850011 7.3572771698236457 9.3597529381513613 6.6073816716670981 6.3994893878698331 7.9168221354484549 8.1603737026453 9.2478654235601443 4.0194275975227356 9.0812410861253721 11.307863399386404 8.6478022933006269 4.5290406048297882 6.2385543137788764 5.9003593772649765 9.521315857768057 11.344641745090486 10.92266324162483 9.9515314996242505 11.90172056853771 4.6912772208452225 14.093694269657133
leaf_count=25 13 20 24 24 36 31 23 25 24 20 30 23 37 30 20 22 33 26 19 27 25 21 21 23 20 23 22 27
internal_value=0.0270205 -0.0300484 0.0931474 -0.0377169 0.00870269 -0.0604294 0.0497852 0.0220124 0.0261325 -0.0476873 -0.0573029 -0.043537 -0.054177 -0.0681966 -0.104042 0.0599283 -0.000978147 -0.0238381 -0.116277 -0.123327 -0.0815496 0.0853697 0.122668 0.115763 0.12617 0.129618 -0.133266 0.132038
internal_weight=258.6 138.807 119.793 131.92 43.3405 88.5792 48.5214 27.252 36.3693 68.5511 57.7473 46.8188 40.2114 32.2946 20.0282 19.8947 20.6676 17.8957 10.9285 14.3989 11.3174 21.2695 71.2715 23.9799 47.2916 37.3401 8.7107 25.4383
internal_count=714 460 254 447 117 330 115 70 93 243 212 163 143 120 87 45 57 56 49 64 45 45 139 48 91 71 42 48
is_linear=0
shrinkage=0.0938053


Tree=7
num_leaves=27
num_cat=0
split_feature=6 5 0 3 2 3 0 8 1 8 0 3 0 0 3 3 1 7 0 3 3 0 3 0 3 1
split_gain=95.1677 16.3617 15.5246 14.7952 5.02635 4.80646 4.7578 3.66811 4.38158 2.72594 11.1968 3.40595 3.82653 3.01903 2.64656 2.22942 3.02231 1.89251 1.71054 1.06178 0.6909 0.267746 0.216319 0.346695 0.211522 0.000467181
threshold=1.0000000180025095e-35 1.0000000180025095e-35 8.5000000000000018 26.266650000000002 1.0000000180025095e-35 7.227100000000001 28.843304260257167 1.0000000180025095e-35 1.0000000180025095e-35 1.0000000180025095e-35 27.001139520727452 13.250000000000002 28.843304260257167 27.067457544341611 8.9250000000000025 30.597900000000003 1.0000000180025095e-35 1.0000000180025095e-35 34.928214192749536 7.977100000000001 23.725000000000005 25.253731266795089 29.850000000000005 25.944178313077686 126.82500000000002 1.0000000180025095e-35
decision_type=2 2 2 2 2 2 2 2 2 2 2 2 2 2 2 2 2 2 2 2 2 2 2 2 2 2
left_child=1 22 -2 5 15 -4 7 21 -9 10 -7 12 13 14 19 -5 -17 -12 -14 -11 -13 -3 23 -1 25 -24
right_child=2 6 3 4 -6 9 -8 8 -10 11 17 20 18 -15 -16 16 -18 -19 -20 -21 -22 -23 24 -25 -26 -27
leaf_value=0.12654698404520776 0.082828249319123221 0.077203666716572777 -0.12965159380236105 0.058041211852735718 -0.05393511931976934 0.0744442775350041 -0.020386999018599916 0.067404460244097172 -0.021285422730156631 -0.058647142301062598 -0.035329891371814533 -0.13104178957098725 0.0026524306901217752 -0.13328094704732951 -0.10885765844379441 -0.02355018375671478 0.051098655174570004 -0.11017382836161792 -0.051044357588487486 -0.0083518724882987623 -0.082168841138364229 0.09922318822257753 0.12590340068748038 0.10400818902085392 0.11107689198602221 0.12666489329431299
leaf_weight=8.8977003097534197 10.323494270443915 9.6132109463214892 7.7054074406623831 12.370986476540564 8.5980617552995664 6.8785040974617031 7.9265406876802436 12.050687476992609 8.2622666805982572 8.4129183590412193 5.5057945251464826 6.0550099611282331 11.638476744294168 6.0170457959175101 6.3401166796684256 11.574589177966118 8.1210615783929825 6.4621974974870682 9.4660998284816724 6.5839933454990378 4.3910948783159256 9.8257764279842359 12.245246112346651 18.474538698792458 11.007412940263746 16.837409794330597
leaf_count=18 22 21 39 28 29 17 23 27 24 33 18 30 33 29 27 34 19 27 34 22 19 20 25 39 23 34
internal_value=0.0252309 0.0880357 -0.0277679 -0.0368205 0.00975493 -0.0589836 0.0459731 0.0592053 0.03133 -0.0519801 -0.020928 -0.0619152 -0.0514424 -0.0745962 -0.0580471 0.0268322 0.0072296 -0.0757424 -0.0214324 -0.0365663 -0.110498 0.0883338 0.117763 0.111335 0.122152 0.126344
internal_weight=251.586 115.141 136.445 126.121 40.6647 85.4567 47.6785 39.7519 20.313 77.7513 18.8465 58.9048 48.4587 27.3541 21.337 32.0666 19.6957 11.968 21.1046 14.9969 10.4461 19.439 67.4623 27.3722 40.0901 29.0827
internal_count=714 254 460 438 110 328 115 92 51 289 62 227 178 111 82 81 53 45 67 55 49 41 139 57 82 59
is_linear=0
shrinkage=0.0938053


Tree=8
num_leaves=28
num_cat=0
split_feature=6 5 0 3 3 0 0 0 8 1 0 0 0 3 3 0 0 3 3 3 0 0 3 0 0 3 3
split_gain=81.7461 15.5292 13.0684 12.5745 4.47939 4.43625 4.01172 3.79181 3.19836 3.67427 2.41786 3.34787 4.8508 4.60084 4.03521 2.07889 3.51003 2.03198 1.27175 0.735972 0.586219 0.238702 0.223295 0.353309 0.222376 0.0292909 0.00146145
threshold=1.0000000180025095e-35 1.0000000180025095e-35 8.5000000000000018 26.266650000000002 7.227100000000001 25.944178313077686 28.843304260257167 36.014029283535891 1.0000000180025095e-35 1.0000000180025095e-35 20.615136197673575 28.843304260257167 34.928214192749536 11.750000000000002 7.7979000000000012 27.001139520727452 24.250000000000004 10.481250000000001 9.4791500000000024 51.670850000000009 41.671325453553671 25.253731266795089 29.850000000000005 25.944178313077686 25.944178313077686 8.4458000000000002 109.89165000000001
decision_type=2 2 2 2 2 2 2 2 2 2 2 2 2 2 2 2 2 2 2 2 2 2 2 2 2 2 2
left_child=1 22 -2 4 -4 -5 8 -7 21 -10 17 14 18 20 -12 16 -16 -6 -13 -9 -14 -3 23 -1 -24 -17 -26
right_child=2 6 3 5 10 7 -8 19 9 -11 11 12 13 -15 15 25 -18 -19 -20 -21 -22 -23 24 -25 26 -27 -28
leaf_value=0.1226563532030696 0.077093793194093443 0.07179253353962721 -0.12533374355310758 -0.061108637515267537 -0.04377909676575184 0.061888794554716978 -0.018453908074265089 -0.016591899709687309 0.062206946424244361 -0.019235043096844096 -0.024848244249223047 -0.027157164736076926 -0.055179121036138243 -0.13473393298408698 -0.13056079733257589 -0.13136144951969717 -0.025178920647331321 0.027152499045135552 0.025189364169933066 0.019921288705917539 -0.011369661767180784 0.092873224605946589 0.10700434116203647 0.099220273246854923 0.12224049722644213 -0.14216600801606216 0.12369531063999807
leaf_weight=8.3454045355319995 10.063836663961409 9.3796615898609179 7.2453196942806235 6.6510900408029547 8.3992640972137433 13.221184223890303 7.9349748939275733 12.61542882025242 11.843058913946154 8.2841801047325117 8.2436768561601657 7.7901957333087948 5.5253897905349749 6.3151662945747367 5.362591430544855 4.3536819219589216 5.7777115702629089 6.1602826267480841 8.5841674506664258 7.8990533649921408 5.2332904040813446 9.5275368243455869 11.225207418203352 17.592495501041412 17.03012722730637 4.479591503739357 9.4464167356491071
leaf_count=18 22 21 39 23 29 30 23 36 27 24 31 24 22 31 27 22 21 18 25 21 18 20 25 39 37 21 20
internal_value=0.0235845 0.0832638 -0.0257063 -0.0340592 -0.0548497 0.00891009 0.0423507 0.0227145 0.0547111 0.0286862 -0.0481501 -0.0562681 -0.0361928 -0.0711764 -0.080065 -0.102855 -0.0759064 -0.0137673 0.000285207 -0.00253258 -0.0338691 0.0824153 0.11346 0.106761 0.118069 -0.136841 0.12276
internal_weight=244.53 110.609 133.921 123.857 83.4703 40.3868 46.9694 33.7357 39.0344 20.1272 76.225 61.6655 33.4482 17.0738 28.2173 19.9736 11.1403 14.5595 16.3744 20.5145 10.7587 18.9072 63.6397 25.9379 37.7018 8.83327 26.4765
internal_count=714 254 460 438 328 110 115 87 92 51 289 242 120 71 122 91 48 47 49 57 40 41 139 57 82 43 57
is_linear=0
shrinkage=0.0938053


Tree=9
num_leaves=30
num_cat=0
split_feature=6 5 0 3 3 3 3 0 0 8 3 0 0 3 0 0 3 0 0 8 0 1 0 3 0 3 3 0 0
split_gain=70.3305 14.7735 11.7199 10.9782 5.93327 6.80058 4.40714 3.38592 3.19527 4.54511 2.84814 5.14359 5.10695 3.7388 3.39123 3.12571 2.58566 2.00304 5.22269 1.52173 0.671345 0.629278 0.349623 0.232278 0.363354 0.243374 0.0244949 0.00286975 0.000426839
threshold=1.0000000180025095e-35 1.0000000180025095e-35 3.5000000000000004 52.277100000000011 7.7625000000000011 38.750000000000007 26.266650000000002 28.843304260257167 25.944178313077686 1.0000000180025095e-35 7.8646000000000003 20.615136197673575 28.843304260257167 7.977100000000001 34.928214192749536 44.500000000000007 27.735400000000002 27.001139520727452 25.944178313077686 1.0000000180025095e-35 18.500000000000004 1.0000000180025095e-35 28.442699668623067 29.850000000000005 25.944178313077686 126.82500000000002 8.4458000000000002 34.928214192749536 30.750000000000004
decision_type=2 2 2 2 2 2 2 2 2 2 2 2 2 2 2 2 2 2 2 2 2 2 2 2 2 2 2 2 2
left_child=1 23 -2 4 19 6 10 8 9 -3 -6 -12 17 -14 -15 -16 -8 18 -13 22 -11 -5 -4 24 -1 28 -19 -21 -25
right_child=2 7 3 21 5 -7 16 -9 -10 20 11 12 13 14 15 -17 -18 26 -20 27 -22 -23 -24 25 -26 -27 -28 -29 -30
leaf_value=0.1193270402710532 0.10182317373135964 0.073618972071797156 -0.050168621667130736 0.017661516648182111 0.021155137785070981 -0.1331031972834705 0.055784574514673967 -0.016708846308253259 0.10170710475038384 0.01871294928842435 0.0081493836599197764 -0.12718008690071717 0.03437035237555075 -0.013696976947796726 -0.13556804238246561 -0.029621960428968201 -0.014319617182788921 -0.12572801039315454 0.007085833783723362 -0.12489520952339847 -0.020719076697664179 0.052960862437306626 -0.084489156101697938 0.1197653515617982 0.09481016500292401 0.10191359292497829 -0.13604380963670704 -0.12121661755532404 0.11898612353383202
leaf_weight=7.799822241067889 6.2276794761419287 14.622397795319555 5.1495680660009402 7.8672028034925487 6.7309932559728614 5.4474016726016989 7.8941945284605053 7.941281482577323 8.4015192091464979 8.2072154432535189 13.209419235587118 5.8761832714080828 5.8277253657579449 10.564702525734903 5.6878683269023878 4.305030420422554 11.194612219929693 3.8672121763229352 4.5026904195547104 3.6759608685970298 7.07398997247219 10.212679922580717 5.2999579012393951 10.49895215034485 16.726150169968605 9.7919746637344343 4.252974733710289 3.7902073860168457 15.056804418563841
leaf_count=18 13 33 20 21 21 21 18 23 17 22 40 31 16 33 28 17 32 21 15 20 20 25 25 24 39 23 21 22 35
internal_value=0.0220433 0.078861 -0.023779 -0.0300189 -0.0414152 -0.0315373 -0.024944 0.0390367 0.0505936 0.0362331 -0.0366096 -0.0433025 -0.0584447 -0.0319503 -0.0507511 -0.0899255 0.014672 -0.0962339 -0.0689312 -0.0906848 0.000459039 0.0376009 -0.0675759 0.109621 0.102607 0.114488 -0.131131 -0.123028 0.119306
internal_weight=237.704 106.12 131.584 125.357 107.277 89.361 83.9136 46.2464 38.3051 29.9036 64.8248 58.0938 44.8844 26.3853 20.5576 9.9929 19.0888 18.4991 10.3789 17.9157 15.2812 18.0799 10.4495 59.8737 24.526 35.3477 8.12019 7.46617 25.5558
internal_count=714 254 460 447 401 314 293 115 92 75 243 222 182 94 78 45 50 88 46 87 42 46 45 139 57 82 42 42 59
is_linear=0
shrinkage=0.0938053


Tree=10
num_leaves=27
num_cat=0
split_feature=6 5 0 3 3 2 3 8 0 3 0 3 3 3 3 1 3 3 3 7 3 0 3 0 3 0
split_gain=60.5505 14.1004 9.50181 9.19362 4.06445 3.7075 3.12986 2.42411 8.28409 2.99286 3.2795 2.38342 2.26391 5.10076 1.66939 2.18667 1.65945 3.17683 2.59012 1.45189 0.764914 0.397025 0.243163 0.375982 0.253565 0.000298381
threshold=1.0000000180025095e-35 1.0000000180025095e-35 8.5000000000000018 26.266650000000002 7.227100000000001 1.0000000180025095e-35 21.037500000000005 1.0000000180025095e-35 27.001139520727452 13.250000000000002 30.094904663000836 7.977100000000001 15.147900000000002 7.977100000000001 30.597900000000003 1.0000000180025095e-35 7.7979000000000012 7.977100000000001 9.8312500000000025 1.0000000180025095e-35 23.725000000000005 20.615136197673575 29.850000000000005 25.944178313077686 126.82500000000002 30.750000000000004
decision_type=2 2 2 2 2 2 2 2 2 2 2 2 2 2 2 2 2 2 2 2 2 2 2 2 2 2
left_child=1 22 -2 4 -4 14 12 8 -6 10 16 -12 13 -3 -5 -16 -9 -18 21 -10 -11 -19 23 -1 25 -24
right_child=2 6 3 5 7 -7 -8 9 19 20 11 -13 -14 -15 15 -17 17 18 -20 -21 -22 -23 24 -25 -26 -27
leaf_value=0.11645712136758761 0.068113608107770909 0.0683989962397549 -0.1192656365080144 0.049728135032292869 0.06957235094999123 -0.047730421350521801 -0.014726535815265658 -0.015498212201742705 -0.025811949445875049 -0.1232809521040704 0.033927805900724708 -0.038248539966660645 0.088776730468385481 -0.01302561197040487 -0.020873845962632601 0.043063571466779409 -0.13397565292637292 -0.0068136574562296347 -0.10458964576154442 -0.093216013546261953 -0.068678606011832288 -0.041420243623239358 0.11683637442210547 0.090699019560750424 0.098132570150583368 0.11616148629244365
leaf_weight=7.2679262161254909 9.5302689075469953 16.344689518213276 6.4082854837179175 12.053315788507463 6.8705340921878841 8.4337253719568235 8.682388097047804 5.8600005358457592 5.3707446306943876 5.2755274623632413 6.9432685673236874 9.5817026346921903 9.0012330412864667 11.556422710418699 11.495412722229959 7.970298931002616 5.4617209285497692 4.7280131131410617 5.7060087472200385 5.9023767411708832 3.9463959038257599 7.6162532866001129 9.7868589758873004 15.885339319705961 9.2420971691608411 14.025768697261809
leaf_count=18 22 38 39 28 17 29 26 23 18 30 20 33 19 32 34 19 28 15 25 27 19 34 24 39 23 35
internal_value=0.0206122 0.0747158 -0.0220296 -0.0292112 -0.0476268 0.00751187 0.0359478 -0.0413605 -0.0116198 -0.0511503 -0.0413523 -0.00792233 0.0478704 0.0346736 0.0222934 0.00530554 -0.0601603 -0.0712917 -0.0523245 -0.0611033 -0.0999146 -0.0281655 0.106157 0.0987846 0.11132 0.116439
internal_weight=230.947 101.793 129.154 119.624 79.6708 39.9528 45.5847 73.2625 18.1437 55.1189 45.897 16.525 36.9023 27.9011 31.519 19.4657 29.372 23.512 18.0503 11.2731 9.22192 12.3443 56.208 23.1533 33.0547 23.8126
internal_count=714 254 460 438 328 110 115 289 62 227 178 53 89 70 81 53 125 102 74 45 49 49 139 57 82 59
is_linear=0
shrinkage=0.0938053


Tree=11
num_leaves=30
num_cat=0
split_feature=6 5 0 3 3 3 3 0 0 8 2 0 0 0 0 0 3 0 8 3 0 0 1 0 3 0 3 3 0
split_gain=52.1596 13.4506 8.89272 8.71679 5.23009 5.70664 2.99744 2.76624 2.72929 3.78829 2.41995 2.4241 5.74055 3.98849 3.017 2.40145 1.97291 1.11303 0.98778 0.446446 0.434244 0.264609 0.967787 0.314768 0.162447 0.0740239 0.0071318 0.00660953 0.00224343
threshold=1.0000000180025095e-35 1.0000000180025095e-35 3.5000000000000004 52.277100000000011 7.7458500000000008 38.750000000000007 26.266650000000002 28.843304260257167 25.944178313077686 1.0000000180025095e-35 1.0000000180025095e-35 28.843304260257167 27.001139520727452 24.250000000000004 32.250000000000007 19.872836776230447 27.735400000000002 46.500000000000007 1.0000000180025095e-35 77.008350000000021 36.014029283535891 27.439641677409007 1.0000000180025095e-35 47.500000000000007 12.412500000000001 37.500000000000007 8.4458000000000002 30.597900000000003 35.059142718723912
decision_type=2 2 2 2 2 2 2 2 2 2 2 2 2 2 2 2 2 2 2 2 2 2 2 2 2 2 2 2 2
left_child=1 21 -2 4 18 6 10 8 9 -3 11 12 13 15 -13 -6 -8 20 -4 -5 -16 22 -1 25 -11 27 -14 -23 -20
right_child=2 7 3 19 5 -7 16 -9 -10 24 -12 14 26 -15 17 -17 -18 -19 28 -21 -22 23 -24 -25 -26 -27 -28 -29 -30
leaf_value=0.11409366127455778 0.093442452772807008 0.065885781128727852 -0.066887366711488899 0.047427385164667858 -0.023977714277066794 -0.12235210140086705 0.047356879763914908 -0.017239111897996519 0.092473457365260719 0.0060336938702348821 0.0270564421730853 0.020658203680498487 -0.12255417800558635 0.028266712593422047 -0.04173373064038996 -0.096208506186263809 -0.014478347205584476 -0.082537602527108109 -0.11984618312311411 0.01754717519695187 -0.0075520472716294508 0.11750316922122117 0.069950940891509217 0.090523736555904941 -0.013782041277834004 0.10520762467117023 -0.12824217837903945 0.11398008237094574 -0.11630825722524728
leaf_weight=9.4093515574932116 5.7629876136779776 13.896099001169205 6.9372416734695435 10.193463608622553 8.7831208705902188 5.3296134620904914 7.6718174219131496 7.9090678691864005 7.977733150124549 9.0340038985013944 5.6346612125635138 11.093059390783312 3.9060208350419989 6.7936165779829016 8.3185463696718234 7.516379863023757 11.123512282967566 4.396409034729003 3.2959145307540876 7.7418215572834006 5.3891263604164115 8.7188788354396873 8.1607850492000562 7.4127996265888205 6.097442790865899 8.8444995880126935 3.8531487584114075 10.12971457839012 3.0243053883314133
leaf_count=25 13 33 31 25 29 21 18 23 17 24 19 32 23 23 32 39 32 20 20 21 21 21 23 20 18 23 21 27 20
internal_value=0.0192819 0.0708311 -0.0204035 -0.0258257 -0.0363285 -0.0282097 -0.0222704 0.0331166 0.0438791 0.0305237 -0.0317224 -0.0372378 -0.0555726 -0.032118 -0.0178637 -0.0572863 0.0107614 -0.0414676 -0.0913273 0.0345295 -0.0282953 0.102989 0.0935907 0.107692 -0.00195135 0.112288 -0.125379 0.11561 -0.118153
internal_weight=224.355 97.5904 126.765 121.002 103.066 89.809 84.4794 44.9143 37.0053 29.0275 65.6841 60.0494 30.8523 23.0931 29.1971 16.2995 18.7953 18.1041 13.2575 17.9353 13.7077 52.676 17.5701 35.1059 15.1314 27.6931 7.75917 18.8486 6.32022
internal_count=714 254 460 447 401 330 309 115 92 75 259 240 135 91 105 68 50 73 71 46 53 139 48 91 42 71 44 48 40
is_linear=0
shrinkage=0.0938053


Tree=12
num_leaves=27
num_cat=0
split_feature=6 5 0 1 3 0 3 3 1 0 0 3 3 3 3 3 0 3 0 3 8 3 0 3 0 1
split_gain=44.9435 12.8074 7.60356 8.29952 10.6772 5.25971 4.04633 2.4752 3.74962 2.82929 3.75695 2.4632 2.34824 2.59977 1.95374 3.02458 1.60915 1.58029 1.1406 2.68246 1.00861 0.288867 0.444428 0.291352 0.00157128 0.000300788
threshold=1.0000000180025095e-35 1.0000000180025095e-35 3.5000000000000004 1.5000000000000002 26.266650000000002 28.843304260257167 7.7458500000000008 19.379150000000003 1.0000000180025095e-35 28.843304260257167 27.001139520727452 7.977100000000001 15.372900000000001 21.377100000000002 52.277100000000011 30.597900000000003 34.928214192749536 8.3312500000000025 23.250000000000004 8.0937500000000018 1.0000000180025095e-35 29.850000000000005 25.944178313077686 126.82500000000002 35.059142718723912 1.0000000180025095e-35
decision_type=2 2 2 2 2 2 2 2 2 2 2 2 2 2 2 2 2 2 2 2 2 2 2 2 2 2
left_child=1 21 -2 4 6 -6 20 8 9 10 18 -3 -13 -14 15 -7 -11 -18 19 -8 -4 22 -1 25 -22 -23
right_child=2 11 3 -5 5 14 7 -9 -10 16 -12 12 13 -15 -16 -17 17 -19 -20 -21 24 23 -24 -25 -26 -27
leaf_value=0.11214423678901407 0.088996114714699884 0.060730337448008528 -0.062346612583623631 -0.13216723086314594 0.078709281992980745 0.013468615997568644 -0.0066790854759795851 -0.08708017881878341 0.043853394819258172 0.012363692525395471 -0.12090444067322131 -0.016268832343996988 0.07416533317896104 -0.0008260944625870729 0.034867745441389222 -0.065634974295331328 -0.0080668222399300216 -0.079046297877644861 0.0041690780654164809 -0.088436697795849409 -0.11694772949181025 0.11158496444829132 0.082241247979287349 0.091093547409343306 -0.1138780581973613 0.11231041212364622
leaf_weight=6.3370827138423946 5.4963878393173209 15.452795445919035 6.7535272687673569 5.9156506508588782 10.535104572772978 10.814918592572218 7.0125515609979683 5.8311554938554755 6.5497337579727164 13.626904621720316 5.7062283754348746 12.505328744649889 8.3837203979492205 7.9019924700260153 9.5895982682704908 7.0103839784860602 7.2609007805585843 4.4527262449264526 5.0298735052347174 7.1132973879575729 3.0715576410293561 8.6342871785163915 14.114396497607229 8.1798657178878766 2.8094231784343719 12.045378148555756
leaf_count=18 13 38 31 25 24 28 27 30 21 38 35 35 19 23 24 24 28 21 20 31 20 25 39 23 20 34
internal_value=0.018025 0.0671598 -0.0188735 -0.0238523 -0.0181903 0.0223745 -0.0386566 -0.028881 -0.0229011 -0.0316103 -0.0540928 0.0305186 0.0143033 0.0377787 0.000726002 -0.0176415 -0.00955249 -0.0350484 -0.0341905 -0.0478494 -0.0870792 0.100036 0.091507 0.10608 -0.115481 0.112008
internal_weight=218.135 93.5548 124.58 119.084 113.168 37.95 75.2179 62.5834 56.7522 50.2025 24.862 44.2438 28.791 16.2857 27.4149 17.8253 25.3405 11.7136 19.1557 14.1258 12.6345 49.311 20.4515 28.8595 5.88098 20.6797
internal_count=714 254 460 447 422 100 322 251 221 200 113 115 77 42 76 52 87 49 78 58 71 139 57 82 40 59
is_linear=0
shrinkage=0.0938053


Tree=13
num_leaves=29
num_cat=0
split_feature=6 5 3 1 0 3 3 0 0 3 0 0 3 0 0 0 3 3 8 0 7 3 0 0 3 3 3 3
split_gain=38.6869 12.2168 6.73505 7.79281 16.8472 4.5459 2.56335 2.34034 5.39079 2.86402 2.54119 3.36941 2.25756 2.26878 2.93298 1.80917 1.61288 2.50822 1.5463 0.83119 0.364531 0.302031 0.458759 0.312109 0.105431 0.015674 0.00751756 0.00124187
threshold=1.0000000180025095e-35 1.0000000180025095e-35 7.7625000000000011 1.5000000000000002 15.500000000000002 26.266650000000002 7.8646000000000003 20.615136197673575 28.843304260257167 7.977100000000001 34.928214192749536 44.500000000000007 21.037500000000005 19.345778998677698 25.878999810190972 28.843304260257167 52.277100000000011 30.597900000000003 1.0000000180025095e-35 27.001139520727452 1.0000000180025095e-35 29.850000000000005 25.944178313077686 25.944178313077686 9.4791500000000024 7.2396000000000003 8.6729000000000003 109.89165000000001
decision_type=2 2 2 2 2 2 2 2 2 2 2 2 2 2 2 2 2 2 2 2 2 2 2 2 2 2 2 2
left_child=1 21 18 4 -4 6 -6 -8 19 -10 -11 -12 13 -3 -15 -7 17 -17 20 24 -2 22 -1 -23 -9 -20 -21 -25
right_child=2 12 3 -5 5 15 7 8 9 10 11 -13 -14 14 -16 16 -18 -19 25 26 -22 23 -24 27 -26 -27 -28 -29
leaf_value=0.11020010521953756 -0.034667239621458623 0.072779707660194454 0.13034228351836599 -0.10431804092159944 0.024816691618915542 0.04993936797831415 0.0021864854142719303 -0.062438237123505706 0.03781188473876114 -0.0070708874793703486 -0.12722543833689862 -0.010726750522485002 -0.014890365687645934 -0.020308885701296488 0.047906886740187962 0.012248507587765002 0.031737308753981973 -0.060026123275497952 -0.10909117149237459 -0.11561099780069346 -0.071598137398962147 0.088372593436595856 0.078743714615629609 0.10980542855627766 -0.083608845429942319 -0.11883010384588615 -0.12209143723872663 0.11139204083571534
leaf_weight=5.866528898477557 4.9226086288690549 11.508193328976629 7.7569170892238608 7.0732246041297904 6.583420678973197 8.6283485293388349 10.373190701007841 3.9198845922946912 5.589315906167033 10.422454640269281 4.913596570491789 3.9333084672689438 8.6394080221652967 8.9518940448761004 14.57808870077133 10.778542578220373 9.5492293536663038 6.9493873119354239 3.0119491070508948 3.20499263703823 4.5034344643354416 8.1295074224472064 13.393875628709791 11.873160839080812 4.3860185742378235 2.8115902096033096 3.0974576994776726 6.8428441286087027
leaf_count=18 22 27 16 29 21 21 34 21 15 33 27 17 26 26 36 28 24 24 25 22 23 25 39 37 22 17 19 20
internal_value=0.0168411 0.0636095 -0.0174622 -0.00916168 -0.00243685 -0.0135921 -0.0301963 -0.037463 -0.0478842 -0.0213076 -0.038456 -0.0754305 0.028058 0.0386479 0.0219545 0.0125005 0.000657808 -0.0160833 -0.0757902 -0.0931088 -0.0523115 0.0972885 0.088325 0.103719 -0.0736176 -0.113793 -0.118796 0.110386
internal_weight=212.192 89.7835 122.409 107.159 100.086 92.3291 56.4236 49.8402 39.467 24.8587 19.2694 8.84691 43.6776 35.0382 23.53 35.9055 27.2772 17.7279 15.2496 14.6084 9.42604 46.1059 19.2604 26.8455 8.3059 5.82354 6.30245 18.716
internal_count=714 254 460 373 344 328 231 210 176 92 77 44 115 89 62 97 76 52 87 84 45 139 57 82 43 42 41 57
is_linear=0
shrinkage=0.0938053


Tree=14
num_leaves=28
num_cat=0
split_feature=6 5 3 1 0 0 3 3 8 0 3 3 3 0 3 0 3 0 3 8 0 7 3 0 3 3 0
split_gain=33.2894 11.6236 5.8784 6.45082 14.5842 4.38219 7.44334 2.76962 2.44487 2.26538 2.38043 4.20328 2.26397 2.18958 3.51587 3.22727 5.26453 2.23787 1.73602 1.53161 0.585062 0.328681 0.315772 0.473996 0.340614 0.011131 0.00031306
threshold=1.0000000180025095e-35 1.0000000180025095e-35 7.7625000000000011 1.5000000000000002 15.500000000000002 52.500000000000007 26.266650000000002 7.8646000000000003 1.0000000180025095e-35 28.843304260257167 7.977100000000001 15.372900000000001 60.287500000000001 30.750000000000004 11.187500000000002 19.872836776230447 8.6583500000000004 33.968130999581852 12.500000000000002 1.0000000180025095e-35 35.543378217583054 1.0000000180025095e-35 29.850000000000005 25.944178313077686 126.82500000000002 7.2396000000000003 30.750000000000004
decision_type=2 2 2 2 2 2 2 2 2 2 2 2 2 2 2 2 2 2 2 2 2 2 2 2 2 2 2
left_child=1 22 19 4 -4 6 7 -6 -9 10 -3 -12 20 14 15 -10 -17 -15 -19 21 -8 -2 23 -1 26 -21 -24
right_child=2 9 3 -5 5 -7 12 8 13 -11 11 -13 -14 17 -16 16 -18 18 -20 25 -22 -23 24 -25 -26 -27 -28
leaf_value=0.10849048887459413 -0.031911915130778172 0.065401238182925661 0.12467030571930045 -0.095391937722365289 0.029571835804515164 -0.090147396964040102 0.062396221767885514 0.011114944612102004 0.015778415785578804 -0.019766902343262876 -0.031474195512695778 0.053152792727014141 -0.013602972617128704 0.029321691738818097 -0.12675501955713775 -0.12510259407685212 0.0010014070494431438 -0.0063057920244093714 -0.083616700194205723 -0.1075113849406422 0.031994860213740872 -0.067446876625742336 0.10896017470272151 0.075363867929663 0.084270665834018946 -0.11603369701071253 0.1081614156548636
leaf_weight=5.4213473498821285 4.8497021198272687 14.328772515058516 7.3679641634225836 7.01242522150278 6.3724137842655173 5.9817433804273596 9.04313568770886 7.9441895037889472 5.5860726684331956 7.8541054576635352 9.2484007924795169 11.695355370640753 8.1840898394584638 5.50337029993534 5.9046022891998282 6.7501244992017728 5.1247720867395401 5.1237580031156522 5.0995299816131592 2.7806115522980681 14.504168123006819 4.3402740061283112 7.3898163437843385 12.715152099728583 7.168094038963317 2.6185359954833984 10.385945767164229
leaf_count=18 22 36 16 29 20 24 21 25 17 23 27 29 23 15 35 42 22 18 28 25 38 23 24 39 23 17 35
internal_value=0.0157458 0.0602209 -0.0161804 -0.00846276 -0.00227346 -0.0125379 -0.00708525 -0.028464 -0.0363266 0.0257943 0.0359394 0.015783 0.0288985 -0.0459675 -0.064181 -0.0430209 -0.0706807 -0.0189072 -0.0448696 -0.0719911 0.0436702 -0.0486945 0.0946845 0.085266 0.101533 -0.111645 0.108493
internal_weight=206.298 86.207 120.091 105.502 98.4899 91.122 85.1402 53.4088 47.0364 43.1266 35.2725 20.9438 31.7314 39.0922 23.3656 17.461 11.8749 15.7267 10.2233 14.5891 23.5473 9.18998 43.0804 18.1365 24.9439 5.39915 17.7758
internal_count=714 254 460 373 344 328 304 222 202 115 92 56 82 177 116 81 64 61 46 87 59 45 139 57 82 42 59
is_linear=0
shrinkage=0.0938053


Tree=15
num_leaves=28
num_cat=0
split_feature=6 5 3 1 0 0 3 3 8 3 3 3 0 0 8 3 0 0 3 3 0 0 1 0 3 0 3
split_gain=28.6259 11.0378 5.21968 5.22949 12.8594 4.03189 6.34128 2.37455 2.07206 7.62647 2.06352 2.40055 3.86592 2.73956 4.60281 1.88011 1.52374 1.22784 1.22668 1.09407 0.505059 0.340077 1.22567 0.401889 0.102752 0.0976587 0.00510653
threshold=1.0000000180025095e-35 1.0000000180025095e-35 7.7458500000000008 1.5000000000000002 15.500000000000002 52.500000000000007 26.266650000000002 7.7979000000000012 1.0000000180025095e-35 17.600000000000005 7.910400000000001 8.0937500000000018 34.928214192749536 28.843304260257167 1.0000000180025095e-35 60.287500000000001 30.750000000000004 24.250000000000004 11.187500000000002 7.227100000000001 35.543378217583054 27.439641677409007 1.0000000180025095e-35 47.500000000000007 8.0937500000000018 37.500000000000007 30.597900000000003
decision_type=2 2 2 2 2 2 2 2 2 2 2 2 2 2 2 2 2 2 2 2 2 2 2 2 2 2 2
left_child=1 21 19 4 -4 6 7 -6 24 17 -9 16 13 14 -13 20 -12 -10 -16 -2 -8 22 -1 25 -3 26 -23
right_child=2 8 3 -5 5 -7 15 10 9 -11 11 12 -14 -15 18 -17 -18 -19 -20 -21 -22 23 -24 -25 -26 -27 -28
leaf_value=0.10710011260485 -0.11069116717587202 0.055896560838395157 0.11961933959097185 -0.087417743994130021 0.024129795449906424 -0.085258900219510034 0.057487445491412735 -0.080831013832387041 0.06159140100388396 -0.074633657872272677 -0.022246708944368285 0.026341755507552689 -0.12039828280040328 0.014990277403175269 -0.055925299378766204 -0.012305548650694487 0.045438968219261508 0.012637091988418192 -0.1199536317230257 -0.050911286833782682 0.029086648509651519 0.11044071368971957 0.050168196259925094 0.076221060779960104 0.041396676197149831 0.09495101839179132 0.10690429896333505
leaf_weight=6.9778798818588239 4.714556545019148 8.8185137659311312 6.977699100971221 6.9379487559199324 7.1254248619079581 6.2384784072637549 8.9016843140125328 7.0361693054437628 9.8355428874492699 7.2536975890398017 6.1437934041023237 4.8252398818731335 4.4818344041705123 9.1582890152931196 5.9981502592563647 8.1976126730442029 5.5890758186578751 8.3236010521650297 4.6930002272129059 6.2856007218360901 14.459982603788374 6.9282804429531151 6.3606167137622833 5.7251767516136161 8.3939303010702115 6.7788338959217063 7.4635221362113953
leaf_count=25 39 24 16 29 27 26 21 34 23 25 29 15 28 28 28 23 16 22 31 32 38 21 23 20 21 23 27
internal_value=0.0147154 0.0569581 -0.0150067 -0.00866764 -0.00319449 -0.0124241 -0.00717787 -0.0263961 0.023695 0.00667383 -0.0339081 -0.0258337 -0.0402519 -0.0256944 -0.0497078 0.0263457 0.00999608 0.0391522 -0.0840313 -0.0765323 0.0399084 0.0921978 0.0799515 0.0982712 0.0488255 0.104234 0.108607
internal_weight=200.624 82.8596 117.765 106.764 99.8264 92.8487 86.6103 55.051 42.6253 25.4128 47.9256 40.8894 29.1565 24.6747 15.5164 31.5593 11.7329 18.1591 10.6912 11.0002 23.3617 40.2343 13.3385 26.8958 17.2124 21.1706 14.3918
internal_count=714 254 460 389 360 344 318 236 115 70 209 175 130 102 74 82 45 45 59 71 59 139 48 91 45 71 48
is_linear=0
shrinkage=0.0938053


Tree=16
num_leaves=29
num_cat=0
split_feature=6 5 3 1 0 3 8 3 0 4 0 5 3 3 0 0 0 0 0 8 3 7 3 0 3 3 3 0
split_gain=24.6609 10.3799 4.59584 4.46488 11.0004 3.33256 1.75925 6.33807 1.753 2.32167 4.40872 3.53501 2.54167 2.06941 2.64011 2.01885 3.01806 6.03381 1.72531 1.55915 1.15691 0.375106 0.36939 0.55131 0.389065 0.0978124 0.0087031 0.000259316
threshold=1.0000000180025095e-35 1.0000000180025095e-35 7.7625000000000011 1.5000000000000002 15.500000000000002 52.277100000000011 1.0000000180025095e-35 17.600000000000005 51.500000000000007 1.0000000180025095e-35 30.750000000000004 1.0000000180025095e-35 30.250000000000004 7.8646000000000003 20.615136197673575 38.500000000000007 31.500000000000004 28.843304260257167 27.001139520727452 1.0000000180025095e-35 9.8312500000000025 1.0000000180025095e-35 29.850000000000005 25.944178313077686 126.82500000000002 8.0937500000000018 7.2396000000000003 30.750000000000004
decision_type=2 2 2 2 2 2 2 2 2 2 2 2 2 2 2 2 2 2 2 2 2 2 2 2 2 2 2 2
left_child=1 22 19 4 -4 8 25 20 9 11 -11 12 -6 -13 -15 16 17 18 -16 21 -8 -2 23 -1 27 -3 -21 -24
right_child=2 6 3 -5 5 -7 7 -9 -10 10 -12 13 -14 14 15 -17 -18 -19 -20 26 -22 -23 24 -25 -26 -27 -28 -29
leaf_value=0.10596660903471218 -0.023557323413961849 0.052401100744021906 0.11506199976643637 -0.080229932304258428 0.06354519615606119 0.029892194566234404 0.013899241288191819 -0.068214896795356611 -0.071773886282775104 -0.10551096171814511 0.0002383113458480064 0.027308357796131222 -0.011785201571987754 0.015514594494602206 -0.039505763751529581 0.0092542383799600007 -0.12437502414274267 0.054252626902717295 -0.11561728798752885 -0.1048245296056072 0.061729537953122228 -0.062453888731697167 0.10631468232636976 0.067696512036478723 0.078204474850969929 0.038088975068034131 -0.11288213247820739 0.10553141674729433
leaf_weight=4.6916703730821601 4.6093907803297025 8.5383728593587893 6.5923253744840613 6.8545391634106627 9.1045997142791766 14.923195034265516 9.6157851666212135 7.1946527510881415 5.1002257615327826 6.4850950837135297 7.459236279129982 6.3979429751634589 6.9496508687734595 8.0331867933273298 5.283151209354406 4.619462624192237 4.7938189655542365 4.3408183753490439 5.2004091814160347 2.351578287780284 8.2829641401767713 4.1421751230955124 6.3862160593271282 11.266338773071764 6.3296248614788047 8.2732168734073621 2.3666788637638092 8.9065302610397321
leaf_count=18 22 24 16 29 22 38 26 25 22 33 29 20 21 26 29 17 20 12 39 25 19 23 24 39 23 21 17 35
internal_value=0.0137559 0.0539777 -0.0138983 -0.00710623 -0.00184581 -0.0105355 0.021876 0.00614397 -0.018714 -0.014773 -0.0489425 -0.00606607 0.0309358 -0.0214282 -0.0310906 -0.0465372 -0.0596743 -0.0387518 -0.0772612 -0.0654009 0.0360336 -0.0419673 0.0897736 0.078948 0.0977632 0.0453579 -0.108866 0.105859
internal_weight=195.093 79.4854 115.607 102.138 95.2831 88.6908 41.905 25.0934 73.7676 68.6674 13.9443 54.723 16.0543 38.6688 32.2708 24.2377 19.6182 14.8244 10.4836 13.4698 17.8987 8.75157 37.5804 15.958 21.6224 16.8116 4.71826 15.2927
internal_count=714 254 460 373 344 328 115 70 290 268 62 206 43 163 143 117 100 80 68 87 45 45 139 57 82 45 42 59
is_linear=0
shrinkage=0.0938053


Tree=17
num_leaves=26
num_cat=0
split_feature=6 5 3 0 1 3 3 3 8 3 0 0 3 3 0 1 0 3 0 0 3 0 3 3 0
split_gain=21.2209 9.74588 4.0933 3.66146 4.86834 3.91795 2.44112 2.18515 1.49235 5.2687 1.48562 2.44662 1.6911 2.22676 2.95307 4.03484 2.97541 1.16264 1.08789 1.07545 0.383384 0.564276 0.408578 0.0920729 0.000189406
threshold=1.0000000180025095e-35 1.0000000180025095e-35 7.7458500000000008 3.5000000000000004 1.5000000000000002 52.277100000000011 36.125000000000007 29.850000000000005 1.0000000180025095e-35 17.600000000000005 49.500000000000007 42.522053417612064 7.7979000000000012 7.910400000000001 20.615136197673575 1.0000000180025095e-35 33.05107452209888 7.227100000000001 34.216180197599641 24.250000000000004 29.850000000000005 25.944178313077686 126.82500000000002 8.0937500000000018 30.750000000000004
decision_type=2 2 2 2 2 2 2 2 2 2 2 2 2 2 2 2 2 2 2 2 2 2 2 2 2
left_child=1 20 17 -4 5 6 7 10 23 19 11 12 -5 -14 -15 16 -16 -2 -7 -10 21 -1 24 -3 -22
right_child=2 8 3 4 -6 18 -8 -9 9 -11 -12 -13 13 14 15 -17 -18 -19 -20 -21 22 -23 -24 -25 -26
leaf_value=0.10474534781594413 -0.10825318368771962 0.049067817990899022 0.076311999765076355 0.025761306220349073 -0.099050848205281788 0.059053872247267214 -0.079164263947542016 0.040985257991844479 0.054637827275974403 -0.062452083407447845 -0.065059416485541241 0.047668148547064623 -0.073808962332496647 0.025340231604409954 -0.039269000804862876 -0.10312355466949966 0.02742475724291206 -0.04338399403165337 0.0099636448545320933 0.0082385127515530905 0.1050549281847635 0.064589205920489015 0.075363046657094451 0.035025131082186807 0.10435724317274131
leaf_weight=4.318986862897872 4.1271978542208654 8.2761873453855532 4.4104773998260489 6.9447014927864066 5.2380110844969741 8.5344822704792005 4.8622491210699073 6.5936182737350455 9.4698428064584785 7.1248223483562461 4.9522432014346114 5.5643267333507529 6.7313616499304763 11.292988926172255 16.076765105128295 5.5542729198932639 9.2860174179077131 5.9163735583424568 7.4312152415513983 8.2034316807985288 5.8807628899812725 10.727280601859091 5.9697524905204764 8.1587734371423704 8.1958920955657941
leaf_count=18 39 24 13 26 25 20 18 17 23 25 23 17 34 36 78 30 32 32 20 22 24 39 23 21 35
internal_value=0.012851 0.0510988 -0.0128659 -0.00731629 -0.0110396 -0.00612613 -0.0148065 -0.0105197 0.0201754 0.00564703 -0.015634 -0.0116509 -0.017557 -0.0237038 -0.0157133 -0.0307089 -0.0148506 -0.0700406 0.0362049 0.0331006 0.0874331 0.0761159 0.0959275 0.0420966 0.104649
internal_weight=189.842 76.3257 113.516 103.473 99.0623 93.8242 77.8585 72.9963 41.2331 24.7981 66.4027 61.4504 55.8861 48.9414 42.21 30.9171 25.3628 10.0436 15.9657 17.6733 35.0927 15.0463 20.0464 16.435 14.0767
internal_count=714 254 460 389 376 351 311 293 115 70 276 253 236 210 176 140 110 71 40 45 139 57 82 45 59
is_linear=0
shrinkage=0.0938053


Tree=18
num_leaves=31
num_cat=0
split_feature=6 5 3 1 0 0 4 3 0 3 8 3 8 0 0 0 0 0 1 8 3 3 0 1 0 0 0 3 3 3
split_gain=18.2502 9.11834 3.58728 3.32673 9.06282 2.65032 4.01517 4.57663 4.17193 1.92071 1.55966 1.52945 1.8779 2.2084 1.56633 1.49479 1.94534 1.61541 1.35086 1.26269 4.38472 1.00286 0.420269 1.43102 0.477138 0.418672 0.118025 0.0857838 0.00654532 0.00370574
threshold=1.0000000180025095e-35 1.0000000180025095e-35 7.7625000000000011 1.5000000000000002 15.500000000000002 52.500000000000007 1.0000000180025095e-35 26.266650000000002 30.750000000000004 30.597900000000003 1.0000000180025095e-35 7.8646000000000003 1.0000000180025095e-35 38.500000000000007 31.500000000000004 27.439641677409007 19.345778998677698 26.721393645185746 1.0000000180025095e-35 1.0000000180025095e-35 17.600000000000005 9.8312500000000025 27.439641677409007 1.0000000180025095e-35 47.500000000000007 28.442699668623067 37.500000000000007 8.0937500000000018 7.2396000000000003 30.597900000000003
decision_type=2 2 2 2 2 2 2 2 2 2 2 2 2 2 2 2 2 2 2 2 2 2 2 2 2 2 2 2 2 2
left_child=1 22 10 4 -4 6 7 11 -8 -9 25 -6 -13 14 15 16 -14 -18 -11 27 21 -21 23 -1 26 -2 29 -3 -12 -24
right_child=2 19 3 -5 5 -7 8 9 -10 18 28 12 13 -15 -16 -17 17 -19 -20 20 -22 -23 24 -25 -26 -27 -28 -29 -30 -31
leaf_value=0.10360794755873781 -0.015553982657359319 0.045888831366910646 0.10969421096135383 -0.070580099782919001 0.024946643471756551 -0.071259585788788507 -0.10421395708857041 0.066087403960285299 -0.0028763184708406084 -0.0059916131990950137 -0.10270990383005757 0.020157088655259801 -0.0069725673359649788 0.024716111906053207 -0.10297341378691308 0.011136765410716046 -0.11695676464891713 -0.027845394497097772 0.044268698001617507 0.0097252415625953201 -0.057240571276372082 0.054872862266305687 0.10685555536453971 0.035259535148302129 0.066231285572421084 -0.057541424798169774 0.088572134772308742 0.032186862417443195 -0.11020132858636603 0.10351470728754793
leaf_weight=5.4766969531774503 4.2854646146297437 8.0316675603389758 6.0450635552406302 6.5402615517377845 6.4182297736406317 5.6424362212419501 6.6499918475747091 9.9973073899745959 7.7303280383348465 11.053243562579155 1.9793488010764111 6.3551102280616787 4.8347309827804654 4.2324296385049811 3.9275108575820914 4.2179726883769026 4.7099621817469597 2.8874948844313622 8.1939095854759216 9.4381235241890007 7.0481339097023001 7.9983205944299689 5.8059715032577568 5.3080523461103439 4.7446982115507117 4.0785677880048752 5.5606161952018729 8.0508823990821821 2.131303645670414 5.8807890713214874
leaf_count=25 20 24 16 29 20 24 35 23 31 32 25 21 16 16 17 16 32 25 20 26 25 19 21 23 20 25 23 21 17 27
internal_value=0.011971 0.0483399 -0.0118644 -0.00591579 -0.00136315 -0.00909307 -0.00477367 0.00490208 -0.0497386 0.0327311 -0.0592812 -0.0167523 -0.0253398 -0.0369939 -0.0496864 -0.0371168 -0.0534882 -0.083089 0.0154052 0.0186096 0.00519672 0.030435 0.0851364 0.0699681 0.0925748 -0.0360284 0.0998218 0.0390297 -0.106594 0.105174
internal_weight=185.255 73.344 111.911 99.436 92.8957 86.8507 81.2082 66.8279 14.3803 29.2445 12.4747 37.5834 31.1652 24.8101 20.5777 16.6502 12.4322 7.59746 19.2472 40.5671 24.4846 17.4364 32.7768 10.7847 21.9921 8.36403 17.2474 16.0825 4.11065 11.6868
internal_count=714 254 460 373 344 328 304 238 66 75 87 163 143 122 106 89 73 57 52 115 70 45 139 48 91 45 71 45 42 48
is_linear=0
shrinkage=0.0938053


Tree=19
num_leaves=26
num_cat=0
split_feature=6 5 3 0 1 0 4 3 0 3 3 3 3 8 0 0 0 0 3 3 3 3 3 0 1
split_gain=15.6709 8.50615 3.20727 2.72876 3.08257 7.4269 3.27796 3.96855 3.66794 1.76207 1.32233 1.80467 1.63725 2.47063 3.7832 1.21021 1.17376 1.14825 1.11319 3.43256 1.22919 0.440294 0.573622 0.311392 0.000242449
threshold=1.0000000180025095e-35 1.0000000180025095e-35 7.7458500000000008 52.500000000000007 1.5000000000000002 15.500000000000002 1.0000000180025095e-35 26.266650000000002 30.750000000000004 60.287500000000001 7.7979000000000012 7.910400000000001 8.0937500000000018 1.0000000180025095e-35 26.721393645185746 28.442699668623067 30.750000000000004 36.014029283535891 7.977100000000001 15.372900000000001 21.377100000000002 29.850000000000005 135.06665000000001 33.968130999581852 1.0000000180025095e-35
decision_type=2 2 2 2 2 2 2 2 2 2 2 2 2 2 2 2 2 2 2 2 2 2 2 2 2
left_child=1 21 15 4 5 -4 7 10 -8 17 -7 -12 16 -14 -15 -2 -13 -9 -3 -20 -21 23 24 -1 -23
right_child=2 18 3 -5 -6 6 8 9 -10 -11 11 12 13 14 -16 -17 -18 -19 19 20 -22 22 -24 -25 -26
leaf_value=0.081448243919560293 -0.037259110686539622 0.039666570934827929 0.10591735171982145 -0.068380568888258483 -0.064926040933192694 0.02109731084247176 -0.098745389955959426 0.069284822154101519 -0.0026084954109643135 -0.0087587334447341587 -0.068002599940829023 -0.01569618843835506 0.020874865310498262 -0.13056498102416825 -0.011935644138663121 -0.10728966484320136 0.044394923454061971 0.025219908564959783 -0.031498008884233597 0.062688790059557117 0.00912035447571918 0.10239785096212586 0.064248073353291343 0.051974497762012906 0.10323118149619433
leaf_weight=8.104462146759035 5.685331739485262 13.018596336245535 5.6905760467052451 5.8388591930270186 6.4475469142198554 7.0712881386280051 6.3735116124153119 9.00994616746903 7.7247156277298927 7.60382156074047 6.4706128761172286 5.8010577112436312 4.9121564179658881 4.0151870101690275 5.7576338797807693 3.5131997168064117 5.6423622667789459 12.317531794309614 11.859251841902735 7.5534736514091474 7.5235928744077682 5.1415216624736804 4.5948739051818839 5.1640428379178038 7.6329378187656403
leaf_count=36 35 38 16 26 29 27 35 21 31 21 34 29 16 24 31 36 16 33 35 19 23 26 20 21 36
internal_value=0.0111721 0.0456582 -0.0109846 -0.00614016 -0.00230822 0.00225937 -0.00487333 0.00359293 -0.04607 0.0300125 -0.0156747 -0.0236511 -0.0126677 -0.0333963 -0.0606748 -0.0640059 0.0139327 0.0438354 0.0171442 0.00625895 0.0359577 0.0828434 0.0926719 0.0699772 0.102896
internal_weight=180.468 70.5928 109.875 100.677 94.8379 88.3904 82.6998 68.6016 14.0982 28.9313 39.6703 32.599 26.1284 14.685 9.77282 9.19853 11.4434 21.3275 39.9549 26.9363 15.0771 30.6378 17.3693 13.2685 12.7745
internal_count=714 254 460 389 363 334 318 252 66 75 177 150 116 71 55 71 45 54 115 77 42 139 82 57 62
is_linear=0
shrinkage=0.0938053


Tree=20
num_leaves=28
num_cat=0
split_feature=6 5 3 0 0 1 0 0 0 3 0 0 3 5 0 0 3 8 3 0 0 1 0 0 0 3 3
split_gain=13.3917 7.95382 2.79149 2.29397 2.82426 2.21251 7.12858 1.40666 2.53555 5.17314 4.17214 4.08948 2.64497 2.67645 2.31556 1.83638 1.25579 1.04702 3.78338 0.933751 0.456405 1.51958 0.518589 0.300957 0.131591 0.0574794 0.00245393
threshold=1.0000000180025095e-35 1.0000000180025095e-35 7.7458500000000008 52.500000000000007 47.500000000000007 1.5000000000000002 15.500000000000002 18.500000000000004 27.001139520727452 15.147900000000002 30.094904663000836 32.250000000000007 26.775000000000002 1.0000000180025095e-35 24.250000000000004 27.439641677409007 7.227100000000001 1.0000000180025095e-35 17.600000000000005 24.250000000000004 27.439641677409007 1.0000000180025095e-35 47.500000000000007 20.615136197673575 37.500000000000007 8.0937500000000018 30.597900000000003
decision_type=2 2 2 2 2 2 2 2 2 2 2 2 2 2 2 2 2 2 2 2 2 2 2 2 2 2 2
left_child=1 20 16 4 5 6 -4 -8 9 14 15 -12 13 -13 23 -10 -2 25 19 -19 21 -1 24 -9 26 -3 -22
right_child=2 17 3 -5 -6 -7 7 8 10 -11 11 12 -14 -15 -16 -17 -18 18 -20 -21 22 -23 -24 -25 -26 -27 -28
leaf_value=0.10190403929580737 -0.10555799106854537 0.040494052301913337 0.10238128049593252 -0.063339374784726524 0.059763460907531131 -0.05972394185541044 -0.057399354697435102 -0.027856581369239769 -0.11385914445028894 0.077108855215201375 0.057970276649457156 0.041457045558583643 -0.054314349490443795 -0.031972864228731669 0.041575588067902472 -0.038935460825285519 -0.032751909599086852 0.047848181639113398 -0.054707892899142685 0.0039328057325455348 0.10472511342931244 0.02684909456171718 0.059931181519651489 -0.063136073362415432 0.084482454016253539 0.029080199994806797 0.10179297582288788
leaf_weight=4.6707307696342486 3.3890849202871305 7.6267031133174878 5.3513696789741507 5.7183105275034896 6.0654208287596694 6.3562560379505149 5.0649535655975333 4.3557753860950488 4.2348806262016288 8.581557169556616 7.9710389971733084 8.6915902569890058 10.90850782394409 8.7802786752581596 3.98105564713478 8.9880737662315351 5.4162986427545547 9.06631943583489 6.9876772314310065 8.0372816175222379 5.0570350736379641 4.8265236914157867 4.23244984447956 4.1596401408314705 4.8718726113438597 7.908070370554924 4.989767462015152
leaf_count=25 39 24 16 26 17 29 20 18 35 24 20 30 35 39 16 35 32 23 25 22 21 23 20 29 23 21 27
internal_value=0.0103993 0.0429188 -0.0101559 -0.00566325 -0.00213551 -0.00642997 -0.00225142 -0.0096464 -0.00622306 0.0210299 -0.0178105 -0.00139769 -0.018072 0.00455572 -0.0174806 -0.0629311 -0.0607741 0.0156952 0.00345083 0.0272116 0.0805742 0.063761 0.088912 -0.04509 0.0971339 0.0346838 0.103269
internal_weight=176.289 68.2744 108.014 99.2087 93.4904 87.425 81.0687 75.7174 70.6524 21.078 49.5744 36.3514 28.3804 17.4719 12.4965 13.223 8.80538 39.6261 24.0913 17.1036 28.6484 9.49725 19.1511 8.51542 14.9187 15.5348 10.0468
internal_count=714 254 460 389 363 346 317 301 281 87 194 124 104 69 63 70 71 115 70 45 139 48 91 47 71 45 48
is_linear=0
shrinkage=0.0938053


Tree=21
num_leaves=28
num_cat=0
split_feature=6 5 3 0 0 1 0 4 0 0 0 8 0 3 0 3 0 3 0 3 3 0 3 3 3 0 1
split_gain=11.4732 7.36558 2.42818 1.92889 2.33202 1.84494 6.23503 1.61145 3.7496 2.11562 8.19118 2.61207 1.85136 1.38607 1.23276 1.12141 1.0811 1.07236 3.21148 4.95132 0.952962 0.823449 0.498537 0.734972 0.376148 0.331369 0.000214593
threshold=1.0000000180025095e-35 1.0000000180025095e-35 7.7458500000000008 52.500000000000007 47.500000000000007 1.5000000000000002 15.500000000000002 1.0000000180025095e-35 30.750000000000004 27.001139520727452 24.250000000000004 1.0000000180025095e-35 29.500000000000004 10.008300000000002 28.442699668623067 27.825000000000003 19.872836776230447 15.372900000000001 19.345778998677698 7.977100000000001 21.377100000000002 35.543378217583054 29.850000000000005 141.07705000000001 14.479150000000002 33.968130999581852 1.0000000180025095e-35
decision_type=2 2 2 2 2 2 2 2 2 2 2 2 2 2 2 2 2 2 2 2 2 2 2 2 2 2 2
left_child=1 22 14 4 5 6 -4 9 -9 10 13 -11 24 16 -2 21 -8 18 -3 -20 -19 -14 25 26 -13 -1 -24
right_child=2 17 3 -5 -6 -7 7 8 -10 11 -12 12 15 -15 -16 -17 -18 20 19 -21 -22 -23 23 -25 -26 -27 -28
leaf_value=0.076565643355789192 -0.030699307414697216 0.05100156240769417 0.099039909914455271 -0.058666276474640212 0.05435803378749203 -0.05492736657127207 -0.0096124578404540272 -0.092824257334545579 0.0081113943733718344 -0.059248095093229453 0.10191771877724619 -0.065244600022574775 0.0048702321844767025 0.02379276114605184 -0.10535160536706843 -0.015626660879434349 -0.071951976145526439 0.05843590956162345 0.024615161759622535 -0.079470109914009449 0.010751002069223104 0.048763343019414894 0.10096926793626994 0.053406218286588397 -0.021065228627874938 0.044343001736531371 0.10179647672073006
leaf_weight=7.0957425832748431 5.3890791684389097 8.0028344392776507 5.0286846160888663 5.6005847975611678 6.044066570699214 6.2674914970993987 5.0295707881450671 6.0577650442719442 6.958828367292881 9.1541791260242444 7.3060811981558791 3.7746853083372143 7.9595664292573947 4.3268533945083609 3.0470002181828022 9.4291220754384977 4.7689704820513725 7.3168388903141004 9.0646955072879809 7.2285684049129477 7.4353492558002472 7.1298929378390312 4.7330111861228925 3.7198191583156577 3.0791121870279312 4.647761270403862 6.618388444185257
leaf_count=36 35 22 16 26 17 29 17 35 26 40 20 28 25 14 36 28 30 19 28 23 23 24 28 18 14 21 36
internal_value=0.00968051 0.0404476 -0.00937339 -0.00521294 -0.00197002 -0.00591632 -0.00207677 -0.00885885 -0.0388628 -0.0025554 0.021281 -0.0151607 -0.0022964 -0.0204267 -0.0576627 0.00975165 -0.0399532 0.0144522 0.00233909 -0.0215627 0.0344019 0.0256101 0.0783027 0.0895932 -0.0453967 0.0638128 0.101452
internal_weight=172.215 65.863 106.352 97.9155 92.3149 86.2708 80.0033 74.9746 13.0166 61.958 21.4315 40.5266 31.3724 14.1254 8.43608 24.5186 9.79854 39.0483 24.2961 16.2933 14.7522 15.0895 26.8147 15.0712 6.8538 11.7435 11.3514
internal_count=714 254 460 389 363 346 317 301 61 240 81 159 119 61 71 77 47 115 73 51 42 49 139 82 42 57 64
is_linear=0
shrinkage=0.0938053


Tree=22
num_leaves=29
num_cat=0
split_feature=6 5 3 0 0 1 0 4 0 0 0 0 3 3 3 3 3 0 3 3 2 0 3 3 3 0 0 1
split_gain=9.79659 6.81645 2.10656 1.62119 1.92707 1.5376 5.4578 1.35965 3.27609 1.75138 6.75872 2.29918 2.63916 2.29936 1.42758 1.27288 1.16336 1.08482 1.00725 0.887894 2.70419 2.69636 3.99945 0.508199 0.755859 0.321106 0.044167 0.000158701
threshold=1.0000000180025095e-35 1.0000000180025095e-35 7.7458500000000008 52.500000000000007 47.500000000000007 1.5000000000000002 15.500000000000002 1.0000000180025095e-35 30.750000000000004 27.001139520727452 24.250000000000004 28.843304260257167 26.775000000000002 19.379150000000003 9.4791500000000024 7.227100000000001 10.008300000000002 35.288499016988908 7.977100000000001 15.372900000000001 1.5000000000000002 19.345778998677698 7.977100000000001 29.850000000000005 141.07705000000001 33.968130999581852 39.405667969338573 1.0000000180025095e-35
decision_type=2 2 2 2 2 2 2 2 2 2 2 2 2 2 2 2 2 2 2 2 2 2 2 2 2 2 2 2
left_child=1 23 15 4 5 6 -4 9 -9 10 16 13 14 -11 17 -2 18 -13 -8 21 -21 -3 -23 25 27 -1 -14 -25
right_child=2 19 3 -5 -6 -7 7 8 -10 11 -12 12 26 -15 -16 -17 -18 -19 -20 20 -22 22 -24 24 -26 -27 -28 -29
leaf_value=0.074160700654178666 -0.10389204701390362 0.047622748611542726 0.095855207614320467 -0.054322185408503407 0.049477357915777127 -0.050498319749621781 -0.073085801259938424 -0.088103856883432474 0.0073377807995283007 -0.11094583124832931 0.092718885421814237 -0.023297661176715258 -0.042405627315326197 -0.00085536321133349144 0.051866305411587377 -0.026540455418354196 0.021558933665678043 0.030991404061163377 -0.011419326184433125 0.068397632113689114 -0.012642633669072015 0.022655908598554299 -0.070774336212078751 0.10028185846144655 0.050651851627879947 0.041696030763398985 -0.031493303792660986 0.10102485446726867
leaf_weight=6.6599216163158435 2.9383178316056711 7.7779531031847027 4.72323054075241 5.4868072569370261 6.0186492502689353 6.1820334792137137 3.9858103170990962 5.7965054884552938 6.9702985808253288 3.8762560933828345 7.2788184732198706 7.719074413180353 5.9165808409452421 2.9322551190853119 6.9802943840622893 5.1583603546023369 4.3272154480218878 5.5802009999752045 5.6129343882203102 7.9591262489557248 6.6507894098758698 8.9315365701913851 7.3488212525844565 4.3373412340879423 3.5620286464691153 4.4871933460235596 7.2791470885276794 6.0695965141057968
leaf_count=36 39 22 16 26 17 29 21 35 26 36 20 25 18 11 24 32 14 22 26 20 22 28 23 28 18 21 23 36
internal_value=0.00899632 0.0379798 -0.00865014 -0.00480044 -0.00182042 -0.00544584 -0.00191937 -0.0081386 -0.0359955 -0.0023547 0.019466 -0.0138408 -0.003734 -0.0635326 0.0175124 -0.0546117 -0.0188218 -0.000518684 -0.0370259 0.0132655 0.0315061 0.0021885 -0.0195177 0.0760295 0.0879492 0.0610923 -0.0363861 0.100715
internal_weight=168.547 63.7843 104.763 96.6661 91.1793 85.1607 78.9786 74.2554 12.7668 61.4886 21.2048 40.2838 33.4753 6.80851 20.2796 8.09668 13.926 13.2993 9.59874 38.6682 14.6099 24.0583 16.2804 25.1161 13.969 11.1471 13.1957 10.4069
internal_count=714 254 460 389 363 346 317 301 61 240 81 159 112 47 71 71 61 47 47 115 42 73 51 139 82 57 41 64
is_linear=0
shrinkage=0.0938053


Tree=23
num_leaves=30
num_cat=0
split_feature=1 6 0 3 2 0 0 3 4 3 0 3 0 3 0 0 3 3 0 0 3 0 0 3 3 3 0 3 1
split_gain=8.41055 8.80382 6.52902 6.22058 2.16662 1.83702 5.66229 1.67883 1.52419 4.01809 2.47684 2.33841 4.76287 2.33937 1.64539 1.43262 1.3052 3.57538 1.04837 0.88445 1.15774 2.57235 2.98264 0.753269 0.607086 0.517399 0.199167 0.00120006 9.88334e-05
threshold=2.5000000000000004 1.0000000180025095e-35 15.500000000000002 15.372900000000001 1.5000000000000002 25.878999810190972 19.345778998677698 7.7458500000000008 1.0000000180025095e-35 13.931250000000002 49.500000000000007 15.147900000000002 27.001139520727452 8.0937500000000018 33.05107452209888 34.928214192749536 7.2396000000000003 7.227100000000001 28.843304260257167 35.288499016988908 7.7979000000000012 20.615136197673575 28.843304260257167 9.4791500000000024 29.850000000000005 51.670850000000009 26.721393645185746 126.82500000000002 1.0000000180025095e-35
decision_type=2 2 2 2 2 2 2 2 2 2 2 2 2 2 2 2 2 2 2 2 2 2 2 2 2 2 2 2 2
left_child=1 3 -3 5 24 6 -1 16 10 14 11 13 -13 19 -10 -14 17 -4 -7 20 -9 -22 -23 -15 26 -17 -5 28 -26
right_child=-2 2 7 4 -6 18 -8 8 9 -11 -12 12 15 23 -16 25 -18 -19 -20 -21 21 22 -24 -25 27 -27 -28 -29 -30
leaf_value=0.042234728132864316 -0.09619951300665934 0.099654452931720663 -0.10292633247663228 0.080743959124624523 0.028408762222629117 0.058451507790992875 -0.076026815907842063 0.031349545197353688 -0.036856902045764271 -0.097147964550294341 -0.057736193418813385 0.08259120979019989 -0.031872865318432017 -0.082143765750907649 0.040563620199432653 0.0041101794688558702 -0.11004591827980854 0.049350932491545471 0.0057830598662473014 0.035251917653233218 0.043835505642830258 -0.10961011570432494 -0.0038854797085140962 -0.025959252361163934 0.09948483567751569 0.037959430770737476 0.05659908285622104 0.10201943960076082 0.10017506172728532
leaf_weight=7.4251687824726122 6.5037016943097106 5.0394741594791403 2.6991175338625899 6.8609213456511551 8.1779909729957563 7.1311557292938215 6.8483167439699173 4.8442181348800721 4.6651830151677114 5.5064875707030287 6.0779712647199622 8.5586879178881627 7.7931684702634838 4.4541478008031827 5.009153850376606 10.690695166587831 2.3517119213938713 2.7281294167041779 6.2317482531070709 5.3997711241245261 3.7474582195281974 4.0100779235362989 5.665160745382309 3.9724649339914322 3.0501028299331647 6.3242029398679724 5.3507380932569504 3.3946547210216522 4.5465998202562332
leaf_count=23 30 17 39 22 34 22 26 15 27 30 24 24 30 23 19 35 21 11 24 21 12 39 18 20 22 16 22 18 30
internal_value=0.00835193 0.0126405 -0.00437995 0.0413467 0.0699266 0.00889442 -0.0145063 -0.009928 -0.00618324 -0.0331799 -0.000454373 0.00486425 0.0222523 -0.0132137 0.0032297 0.00143555 -0.0516741 -0.0263807 0.0338897 0.00189849 -0.00796091 -0.022148 -0.047705 -0.0556573 0.0845597 0.0166915 0.0701645 0.100553 0.0998979
internal_weight=165.058 158.555 99.5373 59.0174 31.381 27.6364 14.2735 94.4978 86.7188 15.1808 71.538 65.4601 33.3668 32.0933 9.67434 24.8081 7.77896 5.42725 13.3629 23.6667 18.2669 13.4227 9.67524 8.42661 23.203 17.0149 12.2117 10.9914 7.5967
internal_count=714 684 441 243 148 95 49 424 353 76 277 253 105 148 46 81 71 50 46 105 84 69 57 43 114 51 44 70 52
is_linear=0
shrinkage=0.0938053


Tree=24
num_leaves=30
num_cat=0
split_feature=6 5 3 8 1 0 3 3 3 3 0 0 3 0 0 0 0 3 0 3 0 1 0 7 0 0 0 3 0
split_gain=7.14795 5.9174 1.6747 1.55569 1.13195 2.65583 1.32751 2.05914 3.85841 1.24321 1.73038 3.0471 2.17182 2.49481 3.90041 0.920293 2.48153 0.726283 2.50208 3.70656 0.5506 1.79787 0.692455 0.508764 0.214541 0.161381 0.00913667 0.00182614 0.000285832
threshold=1.0000000180025095e-35 1.0000000180025095e-35 7.7625000000000011 1.0000000180025095e-35 1.5000000000000002 16.500000000000004 52.277100000000011 26.775000000000002 26.266650000000002 7.8646000000000003 20.615136197673575 28.843304260257167 7.977100000000001 34.928214192749536 44.500000000000007 27.001139520727452 25.944178313077686 7.977100000000001 26.008064316779741 16.400000000000002 27.439641677409007 1.0000000180025095e-35 48.500000000000007 1.0000000180025095e-35 42.522053417612064 37.500000000000007 27.274283267544039 30.597900000000003 33.968130999581852
decision_type=2 2 2 2 2 2 2 2 2 2 2 2 2 2 2 2 2 2 2 2 2 2 2 2 2 2 2 2 2
left_child=1 20 3 23 5 -4 7 8 9 -7 -11 15 -13 -14 -15 16 -12 -3 19 -19 21 -1 25 -2 -9 27 -17 -22 -5
right_child=2 17 4 28 -6 6 -8 24 -10 10 11 12 13 14 -16 26 -18 18 -20 -21 22 -23 -24 -25 -26 -27 -28 -29 -30
leaf_value=0.09969180136336693 0.0027305480549602783 0.029922508030888993 0.060468016324555458 -0.10373192231415071 -0.042805594867426862 0.027850444533016949 0.021013585856161868 -0.054441562364481305 0.070061673408446351 0.022470069507272847 -0.10699125080276201 0.043377585734081875 0.0069544062765535663 -0.12315620369875438 0.011232353793240158 -0.11242076878620573 0.014735743012810694 -0.067280456506026737 0.037309279569289922 0.024778907346604009 0.10220349468279502 0.0075976633847718023 0.043683278974463773 -0.046686455989300754 -0.030442261038883339 0.077457374139280485 -0.10312446428835963 0.099299532035923815 -0.10183833493956213
leaf_weight=3.5283830016851452 3.8457418903708458 11.957390576601027 5.8311322182416907 1.4870158098638042 5.9959939867258063 6.18849754333496 14.09108681976795 7.3464519679546338 5.7615000307559958 7.7782415002584449 3.0415601432323438 5.4697899669408825 9.8635197803378123 4.3353526294231406 3.3835391700267792 1.7708129882812502 2.8587799966335297 7.8411907851696032 10.487251996994017 7.5579739511013031 4.0741180181503278 3.9573951587080956 3.2112848311662665 3.5031675547361374 5.9181415885686874 3.928664393723011 1.9599690958857534 3.5797863975167274 1.3277848958969114
leaf_count=25 22 38 22 19 29 20 38 25 14 29 31 15 33 27 17 15 12 26 28 23 21 23 19 23 20 24 26 27 23
internal_value=0.00773833 0.0333821 -0.00741322 -0.0435392 -0.00340452 -0.000644551 -0.00511199 -0.0107173 -0.00236131 -0.0113059 -0.0172947 -0.0267583 -0.00824473 -0.0243041 -0.0642476 -0.0710707 -0.0480132 0.0108019 0.00196981 -0.0220973 0.0717364 0.0510058 0.0822263 -0.0208262 -0.043734 0.0929124 -0.107537 0.100845 -0.102839
internal_weight=161.882 60.1234 101.758 10.1637 91.5944 85.5984 79.7672 65.6762 52.4116 46.6501 40.4616 32.6833 23.0522 17.5824 7.71889 9.63112 5.90034 37.8438 25.8864 15.3992 22.2796 7.48578 14.7939 7.34891 13.2646 11.5826 3.73078 7.6539 2.8148
internal_count=714 254 460 87 373 344 322 284 239 225 205 176 92 77 44 84 43 115 77 49 139 48 91 45 45 72 41 48 42
is_linear=0
shrinkage=0.0938053


Tree=25
num_leaves=24
num_cat=0
split_feature=1 0 6 5 3 3 3 3 3 0 0 0 3 0 0 3 3 0 3 3 3 3 1
split_gain=6.80553 7.35019 5.94231 5.80946 1.44334 3.13559 2.0309 1.31361 2.42085 1.10082 1.67056 2.38295 2.29133 1.06051 2.25762 1.95374 3.29094 1.93259 1.04365 0.97962 0.251293 0.240219 0.000134333
threshold=2.5000000000000004 8.5000000000000018 1.0000000180025095e-35 1.0000000180025095e-35 52.277100000000011 36.125000000000007 29.850000000000005 15.372900000000001 7.977100000000001 45.250000000000007 42.522053417612064 36.014029283535891 23.125000000000004 21.147936516079572 18.500000000000004 13.931250000000002 12.500000000000002 32.250000000000007 77.008350000000021 29.850000000000005 20.550000000000001 141.07705000000001 1.0000000180025095e-35
decision_type=2 2 2 2 2 2 2 2 2 2 2 2 2 2 2 2 2 2 2 2 2 2 2
left_child=1 -1 3 19 5 6 9 8 -5 10 11 12 13 14 -4 16 17 -15 -6 20 -3 22 -21
right_child=-2 2 4 7 18 -7 -8 -9 -10 -11 -12 -13 -14 15 -16 -17 -18 -19 -20 21 -22 -23 -24
leaf_value=0.098569928965276818 -0.087935270978575536 0.063238637669336004 -0.040936849048559411 0.023967080414382416 0.040555604395383721 -0.093618351926097215 0.042595089590272674 0.0349059300529189 -0.038954351898096616 -0.052077109217004196 0.046202972746972305 -0.073443431783657767 0.050134637547481951 -0.015004408550286369 0.036647970914013152 -0.083836116560457266 0.062521581215261149 -0.081294966683879907 -0.0093034883875741919 0.098666850997425073 0.031490250976017882 0.066821193481710839 0.099443380425004599
leaf_weight=8.0120344087481481 6.3584745749831191 4.8552842438220996 5.3187866918742648 11.289394907653337 8.4641086906194669 4.0223976820707312 6.2488341927528372 10.147072821855543 10.280024737119673 5.8806235492229453 4.3852341324090949 5.3570552766323081 5.3960006311535826 19.864250648766763 8.6963179111480695 4.142766907811164 4.1335847266018382 4.8061358630657187 6.5552533864974967 3.359770365059374 4.0020236447453499 2.7060308679938307 4.7061239331960678
leaf_count=30 30 28 24 37 22 17 17 28 31 32 15 34 20 115 38 27 17 30 19 28 24 16 35
internal_value=0.00715126 0.0111125 0.00626724 0.0318954 -0.00784102 -0.0129533 -0.00858219 0.00707251 -0.00602139 -0.0132864 -0.00961312 -0.0138541 -0.00775713 -0.014409 0.00720423 -0.023603 -0.0149399 -0.0279187 0.0187944 0.0720037 0.0488937 0.0910061 0.0991199
internal_weight=158.988 152.629 144.617 51.3457 93.2714 78.252 74.2296 31.7165 21.5694 67.9808 62.1001 57.7149 52.3578 46.9618 14.0151 32.9467 28.804 24.6704 15.0194 19.6292 8.85731 10.7719 8.06589
internal_count=714 684 654 227 427 386 369 96 68 352 320 305 271 251 62 189 162 145 41 131 52 79 63
is_linear=0
shrinkage=0.0938053


Tree=26
num_leaves=24
num_cat=0
split_feature=1 0 6 5 3 4 0 1 0 0 3 8 0 3 3 3 3 3 3 0 3 0 1
split_gain=5.69817 6.51475 5.04199 5.29616 1.33149 1.34898 3.38716 2.34573 5.25088 3.79592 3.58067 2.43887 2.42279 1.19981 1.0859 1.9829 0.98531 0.972942 4.46105 1.08337 0.254222 0.245918 0.000100103
threshold=2.5000000000000004 8.5000000000000018 1.0000000180025095e-35 1.0000000180025095e-35 7.7458500000000008 1.0000000180025095e-35 30.750000000000004 1.0000000180025095e-35 45.250000000000007 25.944178313077686 8.0937500000000018 1.0000000180025095e-35 27.274283267544039 7.227100000000001 15.372900000000001 7.977100000000001 29.850000000000005 9.4791500000000024 7.977100000000001 32.250000000000007 141.07705000000001 33.968130999581852 1.0000000180025095e-35
decision_type=2 2 2 2 2 2 2 2 2 2 2 2 2 2 2 2 2 2 2 2 2 2 2
left_child=1 -1 3 16 13 7 -7 8 9 10 -6 -9 -11 -4 15 -5 21 18 -14 -19 22 -3 -18
right_child=-2 2 4 14 5 6 -8 11 -10 12 -12 -13 17 -15 -16 -17 20 19 -20 -21 -22 -23 -24
leaf_value=0.095285740720446516 -0.0811407282165231 0.060651113603012508 -0.10186322622666147 0.022068787220435628 -0.0016485698410416718 -0.085473066904359199 0.0066245694139593202 0.071254613896815519 -0.085013699163202727 0.075898954991578074 -0.10933115986614106 -0.00082738809137074135 0.024926032144617562 -0.019494574135545176 0.031861139123266373 -0.034941183200166329 0.098210405392609931 0.056203798610107963 -0.087190184314459934 0.0052644494576402677 0.064292398226404882 0.028562930447713689 0.098911279226176818
leaf_weight=7.5340259522199622 6.2499536946415892 4.6931521221995371 2.3039756603538981 11.119062013924127 6.8797793909907323 5.8137307800352565 8.8829725086688978 7.6292394846677789 6.8170000910758963 5.4048313647508612 4.4910229071974754 9.00622184202075 10.114704102277758 4.7940541654825211 10.077505260705946 10.380363419651983 3.072473578155039 5.785067878663539 4.5177035033702841 10.067240439355372 2.5560119226574898 3.8059568479657173 4.3066848590970039
leaf_count=30 30 31 39 37 32 37 39 21 28 20 24 37 42 32 28 31 28 17 26 33 16 21 35
internal_value=0.00661906 0.0102744 0.00578042 0.0297769 -0.00719249 -0.00394817 -0.0298075 0.00142634 -0.0080497 0.00305186 -0.044179 0.0322304 0.0180159 -0.0462309 0.0064529 -0.0054568 0.0697296 0.00775344 -0.00968945 0.023854 0.0897882 0.0462818 0.0986195
internal_weight=156.303 150.053 142.519 50.0112 92.5075 85.4095 14.6967 70.7128 54.0773 47.2603 11.3708 16.6355 35.8895 7.09803 31.5769 21.4994 18.4343 30.4847 14.6324 15.8523 9.93517 8.49911 7.37916
internal_count=714 684 654 227 427 356 76 280 222 194 56 58 138 71 96 68 131 118 68 50 79 52 63
is_linear=0
shrinkage=0.0938053


Tree=27
num_leaves=30
num_cat=0
split_feature=1 0 6 5 3 4 3 0 0 0 0 3 3 1 0 3 3 0 3 3 3 8 3 7 3 3 3 0 1
split_gain=4.77123 5.76966 4.27551 4.81096 1.21724 1.45729 3.32801 2.03772 3.48171 1.65682 1.29233 1.27736 2.04074 1.23224 4.3915 0.986363 0.897499 1.70916 2.37303 0.826258 0.691244 0.618281 0.958263 0.454584 0.436991 0.268246 0.244982 0.000315234 7.46875e-05
threshold=2.5000000000000004 8.5000000000000018 1.0000000180025095e-35 1.0000000180025095e-35 7.910400000000001 1.0000000180025095e-35 13.931250000000002 27.001139520727452 24.250000000000004 30.750000000000004 33.05107452209888 7.8646000000000003 7.7812500000000009 1.0000000180025095e-35 45.250000000000007 29.850000000000005 15.372900000000001 25.878999810190972 7.8646000000000003 14.456250000000002 26.775000000000002 1.0000000180025095e-35 7.7625000000000011 1.0000000180025095e-35 11.187500000000002 141.07705000000001 20.550000000000001 33.968130999581852 1.0000000180025095e-35
decision_type=2 2 2 2 2 2 2 2 2 2 2 2 2 2 2 2 2 2 2 2 2 2 2 2 2 2 2 2 2
left_child=1 -1 3 15 11 7 10 8 24 19 -7 12 21 14 20 26 17 18 -5 -9 -11 23 27 -4 -6 28 -3 -23 -17
right_child=-2 2 4 16 5 6 -8 9 -10 13 -12 -13 -14 -15 -16 25 -18 -19 -20 -21 -22 22 -24 -25 -26 -27 -28 -29 -30
leaf_value=0.092073548731784569 -0.074885693546763873 0.058678356773414569 0.0074982697106667964 0.01112306097541425 -0.015342745141458444 -0.031080167553585312 -0.088429767631313869 -0.01090769947986161 0.091765901147730589 0.032710887758028474 0.038766057534417954 -0.074056888128724296 0.047318847665815914 0.035045882363987917 -0.074720199340104751 0.097798611205069275 0.029073789577292192 0.024832585295426396 -0.072555235183682357 -0.07079222489353848 -0.0050035616289133417 -0.10249042661307223 -0.021231911179636357 -0.040388115578679558 0.02189191598635571 0.061755155926682556 0.026075405563546272 -0.1003236423401779 0.098431727039524811
leaf_weight=7.0872900485992423 6.1421673819422713 4.4247421771287936 3.7176144719123849 6.2954957932233864 5.8542459160089511 4.4230083525180799 5.106771692633628 3.7364300191402418 5.8349559977650634 10.269899807870393 4.9283104911446571 4.0632152855396262 3.5704981982707968 8.2968092635273916 6.2147561237215987 2.8085799440741521 10.011088490486143 9.4667316526174528 5.6662873923778534 4.4325180500745773 7.327412784099578 1.3069005385041248 2.898155689239502 3.286505900323391 5.2704895436763763 2.4181897342205048 3.7441081404685974 1.0782969892024992 3.9392538592219353
leaf_count=30 30 28 22 21 30 27 30 24 17 33 19 27 12 26 24 28 28 28 19 23 22 19 9 23 17 16 24 23 35
internal_value=0.00612109 0.00949485 0.00532608 0.0277619 -0.0066182 -0.000918669 -0.0275283 0.00580289 0.0330791 -0.00568224 0.00573003 -0.0271306 -0.0151069 0.00391404 -0.00693318 0.0674377 0.00588589 -0.00494716 -0.0285153 -0.0434014 0.0170068 -0.0332466 -0.0574743 -0.0149712 0.00229766 0.0885617 0.0437351 -0.101511 0.0981682
internal_weight=153.621 147.479 140.391 48.7745 91.6168 71.6956 14.4581 57.2375 16.9597 40.2778 9.35132 19.9212 15.858 32.1089 23.8121 17.3349 31.4396 21.4285 11.9618 8.16895 17.5973 12.2875 5.28335 7.00412 11.1247 9.16602 8.16885 2.3852 6.74783
internal_count=714 684 654 227 427 292 76 216 64 152 46 135 108 105 79 131 96 68 40 47 55 96 51 45 47 79 52 42 63
is_linear=0
shrinkage=0.0938053


Tree=28
num_leaves=25
num_cat=0
split_feature=1 0 6 5 3 3 3 4 3 1 0 0 8 0 0 3 3 0 3 3 3 3 0 1
split_gain=3.99398 5.10489 3.6148 4.35716 1.03677 1.16842 0.98386 0.954221 2.88149 1.57806 3.68895 3.11021 2.01323 1.73388 1.05945 0.812912 3.99889 1.06528 0.740869 1.41485 0.490917 0.282174 0.239729 5.57867e-05
threshold=2.5000000000000004 8.5000000000000018 1.0000000180025095e-35 1.0000000180025095e-35 7.7458500000000008 7.227100000000001 29.850000000000005 1.0000000180025095e-35 13.931250000000002 1.0000000180025095e-35 45.250000000000007 25.944178313077686 1.0000000180025095e-35 27.274283267544039 33.05107452209888 9.4791500000000024 7.977100000000001 32.250000000000007 15.372900000000001 7.977100000000001 7.977100000000001 141.07705000000001 33.968130999581852 1.0000000180025095e-35
decision_type=2 2 2 2 2 2 2 2 2 2 2 2 2 2 2 2 2 2 2 2 2 2 2 2
left_child=1 -1 3 6 5 -4 22 9 14 10 11 20 -11 -13 -9 16 -15 -17 19 -5 -6 23 -3 -8
right_child=-2 2 4 18 7 -7 21 8 -10 12 -12 13 -14 15 -16 17 -18 -19 -20 -21 -22 -23 -24 -25
leaf_value=0.08891706333258749 -0.069106120772661636 0.056200398617362354 -0.10110333040859493 0.019306008667177733 -0.068210580340897109 -0.015713820590406866 0.097426780958501547 -0.028567554990760587 -0.083612073291274541 0.062426352167843174 -0.071772004421165686 0.065830676943544247 -0.0033385039969336303 0.02420942416862867 0.03474351351248068 0.054360201767611797 -0.083136615857511267 0.0038206913736005049 0.026521869382292604 -0.028893752489942106 -0.026513423122427441 0.059212045018010376 0.023320735603505369 0.097999122219057669
leaf_weight=6.670808143913745 6.0368120297789565 4.2871266156435039 2.0272417515516272 10.871956110000616 3.7252507135272008 4.6318266987800598 2.5663925111293775 4.3636597283184511 4.9043930396437636 7.516581818461419 6.6835241839289656 5.2960653975605956 9.0008218176662922 10.034539058804514 4.98033806681633 5.792220313102006 4.3894586414098731 10.015987284481524 9.9481165707111341 10.567985862493513 7.460055373609066 2.2917013689875603 3.5813213959336281 3.6016084924340248
leaf_count=30 30 31 39 37 21 32 28 27 30 21 28 20 37 42 19 17 26 33 28 31 35 16 21 35
internal_value=0.00565601 0.00876412 0.00490464 0.0258095 -0.00607839 -0.0417092 0.0651111 -0.00325924 -0.0253847 0.00124987 -0.00658836 0.00273776 0.0265891 0.0163189 0.00517716 0.00764549 -0.00845773 0.0223387 0.00536471 -0.00445219 -0.0404006 0.0873182 0.0412352 0.097761
internal_weight=151.246 145.209 138.538 47.7162 90.822 6.65907 16.3282 84.1629 14.2484 69.9145 53.3971 46.7136 16.5174 35.5283 9.344 30.2322 14.424 15.8082 31.3881 21.4399 11.1853 8.4597 7.86845 6.168
internal_count=714 684 654 227 427 71 131 356 76 280 222 194 58 138 46 118 68 50 96 68 56 79 52 63
is_linear=0
shrinkage=0.0938053


Tree=29
num_leaves=29
num_cat=0
split_feature=1 0 6 5 3 3 3 3 4 0 0 0 0 3 3 3 3 0 0 8 8 3 7 3 3 3 0 1
split_gain=3.34226 4.51102 3.05684 3.92808 0.976363 0.956338 1.19264 1.68739 1.04133 2.60651 1.55735 2.54223 1.6081 0.882009 1.10497 2.18278 0.790289 0.725831 1.83799 1.81898 0.547853 0.919137 0.453077 0.295881 0.276875 0.235384 0.000233516 4.17105e-05
threshold=2.5000000000000004 8.5000000000000018 1.0000000180025095e-35 1.0000000180025095e-35 29.850000000000005 7.910400000000001 7.8646000000000003 7.7812500000000009 1.0000000180025095e-35 30.750000000000004 27.001139520727452 24.250000000000004 30.750000000000004 52.277100000000011 26.775000000000002 25.927100000000006 14.456250000000002 29.500000000000004 25.944178313077686 1.0000000180025095e-35 1.0000000180025095e-35 7.7625000000000011 1.0000000180025095e-35 141.07705000000001 11.187500000000002 20.550000000000001 33.968130999581852 1.0000000180025095e-35
decision_type=2 2 2 2 2 2 2 2 2 2 2 2 2 2 2 2 2 2 2 2 2 2 2 2 2 2 2 2
left_child=1 -1 3 4 25 6 7 20 10 -10 11 24 16 14 15 -14 -12 18 19 -5 22 26 -4 27 -7 -3 -22 -6
right_child=-2 2 5 17 23 8 -8 -9 9 -11 12 -13 13 -15 -16 -17 -18 -19 -20 -21 21 -23 -24 -25 -26 -27 -28 -29
leaf_value=0.085803482815273294 -0.063752205048377655 0.054216424195542831 0.010476746969423046 0.023874519887937051 0.097090775789088563 -0.011438230955358576 -0.07016525420798099 0.044263838582703434 -0.075570825872271055 0.0079005528659057567 -0.010124115737178372 0.079937774589315336 -0.017671343606854014 0.030367018587107251 -0.029084857199161086 0.059381395231703153 -0.0689008564885112 -0.022916339711743863 0.052640614068201488 -0.036538607271003762 -0.10146027324879411 -0.018743723739886354 -0.037919817466817628 0.056667059399463822 0.018439697206761065 0.021101160349590829 -0.099461152871327355 0.097608527159636665
leaf_weight=6.2833607494831076 5.935079611837863 4.0601032599806768 3.63741184398532 9.5213008299470019 2.3442977741360664 5.7478588223457354 3.9367607273161402 3.5645186305046073 5.2668777555227271 8.7784897014498693 3.6910114474594575 5.715094491839408 8.2959254011511856 8.5459343641996366 9.6838197261095029 5.3031529262661925 4.4275571927428246 6.533532887697219 7.0735699832439414 8.1303236186504364 1.1592591740190994 2.8744760751724243 3.19927017390728 2.1757219284772873 5.1967479735612869 3.5316984578967094 0.92393931560218323 3.291615255177021
leaf_count=30 30 28 22 30 28 30 27 12 37 39 24 17 34 23 33 15 23 20 20 26 19 9 23 16 17 24 23 35
internal_value=0.0052237 0.00808861 0.00451413 0.0239962 0.0627677 -0.00559256 -0.0241011 -0.012294 -0.000537766 -0.0234004 0.00513492 0.0292282 -0.00491297 0.00459239 -0.00486812 0.0123765 -0.0421787 0.00489074 0.0122386 -0.00395172 -0.029387 -0.0531284 -0.0121707 0.08605 0.00274849 0.0388112 -0.100574 0.0973932
internal_weight=148.829 142.894 136.61 46.6622 15.4034 89.9481 19.2956 15.3589 70.6525 14.0454 56.6071 16.6597 39.9474 31.8288 23.2829 13.5991 8.11857 31.2587 24.7252 17.6516 11.7944 4.95767 6.83668 7.81163 10.9446 7.5918 2.0832 5.63591
internal_count=714 684 654 227 131 427 135 108 292 76 216 64 152 105 82 49 47 96 76 56 96 51 45 79 47 52 42 63
is_linear=0
shrinkage=0.0938053


Tree=30
num_leaves=27
num_cat=0
split_feature=1 0 6 5 3 3 3 0 0 3 3 3 3 8 3 4 0 0 0 0 8 3 3 0 3 1
split_gain=2.79648 3.97944 2.58601 3.52132 0.964908 0.807162 1.12552 0.763296 1.68999 1.03976 2.52489 2.49827 3.1357 0.972527 1.51526 2.39444 1.26774 0.689719 0.647512 1.5507 0.606008 0.570961 0.309234 0.229791 0.0694077 3.12133e-05
threshold=2.5000000000000004 8.5000000000000018 1.0000000180025095e-35 1.0000000180025095e-35 29.850000000000005 7.7458500000000008 7.227100000000001 52.500000000000007 47.500000000000007 70.27500000000002 52.277100000000011 26.775000000000002 25.927100000000006 1.0000000180025095e-35 9.8312500000000025 1.0000000180025095e-35 26.721393645185746 19.872836776230447 27.439641677409007 25.618555666582342 1.0000000180025095e-35 7.977100000000001 141.07705000000001 33.968130999581852 14.427100000000001 1.0000000180025095e-35
decision_type=2 2 2 2 2 2 2 2 2 2 2 2 2 2 2 2 2 2 2 2 2 2 2 2 2 2
left_child=1 -1 3 4 23 6 -4 8 9 10 11 12 13 24 16 -16 17 -15 19 20 -5 -18 25 -3 -7 -6
right_child=-2 2 5 18 22 7 -8 -9 -10 -11 -12 -13 -14 14 15 -17 21 -19 -20 -21 -22 -23 -24 -25 -26 -27
leaf_value=0.082722966409366716 -0.058784414547305847 0.051849704693601457 -0.1004741123698228 0.015725696725167007 0.096786936780791685 0.027549523072987872 -0.012502876935129534 -0.038173314226406047 0.048037242372629199 -0.042159271271631389 0.063293737709771467 -0.048362602335834649 0.070532844786314941 0.0010106371138879637 -0.11215015816042 -0.013349847717593264 0.035349513606153973 -0.047010401224422398 -0.016514362596955857 0.049527558934401264 -0.022132864455533464 -0.0021697218080552615 0.054125397532947234 0.018563064114791875 0.012192947942085634 0.097255585802975303
leaf_weight=5.9236004054546347 5.8377763852477065 3.9441209957003576 1.789180003106593 7.1722125187516239 2.1407696902751923 5.0001606792211515 4.4947527796030045 5.0083964541554442 5.8625320345163336 5.8743332475423804 4.9736458361148825 10.288109496235846 5.3112867176532736 4.8183193504810351 3.1132891178131086 7.037701889872551 7.5265212841331941 5.7998877540230751 9.1255372837185842 7.0325095951557151 7.7308695614337948 6.7878251373767853 2.0694679170846939 3.3964916244149208 5.3725926801562309 3.0072401538491249
leaf_count=30 30 31 39 23 28 23 32 26 17 19 12 36 21 17 28 39 28 37 29 20 24 34 16 21 19 35
internal_value=0.00483294 0.00747433 0.00416463 0.0223264 0.0603947 -0.00513853 -0.0375503 -0.00267795 -0.000391935 -0.00434052 -0.000975954 -0.00621141 0.00233057 -0.00563844 -0.0130991 -0.0436517 -0.000659953 -0.0252195 0.00448414 0.0132198 -0.00391317 0.017558 0.0847499 0.036448 0.0195955 0.0970607
internal_weight=146.439 140.601 134.678 45.6192 14.5581 89.0585 6.28393 82.7746 77.7662 71.9037 66.0293 61.0557 50.7676 45.4563 35.0835 10.151 24.9326 10.6182 31.0611 21.9356 14.9031 14.3143 7.21748 7.34061 10.3728 5.14801
internal_count=714 684 654 227 131 427 71 356 330 313 294 282 246 225 183 67 116 54 96 67 47 62 79 52 42 63
is_linear=0
shrinkage=0.0938053


Tree=31
num_leaves=31
num_cat=0
split_feature=1 0 6 5 3 3 3 3 4 3 0 0 0 3 3 0 0 3 0 3 8 3 7 0 0 3 0 3 0 0
split_gain=2.33776 3.50596 2.18328 3.14827 0.948482 0.783645 1.11724 1.37429 0.882036 2.51815 1.42383 2.07821 1.39767 1.31967 1.37831 0.731458 0.683747 0.65598 1.22396 2.41994 0.482999 0.886011 0.449364 0.32787 0.240686 0.222828 0.065849 0.000388039 0.000139045 1.22099e-05
threshold=2.5000000000000004 8.5000000000000018 1.0000000180025095e-35 1.0000000180025095e-35 29.850000000000005 7.910400000000001 7.8646000000000003 7.7812500000000009 1.0000000180025095e-35 13.931250000000002 27.001139520727452 24.250000000000004 37.500000000000007 9.4791500000000024 27.735400000000002 45.250000000000007 33.05107452209888 15.372900000000001 25.878999810190972 7.910400000000001 1.0000000180025095e-35 7.7625000000000011 1.0000000180025095e-35 25.944178313077686 19.345778998677698 20.550000000000001 42.161803107015153 126.82500000000002 33.968130999581852 36.014029283535891
decision_type=2 2 2 2 2 2 2 2 2 2 2 2 2 2 2 2 2 2 2 2 2 2 2 2 2 2 2 2 2 2
left_child=1 -1 3 4 25 6 7 20 10 16 11 24 13 -12 -15 26 -10 18 19 -5 22 28 -4 -6 -7 -3 -14 29 -22 -25
right_child=-2 2 5 17 23 8 -8 -9 9 -11 12 -13 15 14 -16 -17 -18 -19 -20 -21 21 -23 -24 27 -26 -27 -28 -29 -30 -31
leaf_value=0.079668280154509899 -0.054170615810981274 0.049881760262966528 0.012842611424070151 0.013948846537830979 0.052068291290297025 0.017799449023110352 -0.066967730558331565 0.040654607212344075 -0.020986827423008017 -0.077300154997069617 -0.065208877903470214 0.074540169306183388 0.033067519127437911 0.024628307540412137 -0.037626153096122932 -0.0082720590221435127 0.030508724953102036 0.024216873497935647 0.0207031917579408 -0.070529405608968587 -0.10067665198184222 -0.016457100864673758 -0.03585282971488226 0.096336730345576216 -0.010271868798080307 0.016616524854635991 0.019314618371964833 0.09830908580169713 -0.099031145199182838 0.096722827867570235
leaf_weight=5.5901042222976676 5.7454141899943343 3.7516709268093091 3.5713857933878908 6.4952465221285873 2.0393174439668655 5.5504530444741267 3.824061654508113 3.567604571580886 4.1335608400404436 4.6793060675263396 4.9642982482910183 5.6311056762933722 6.3688124492764491 5.9574967920780164 6.5922306925058365 9.44757082313299 5.0295679643750191 9.7597872167825681 9.1313691735267621 5.5192254781723022 1.0351420473307378 2.8573532551527023 3.1281087920069695 1.3849498108029368 5.2110242694616318 3.357808955013752 5.9028139263391495 1.7460818663239477 0.80193512141704548 1.5027777403593061
leaf_count=30 30 28 22 22 22 19 27 12 27 30 29 17 21 31 20 32 19 28 28 18 19 9 23 21 28 24 19 16 23 20
internal_value=0.00446249 0.00689421 0.00383412 0.0207277 0.0580114 -0.0047201 -0.0217182 -0.0101528 -0.000123467 -0.0213124 0.00514938 0.0283672 -0.00455158 -0.0242682 -0.00807326 0.0113476 0.00727867 0.00410066 -0.0051839 -0.0248589 -0.0260613 -0.0491337 -0.00989412 0.0834113 0.00420649 0.0341706 0.0264522 0.0972052 -0.0999583 0.0965377
internal_weight=144.278 138.532 132.942 44.6882 13.7826 88.2538 18.7856 14.9615 69.4682 13.8424 55.6258 16.3926 39.2332 17.514 12.5497 21.7192 9.16313 30.9056 21.1458 12.0145 11.3939 4.69443 6.69949 6.67313 10.7615 7.10948 12.2716 4.63381 1.83708 2.88773
internal_count=714 684 654 227 131 427 135 108 292 76 216 64 152 80 51 72 46 96 68 40 96 51 45 79 47 52 40 57 42 41
is_linear=0
shrinkage=0.0938053


Tree=32
num_leaves=30
num_cat=0
split_feature=1 0 3 3 6 3 3 0 3 0 3 0 0 0 8 0 3 3 3 0 0 0 3 3 0 0 0 3 3
split_gain=1.95188 3.08496 1.99503 2.33258 3.18589 2.32027 1.93568 3.26283 3.19037 2.4591 4.91951 2.7323 2.17427 6.44801 2.76461 3.95087 1.91901 2.29449 1.3006 1.26949 1.59859 1.00242 0.622194 0.48998 0.45395 0.439371 0.139437 0.0193271 0.000227689
threshold=2.5000000000000004 8.5000000000000018 52.277100000000011 60.287500000000001 1.0000000180025095e-35 36.125000000000007 29.412500000000005 36.014029283535891 11.750000000000002 30.750000000000004 11.750000000000002 32.250000000000007 27.001139520727452 26.008064316779741 1.0000000180025095e-35 24.250000000000004 8.0937500000000018 9.8312500000000025 25.927100000000006 28.137459793217015 29.500000000000004 44.500000000000007 12.500000000000002 7.7979000000000012 20.615136197673575 29.500000000000004 28.843304260257167 15.800000000000002 126.82500000000002
decision_type=2 2 2 2 2 2 2 2 2 2 2 2 2 2 2 2 2 2 2 2 2 2 2 2 2 2 2 2 2
left_child=1 -1 5 -4 25 6 7 9 21 12 11 -11 13 14 24 16 23 -18 -10 22 26 -9 -14 -16 -3 -5 -21 -19 -27
right_child=-2 2 3 4 -6 -7 -8 8 18 10 -12 -13 19 -15 15 -17 17 27 -20 20 -22 -23 -24 -25 -26 28 -28 -29 -30
leaf_value=0.076634471846983701 -0.049884033484323541 0.043535151412853267 0.087178886755676255 0.035019952644411011 -0.017625718616783231 -0.065679983015224944 0.043839627975914341 -0.023372146361027833 -0.11054398889167012 0.041582007811841223 0.082813682776187697 -0.0654503679999002 -0.10829592837862023 0.097439868327735837 0.04584401061821658 -0.10261956396174884 -0.09509799637123971 0.0026148096422430748 -0.044383740139840241 -0.003030372346972158 -0.059527642213174824 0.047230557895143466 -0.040159652228435233 0.0036127860830709839 0.010435427163419976 0.09628597108399084 0.021918579204236607 -0.0075696955391685332 0.097894549231625813
