tree
version=v4
num_class=1
num_tree_per_iteration=1
label_index=0
max_feature_idx=8
objective=regression
feature_names=carat cut color clarity depth table x y z
feature_infos=[0.20000000000000001:5.0099999999999998] -1:5:4:3:2:1 -1:4:2:3:5:1:6:7 -1:3:4:2:5:6:7:8:1 [43:73.599999999999994] [44:73] [3.73:10.74] [3.6800000000000002:58.899999999999999] [2.3100000000000001:8.0600000000000005]
tree_sizes=1831 1856 1843 1854 1849 1859 1831 1839 1835 1832 1840 1842 1836 1812 1825 1824 1825 1811 1814 1806 1762 1837 1779 1809 1814 1788 1804 1811 1800 1831 1796 1827 1831 1775 1799 1779 1803 1787 1807 1797 1795 1802 1805 1791 1802 1811 1810 1800 1792 1791 1792 1805 1795 1781 1778 1784 1789 1780 1782 1791 1788 1782 1777 1788 1798 1767 1768 1780 1794 1773 1785 1784 1814 1788 1777 1790 1767 1783 1789 1794 1783 1784 1781 1782 1781 1771 1784 1788 1774 1777 1783 1759 1789 1748 1788 1780 1775 1782 1779 1764 1790 1764 1774 1783 1795 1791 1788 1782 1785 1801 1786 1783 1777 1773 1776 1777 1788 1780 1775 1784 1798 1802 1777 1780 1790 1795 1790 1782 1794 1785 1786 1772 1791 1778 1788 1795 1793 1793 1782 1792 1790 1788 1795 1783 1799 1810 1802 1788 1803 1791 1816 1820 1802 1801 1806 1793 1794 1794 1774 1818 1792 1814 1771 1800 1809 1790 1798 1809 1817 1777 1800 1799 1811 1790 1790 1797 1798 1792 1805 1787 1801 1808 1814 1814 1799 1804 1816 1809 1789 1799 1788 1784 1809 1797 1792 1810 1795 1802 1800 1796 1815 1808 1821 1821 1805 1790 1803 1812 1794 1825 1798 1795 1787 1782 1803 1815 1799 1814 1818 1822 1819 1842 1819 1819 1832 1829 1815 1841 1841 1844 1846 1850 1816 1844 1844 1824 1838 1832 1867 1827 1843 1837 1843 1836 1844 1834 1838 1838 1831 1854 1853 1840 1888 1817 1851 1837 1849 1874 1848 1859 1803 1808 1884 1865 1852 1841 1846 1899 1854 1836 1875 1864 1849 1879 1868 1844 1863 1887 1783 1883 1889 1885 1861 1868 1873 1905 1850 1852 1851 1886 1859 1859 1854 1888 1858 1872 1857 1857 1853 1834 1893 1895 1865 1865 1857 1844 1847 1844 1841 1872 1875 1877 1883 1892 1888 1874 1872 1862 1855 1875 1846 1881 1840 1878 1877 1868 1877 1872 1864 1876 1898 1881 1870 1876 1476 1905 1898 1899 1569 1881 1856 1899 1874 1857 1864 1891 1898 1893 1913 1895 1907 1898 1914 1876 1881 1876 1868 1858 1865 1863 1852 1882 1865 1890 1882 1894 1840 1914 1704 1843 1380 1618 1631 1613 1874 1897 1883 1900 1874 1884 1900 1890 1879 1891 1869 1884 1886 1887 1897 1791 1833 1870 1888 1843 1895 1898 1893 1880 1883 1864 1881 1886 1908 1908 1900 1910 1886 1889 1890 1910 1858 1879 1858 1854 1839 1861 1866 1859 1896 1860 1885 1885 1898 1908 1910 1903 1806 1906 1294 1870 1722 1716 1868 1711 1872 1459 1884 1872 1439 1883 1875 1876 1905 1907 1527 1885 1848 1891 1852 1889 1897 1872 1879 1875 1860 1864 1860 1867 1890 1882 1846 1843 1877 1876 1909 1523 1872 1534 1872 1694 1895 1895 1894 1873 1868 1880 1888 1895 1868 1870 1910 1903 1898 1893 1878 1292 1280 1849 1038 1284 1903 1878 1871 1305 1871 1891 1874 1858 1892 1538 1442 1446 1898 1897 1856 1898 1881 1557 1198 1201 1853 1869 1842 1855 1115 1860 1865 1854 1852 1851 1884 1863 1884 1880 1882 1452 1452 1392 1451 1385 1836 1863 1866 1866 1827 1821 1854 1836 1859 1865 1285 1287 1285 1280 1356 1891 1110 1894 1131 1879 1860 1865 1859 1792 1859 1446 1435 1433 1631 1215 1268 1270 1270 1849 1263 1880 1856 1875 1884 1878 1539 1564 1847 1878 1559 1869 1869 1854 1866 1859 1856 1865 1870 1878 1867 1871 1637 1187 1864 1880 1798 1785 1789 1825 1476 1640 1641 1638 1634 1798 1860 1844 1862 1875 1854 1641 1640 1841 1439 1700 1891 1889 1878 1841 1888 1854 1859 1863 1840 1858 1878 1864 1874 1886 1860 1201 1202 1196 1200 1200 1603 1520 1521 1710 1611 1611 1595 1889 1881 1853 1277 1272 1285 1876 1477 1844 1841 1511 1510 1695 1845 1860 1845 1874 1831 1275 1275 1845 1269 1847 1188 1599 1198 1864 1184 1687 1869 1438 1871 1542 1880 1845 1855 1853 1846 1783 1787 1865 1618 1849 1358 1351 1356 1883 1883 1527 1128 1549 1197 1872 1510 1867 1505 1181 1504 1515 1700 1854 1692 1606 1839 1881 1519 1521 1522 1273 1271 1279 1872 1278 1833 1844 1819 1878 1870 1848 1882 1856 1881 1844 1763 1901 1181 1766 1252 1846 1849 1816 1856 1810 1854 1851 1861 1876 1856 1853 1750 1766 1298 1848 1822 1855 1839 1507 1848 1759 1766 1750 1752 1742 1839 1839 1763 1658 1747 1852 1274 1763 1279 1763 1879 1838 1870 1857 1206 1871 1895 1436 1890 1874 1873 1880 1879 1870 1791 1871 1426 1859 1340 1191 1095 1096 1197 1493 1264 1862 1848 1869 1881 1880 1785 1882 1882 1867 1868 1838 1868 1843 1861 1874 1877 1536 1877 1530 1821 1603 1699 1436 1434 1593 1281 1275 1277 1271 1192 1862 1863 1846 1508 1846 1844 1845 1866 1841 1869 1872 1872 1747 1894 1706 1872 1873 1784 1515 1860 1283 1278 1582 1748 1609

Tree=0
num_leaves=20
num_cat=4
split_feature=0 7 0 3 7 3 7 0 0 3 0 7 6 7 3 0 4 7 7
split_gain=1.2272e+11 3.87457e+10 6.86689e+09 5.41851e+09 5.22574e+09 1.08558e+09 9.05015e+08 7.35502e+08 5.54501e+08 5.49839e+08 3.4293e+08 2.68271e+08 2.52534e+08 2.21435e+08 1.94907e+08 1.92886e+08 1.4327e+08 1.29857e+08 1.20274e+08
threshold=0.99500000000000011 7.205000000000001 0.60500000000000009 0 7.8550000000000013 1 4.995000000000001 0.85500000000000009 1.1950000000000001 2 1.5950000000000004 6.6950000000000012 6.785000000000001 6.6350000000000007 3 1.3750000000000002 62.850000000000001 8.0250000000000004 5.7250000000000005
decision_type=2 2 2 1 2 1 2 2 2 1 2 2 2 2 1 2 2 2 2
left_child=2 3 6 9 10 11 -1 18 14 12 -3 -5 -2 -11 -7 -10 -12 -6 -4
right_child=1 4 7 5 17 8 -8 -9 15 13 16 -13 -14 -15 -16 -17 -18 -19 -20
leaf_value=3878.307789161765 4005.584657198292 4083.9315389224134 3911.586814131751 3989.3510176494074 4148.273963603614 3967.4446817196986 3896.9501954223119 3944.3066307332183 3980.6904909566902 4050.6267273818548 4123.4375538162285 4018.8904484843069 4041.1772170429963 4086.7524290427386 3950.704539002511 4021.1028294296616 4083.9942698081099 4183.8939082377665 3922.9999944400906
leaf_weight=4087 251 630 673 406 100 604 1635 691 358 174 210 212 145 166 673 62 76 421 1083
leaf_count=4087 251 630 673 406 100 604 1635 691 358 174 210 212 145 166 673 62 76 421 1083
internal_value=3944.97 4033.59 3896.28 3991.03 4123.89 3974.69 3883.63 3925.87 3965.66 4040.61 4093.28 3998.7 4016.98 4065.05 3958.85 3986.8 4113.4 4177.4 3918.61
internal_weight=12657 4488 8169 3051 1437 2315 5722 2447 1697 736 916 618 396 340 1277 420 286 521 1756
internal_count=12657 4488 8169 3051 1437 2315 5722 2447 1697 736 916 618 396 340 1277 420 286 521 1756
cat_boundaries=0 1 2 3 4
cat_threshold=480 16 32 8
is_linear=0
shrinkage=1


Tree=1
num_leaves=20
num_cat=4
split_feature=0 7 0 3 7 3 7 7 0 3 0 7 7 7 3 0 4 7 7
split_gain=1.1761e+11 3.7131e+10 6.58017e+09 5.19309e+09 5.00831e+09 1.04014e+09 8.67207e+08 7.04908e+08 5.31336e+08 5.27025e+08 3.2901e+08 2.57146e+08 2.43187e+08 2.12243e+08 1.86917e+08 1.85284e+08 1.37108e+08 1.24094e+08 1.00868e+08
threshold=0.99500000000000011 7.205000000000001 0.60500000000000009 0 7.8550000000000013 1 4.995000000000001 6.0050000000000008 1.1950000000000001 2 1.5950000000000004 6.6950000000000012 6.8450000000000006 6.6350000000000007 3 1.3950000000000002 62.850000000000001 8.0250000000000004 5.7250000000000005
decision_type=2 2 2 1 2 1 2 2 2 1 2 2 2 2 1 2 2 2 2
left_child=2 3 6 9 10 11 -1 18 14 12 -3 -5 -2 -11 -7 -10 -12 -6 -4
right_child=1 4 7 5 17 8 -8 -9 15 13 16 -13 -14 -15 -16 -17 -18 -19 -20
leaf_value=-65.237115976795252 60.554570353128796 136.05247973406054 -32.660817965586823 43.465494934850398 199.06928892896175 22.027780428778104 -46.988267174267229 -1.8726645733024481 35.205893510676205 103.45717898267465 174.73610844870765 72.38592266260946 96.59110762420211 138.82504889451965 5.6343856470646339 75.910987491948092 136.14213834137038 233.91194499104554 -22.054293838389945
leaf_weight=4087 269 630 673 406 100 604 1635 764 362 174 210 212 127 166 673 58 76 421 1010
leaf_count=4087 269 630 673 406 100 604 1635 764 362 174 210 212 127 166 673 58 76 421 1010
internal_value=0.0212279 86.7812 -47.6482 45.1096 175.179 29.1198 -60.0304 -18.6834 20.2815 93.6467 145.206 52.6212 70.5154 117.576 13.6141 40.9678 164.91 227.557 -26.3099
internal_weight=12657 4488 8169 3051 1437 2315 5722 2447 1697 736 916 618 396 340 1277 420 286 521 1683
internal_count=12657 4488 8169 3051 1437 2315 5722 2447 1697 736 916 618 396 340 1277 420 286 521 1683
cat_boundaries=0 1 2 3 4
cat_threshold=480 16 32 8
is_linear=0
shrinkage=0.0210985


Tree=2
num_leaves=20
num_cat=5
split_feature=0 7 7 3 7 3 7 0 0 3 0 7 6 7 3 0 4 4 3
split_gain=1.12713e+11 3.55836e+10 6.30778e+09 4.97705e+09 4.79993e+09 9.96595e+08 9.26103e+08 6.13894e+08 5.09141e+08 5.05149e+08 3.15654e+08 2.46482e+08 2.33651e+08 2.03432e+08 1.79254e+08 1.77766e+08 1.31211e+08 1.20023e+08 8.76592e+07
threshold=0.99500000000000011 7.205000000000001 5.5450000000000008 0 7.8550000000000013 1 4.995000000000001 0.8650000000000001 1.1950000000000001 2 1.5950000000000004 6.6950000000000012 6.785000000000001 6.6350000000000007 3 1.3750000000000002 62.850000000000001 63.250000000000007 4
decision_type=2 2 2 1 2 1 2 2 2 1 2 2 2 2 1 2 2 2 1
left_child=2 3 6 9 10 11 -1 18 14 12 -3 -5 -2 -11 -7 -10 -12 -6 -4
right_child=1 4 7 5 17 8 -8 -9 15 13 16 -13 -14 -15 -16 -17 -18 -19 -20
leaf_value=-63.854116589585487 58.070537496353118 133.18580870726828 -15.536834260634629 42.550338444915973 227.44459536972428 21.571223194149379 -45.470736981323462 -0.47213658571026473 34.24647527527398 101.28490525975913 171.06416251944526 70.864732978738644 92.301773409179788 135.91083379043425 5.51739343716162 73.041519119367194 133.30123158356071 186.23446531344547 -27.602885066029494
leaf_weight=4088 251 630 493 406 458 604 1755 685 358 174 210 212 145 166 673 62 76 63 1148
leaf_count=4088 251 630 493 406 458 604 1755 685 358 174 210 212 145 166 673 62 76 63 1148
internal_value=0.0231599 84.9576 -46.6433 44.1636 171.494 28.5099 -58.3399 -17.2506 19.8585 91.6804 142.151 51.5142 69.0345 115.108 13.3318 40.1082 161.45 222.77 -24.2505
internal_weight=12657 4488 8169 3051 1437 2315 5843 2326 1697 736 916 618 396 340 1277 420 286 521 1641
internal_count=12657 4488 8169 3051 1437 2315 5843 2326 1697 736 916 618 396 340 1277 420 286 521 1641
cat_boundaries=0 1 2 3 4 5
cat_threshold=480 16 32 8 480
is_linear=0
shrinkage=0.0210985


Tree=3
num_leaves=20
num_cat=4
split_feature=0 7 0 3 7 3 0 7 0 3 0 7 7 7 3 0 4 7 7
split_gain=1.08021e+11 3.41006e+10 6.04506e+09 4.76999e+09 4.60018e+09 9.54875e+08 7.96101e+08 6.53332e+08 4.87871e+08 4.84189e+08 3.02841e+08 2.37675e+08 2.25057e+08 1.94987e+08 1.71905e+08 1.70781e+08 1.25568e+08 1.19478e+08 1.19463e+08
threshold=0.99500000000000011 7.205000000000001 0.60500000000000009 0 7.8550000000000013 1 0.45500000000000007 6.0750000000000011 1.1950000000000001 2 1.5950000000000004 6.7650000000000006 6.8450000000000006 6.6350000000000007 3 1.3950000000000002 62.850000000000001 8.0250000000000004 5.7250000000000005
decision_type=2 2 2 1 2 1 2 2 2 1 2 2 2 2 1 2 2 2 2
left_child=2 3 6 9 10 11 -1 18 14 12 -3 -5 -2 -11 -7 -10 -12 -6 -4
right_child=1 4 7 5 17 8 -8 -9 15 13 16 -13 -14 -15 -16 -17 -18 -19 -20
leaf_value=-62.658823002228424 57.998011968910582 130.37953694494547 -31.3795720182653 42.99767094591526 190.42156726887163 21.124127516073042 -45.376398276066602 0.635928046810606 33.734930887120512 99.158243403776993 167.46938286838483 72.4888884072341 92.66025631824661 133.05779747999154 5.4028300925019481 72.813307346851587 130.51961081304381 224.26134167041107 -20.132208602537776
leaf_weight=4021 269 630 673 447 100 604 1701 629 362 174 210 171 127 166 673 58 76 421 1145
leaf_count=4021 269 630 673 447 100 604 1701 629 362 174 210 171 127 166 673 58 76 421 1145
internal_value=0.024276 83.1723 -45.6606 43.2374 167.886 27.9127 -57.5287 -17.8985 19.4443 89.7553 139.16 50.4306 67.5845 112.691 13.0554 39.2665 158.063 218.084 -24.3085
internal_weight=12657 4488 8169 3051 1437 2315 5722 2447 1697 736 916 618 396 340 1277 420 286 521 1818
internal_count=12657 4488 8169 3051 1437 2315 5722 2447 1697 736 916 618 396 340 1277 420 286 521 1818
cat_boundaries=0 1 2 3 4
cat_threshold=480 16 32 8
is_linear=0
shrinkage=0.0210985


Tree=4
num_leaves=20
num_cat=4
split_feature=0 7 7 3 7 3 7 7 0 3 0 7 6 7 3 0 4 4 7
split_gain=1.03523e+11 3.26795e+10 5.79406e+09 4.57155e+09 4.40878e+09 9.14909e+08 8.50454e+08 5.66867e+08 4.67493e+08 4.64092e+08 2.90547e+08 2.27875e+08 2.1621e+08 1.86893e+08 1.64857e+08 1.63831e+08 1.20167e+08 1.15213e+08 8.35766e+07
threshold=0.99500000000000011 7.205000000000001 5.5450000000000008 0 7.8550000000000013 1 4.995000000000001 6.0750000000000011 1.1950000000000001 2 1.5950000000000004 6.6950000000000012 6.8050000000000006 6.6350000000000007 3 1.3750000000000002 62.850000000000001 63.250000000000007 6.9850000000000012
decision_type=2 2 2 1 2 1 2 2 2 1 2 2 2 2 1 2 2 2 2
left_child=2 3 6 9 10 11 -1 -4 14 12 -3 -5 -2 -11 -7 -10 -12 -6 -13
right_child=1 4 7 5 17 8 -8 -9 15 13 16 18 -14 -15 -16 -17 -18 -19 -20
leaf_value=-61.192013014215888 56.132438846359761 127.63239608918978 -22.872595652296024 40.749139068708054 218.03757487385786 20.686299446988816 -43.575445167916222 0.56271058690832765 32.815536653014398 97.07623285897057 163.9501526671238 59.656388256989032 89.473144496742933 130.26465392906701 5.2906457050320475 70.057934413529424 127.79603380234829 178.04576486273109 91.594731392126917
leaf_weight=4088 259 630 1696 406 458 604 1755 630 358 174 210 159 137 166 673 62 76 63 53
leaf_count=4088 259 630 1696 406 458 604 1755 630 358 174 210 159 137 166 673 62 76 63 53
internal_value=0.0260548 81.4246 -44.6976 42.3307 164.354 27.3281 -55.9078 -16.5272 19.0387 87.8707 136.233 49.3698 66.1652 110.325 12.7847 38.4425 154.746 213.497 67.972
internal_weight=12657 4488 8169 3051 1437 2315 5843 2326 1697 736 916 618 396 340 1277 420 286 521 212
internal_count=12657 4488 8169 3051 1437 2315 5843 2326 1697 736 916 618 396 340 1277 420 286 521 212
cat_boundaries=0 1 2 3 4
cat_threshold=480 16 32 8
is_linear=0
shrinkage=0.0210985


Tree=5
num_leaves=20
num_cat=4
split_feature=0 7 0 7 3 3 0 0 3 0 7 7 7 6 3 4 0 7 7
split_gain=9.89656e+10 3.128e+10 5.5334e+09 4.44057e+09 4.37323e+09 8.51204e+08 7.30837e+08 6.01389e+08 4.71942e+08 4.14809e+08 3.01915e+08 1.90204e+08 1.84473e+08 1.70699e+08 1.58313e+08 1.26471e+08 1.24986e+08 1.03907e+08 1.0057e+08
threshold=0.99500000000000011 7.1850000000000014 0.60500000000000009 7.8550000000000013 0 1 0.45500000000000007 0.85500000000000009 2 1.1950000000000001 7.5950000000000006 6.7650000000000006 6.6350000000000007 6.7250000000000005 3 63.250000000000007 1.3750000000000002 5.7250000000000005 7.2750000000000012
decision_type=2 2 2 2 1 1 2 2 1 2 2 2 2 2 1 2 2 2 2
left_child=2 4 6 10 8 11 -1 17 13 14 18 -6 -10 -2 -7 -5 -11 -4 -3
right_child=1 3 7 15 5 9 -8 -9 12 16 -12 -13 -14 -15 -16 -17 -18 -19 -20
leaf_value=-60.043301819633029 53.466519511915763 106.43458325344179 -30.171967656578548 213.83119017006064 41.155198171125193 20.294817208176354 -43.432270337549312 -0.43026859493624325 95.222499736201755 32.350989103692761 156.46760973936992 67.689447360103486 128.11143385313562 82.794216414367838 5.2596815608404235 173.07508830029369 67.171974632261367 -19.607681239612997 129.48666696847212
leaf_weight=3992 227 132 681 459 453 613 1691 687 177 359 196 168 164 155 673 63 53 1084 613
leaf_count=3992 227 132 681 459 453 613 1691 687 177 359 196 168 164 155 673 63 53 1084 613
internal_value=0.252954 79.577 -43.6788 159.717 41.0012 26.4492 -55.1078 -17.18 86.0371 18.4427 132.106 47.6493 108.153 63.8547 12.6337 209.199 36.9584 -23.6962 125.527
internal_weight=12640 4505 8135 1463 3042 2319 5683 2452 723 1698 941 621 341 382 1286 522 412 1765 745
internal_count=12640 4505 8135 1463 3042 2319 5683 2452 723 1698 941 621 341 382 1286 522 412 1765 745
cat_boundaries=0 1 2 3 4
cat_threshold=480 16 32 8
is_linear=0
shrinkage=0.0210985


Tree=6
num_leaves=20
num_cat=6
split_feature=7 7 0 7 3 7 3 7 3 0 0 7 7 6 3 3 7 8 2
split_gain=9.4873e+10 2.87839e+10 6.25048e+09 4.25582e+09 4.02945e+09 8.44797e+08 7.66108e+08 7.63036e+08 3.99061e+08 3.43599e+08 2.90745e+08 1.67742e+08 1.54138e+08 1.42372e+08 1.34605e+08 1.25603e+08 1.2324e+08 1.22213e+08 1.22022e+08
threshold=6.3250000000000011 7.1850000000000014 0.63500000000000012 7.8550000000000013 0 6.0750000000000011 1 4.995000000000001 2 1.1950000000000001 1.5950000000000004 6.7650000000000006 6.6350000000000007 6.8050000000000006 3 4 8.0250000000000004 4.3950000000000005 5
decision_type=2 2 2 2 1 2 1 2 1 2 2 2 2 2 1 1 2 2 1
left_child=2 4 7 10 8 -4 11 -1 13 14 17 -6 -10 -2 -8 -7 -5 -3 -17
right_child=1 3 5 16 6 15 9 -9 12 -11 -12 -13 -14 -15 -16 18 -18 -19 -20
leaf_value=-58.643023071421574 55.727512113942574 86.078734054618963 -21.958126427404775 177.60269853366117 41.083653042025119 -1.9436526341740812 20.719788187892568 -41.817594308611746 94.399340763809278 35.730893265094622 147.82043246358177 66.268428166237683 125.4222819481478 84.273126344099296 6.1760250642133698 -1.4132632776320992 210.87633251633707 123.79967413063227 27.105950922073724
leaf_weight=4057 240 50 1749 100 424 498 563 1720 162 411 287 168 164 124 620 116 422 604 161
leaf_count=4057 240 50 1749 100 424 498 563 1720 162 411 287 168 164 124 620 116 422 604 161
internal_value=0.249758 80.191 -41.5401 156.357 41.4114 -13.836 26.9225 -53.6404 85.5964 19.0059 129.326 47.5133 107.015 63.8733 13.3346 4.49788 204.799 121.03 15.5595
internal_weight=12640 4339 8301 1463 2876 2524 2186 5777 690 1594 941 592 326 364 1183 775 522 654 277
internal_count=12640 4339 8301 1463 2876 2524 2186 5777 690 1594 941 592 326 364 1183 775 522 654 277
cat_boundaries=0 1 2 3 4 5 6
cat_threshold=480 16 32 8 14 224
is_linear=0
shrinkage=0.0210985


Tree=7
num_leaves=20
num_cat=4
split_feature=0 0 7 7 3 3 0 0 3 0 7 7 7 6 3 7 4 4 8
split_gain=9.09349e+10 2.8728e+10 5.07821e+09 4.32731e+09 4.09971e+09 7.66375e+08 7.49272e+08 4.96985e+08 4.32593e+08 3.36304e+08 2.48127e+08 1.70081e+08 1.6026e+08 1.47162e+08 1.29148e+08 1.26975e+08 1.25454e+08 1.21092e+08 7.83727e+07
threshold=0.99500000000000011 1.405 5.5450000000000008 7.8550000000000013 0 1 0.45500000000000007 0.8650000000000001 2 1.5950000000000004 6.6750000000000007 7.2350000000000012 6.6350000000000007 6.7250000000000005 3 6.6350000000000007 63.350000000000001 63.250000000000007 4.9450000000000012
decision_type=2 2 2 2 1 1 2 2 1 2 2 2 2 2 1 2 2 2 2
left_child=2 4 6 9 8 15 -1 -4 13 11 14 -3 -10 -2 -7 -6 -11 18 -5
right_child=1 3 7 17 5 10 -8 -9 12 16 -12 -13 -14 -15 -16 -17 -18 -19 -20
leaf_value=-57.540567384621596 51.251808591327197 92.307660262270147 -21.790565677587693 181.7271969633795 36.748132724396022 18.11729020209949 -41.14520757288323 -0.36114135144237891 91.383200274036753 152.34233500000761 28.050827039733814 121.72611126349098 122.27313011337333 78.620171405369433 3.541987962518919 56.470057142033554 111.96048831509039 165.43306536589384 211.27647144701089
leaf_weight=3990 227 121 1646 103 360 531 1818 681 177 233 553 581 161 153 576 255 55 63 356
leaf_count=3990 227 121 1646 103 360 531 1818 681 177 233 553 581 161 153 576 255 55 63 356
internal_value=0.24699 76.2845 -41.8646 151.221 38.3962 24.1219 -52.4153 -15.5216 82.0662 125.094 16.4175 116.772 103.315 60.8237 10.7374 44.2727 144.98 200.491 204.991
internal_weight=12640 4505 8135 1512 2993 2275 5808 2327 718 990 1660 702 338 380 1107 615 288 522 459
internal_count=12640 4505 8135 1512 2993 2275 5808 2327 718 990 1660 702 338 380 1107 615 288 522 459
cat_boundaries=0 1 2 3 4
cat_threshold=480 16 32 8
is_linear=0
shrinkage=0.0210985


Tree=8
num_leaves=20
num_cat=5
split_feature=7 7 0 7 3 7 3 7 0 3 7 3 7 6 7 7 2 7 7
split_gain=8.71682e+10 2.6431e+10 5.73551e+09 3.90845e+09 3.70409e+09 7.75323e+08 7.05779e+08 7.00797e+08 4.22405e+08 3.66514e+08 2.74142e+08 1.50779e+08 1.4137e+08 1.31403e+08 1.20832e+08 1.17192e+08 1.13789e+08 1.1155e+08 9.18994e+07
threshold=6.3250000000000011 7.1850000000000014 0.63500000000000012 7.8550000000000013 0 6.0750000000000011 1 4.995000000000001 1.1950000000000001 2 7.5950000000000006 3 6.6350000000000007 6.8050000000000006 7.0750000000000011 8.0250000000000004 4 6.745000000000001 7.2750000000000012
decision_type=2 2 2 2 1 2 1 2 2 1 2 1 2 2 2 2 1 2 2
left_child=2 4 7 10 9 -4 8 -1 11 13 18 -6 -11 -2 -10 -5 -7 -8 -3
right_child=1 3 5 15 6 16 17 -9 14 12 -12 -13 -14 -15 -16 -17 -18 -19 -20
leaf_value=-56.1982826942915 53.422062218046854 99.525198229769316 -21.055559730088991 169.94032153845882 38.3602515303185 9.6181334459284766 5.5003547013284635 -40.073661525932593 49.478048738292195 90.523654493737624 147.13372031244404 19.897313636255454 120.23832765024667 80.843317125488483 83.256932286535303 202.17025258808852 -7.5942000638502085 22.379107829335986 121.46547078009579
leaf_weight=4057 240 132 1749 100 417 534 596 1720 306 162 196 563 164 124 58 422 241 246 613
leaf_count=4057 240 132 1749 100 417 534 596 1720 306 162 196 563 164 124 58 422 241 246 613
internal_value=0.244112 76.8706 -39.8129 149.857 39.7097 -13.2745 25.818 -51.404 35.3629 82.0734 123.953 28.3737 102.604 61.2497 55.0403 196.28 4.28928 10.3266 117.695
internal_weight=12640 4339 8301 1463 2876 2524 2186 5777 1344 690 941 980 326 364 364 522 775 842 745
internal_count=12640 4339 8301 1463 2876 2524 2186 5777 1344 690 941 980 326 364 364 522 775 842 745
cat_boundaries=0 1 2 3 4 5
cat_threshold=480 24 32 16 30
is_linear=0
shrinkage=0.0210985


Tree=9
num_leaves=20
num_cat=5
split_feature=0 0 0 7 3 2 3 0 7 7 0 7 2 0 7 4 3 4 7
split_gain=8.35601e+10 2.63973e+10 4.65962e+09 3.96932e+09 3.77275e+09 8.72151e+08 7.09049e+08 5.85095e+08 5.26208e+08 3.96312e+08 3.11056e+08 2.26925e+08 2.1009e+08 1.97829e+08 1.52428e+08 1.21009e+08 1.19309e+08 1.15948e+08 9.43113e+07
threshold=0.99500000000000011 1.405 0.59500000000000008 7.8550000000000013 0 1 2 0.45500000000000007 6.0050000000000008 6.6550000000000011 1.5950000000000004 6.6750000000000007 3 1.1050000000000002 7.2350000000000012 63.350000000000001 4 63.250000000000007 5.7250000000000005
decision_type=2 2 2 2 1 1 1 2 2 2 2 2 1 2 2 2 1 2 2
left_child=2 4 7 10 5 9 12 -1 18 -2 14 16 13 -6 -3 -12 -8 -5 -4
right_child=1 3 8 17 6 -7 11 -9 -10 -11 15 -13 -14 -15 -16 -17 -18 -19 -20
leaf_value=-55.14192937123962 78.318893365279749 88.738445534065704 -28.337405924806795 196.52380271131517 44.307884244774108 30.374972393364413 17.370285110742209 -40.111011554357745 -1.5329817748394996 115.21205631696843 146.25817223938705 26.834707574619454 23.560102813011561 77.854879795172153 116.63485962167472 106.8189072259391 3.3634962267266415 158.1203656861814 -18.349848911875199
leaf_weight=3992 319 121 733 459 268 166 531 1639 761 233 233 553 233 114 581 55 576 63 1010
leaf_count=3992 319 121 733 459 268 166 531 1639 761 233 233 553 233 114 581 55 576 63 1010
internal_value=0.241642 73.1307 -40.1262 144.963 36.8118 78.704 23.1188 -50.7736 -16.1734 92.3726 119.94 15.7095 42.4993 53.0821 111.939 139.06 10.2775 192.151 -22.5617
internal_weight=12640 4505 8135 1512 2993 718 2275 5631 2504 552 990 1660 615 382 702 288 1107 522 1743
internal_count=12640 4505 8135 1512 2993 718 2275 5631 2504 552 990 1660 615 382 702 288 1107 522 1743
cat_boundaries=0 1 2 3 4 5
cat_threshold=480 30 16 30 8
is_linear=0
shrinkage=0.0210985


Tree=10
num_leaves=20
num_cat=5
split_feature=7 7 0 7 3 7 3 7 3 0 7 7 8 3 7 2 7 4 8
split_gain=8.02777e+10 2.44474e+10 5.28732e+09 3.59733e+09 3.3067e+09 7.04927e+08 6.68446e+08 6.49965e+08 3.54581e+08 2.817e+08 2.43693e+08 1.51516e+08 1.34236e+08 1.13197e+08 1.08942e+08 1.04684e+08 8.74108e+07 8.0708e+07 9.96268e+07
threshold=6.3250000000000011 7.1850000000000014 0.63500000000000012 7.8550000000000013 0 6.0750000000000011 1 4.995000000000001 2 1.1950000000000001 7.5950000000000006 6.6950000000000012 4.205000000000001 3 6.6350000000000007 4 8.0250000000000004 63.250000000000007 4.4350000000000014
decision_type=2 2 2 2 1 2 1 2 1 2 2 2 2 1 2 1 2 2 2
left_child=2 4 7 10 8 -4 11 -1 12 13 17 -6 -2 -8 -10 -7 -5 18 -3
right_child=1 3 5 16 6 15 9 -9 14 -11 -12 -13 -14 -15 -16 -17 -18 -19 -20
leaf_value=-53.865128119456429 50.334939055755981 89.341826038424159 -20.181490588056448 164.62612898441199 36.55819013679541 9.0308348627088844 18.980405313322045 -38.351172441828069 87.738754829957372 32.669058556330526 140.94501069188956 59.037873930535788 77.866138250934227 5.6121406076020985 114.43531546226178 -7.3478948562875672 193.67598533546948 90.30783804427611 118.80910668250931
leaf_weight=4088 245 71 1747 100 382 537 560 1719 159 401 196 212 124 617 160 246 424 80 591
leaf_count=4088 245 71 1747 100 382 537 560 1719 159 401 196 212 124 617 160 246 424 80 591
internal_value=0.0646806 73.8488 -38.1895 144.009 37.9518 -12.7285 24.7604 -49.2789 78.0233 17.2995 119.061 43.9153 58.1701 12.1904 98.3211 3.90411 188.405 113.127 115.766
internal_weight=12659 4322 8337 1462 2860 2530 2172 5807 688 1578 938 594 369 1177 319 783 524 742 662
internal_count=12659 4322 8337 1462 2860 2530 2172 5807 688 1578 938 594 369 1177 319 783 524 742 662
cat_boundaries=0 1 2 3 4 5
cat_threshold=480 16 32 8 30
is_linear=0
shrinkage=0.0210985


Tree=11
num_leaves=20
num_cat=5
split_feature=7 7 0 7 3 0 3 7 3 0 7 7 8 3 7 2 7 4 8
split_gain=7.69353e+10 2.34288e+10 5.06664e+09 3.44752e+09 3.16921e+09 6.79439e+08 6.40473e+08 6.22814e+08 3.39869e+08 2.69848e+08 2.33621e+08 1.45233e+08 1.28705e+08 1.08563e+08 1.04416e+08 9.85897e+07 8.35348e+07 7.722e+07 9.53108e+07
threshold=6.3250000000000011 7.1850000000000014 0.63500000000000012 7.8550000000000013 0 0.89500000000000013 1 4.995000000000001 2 1.1950000000000001 7.5950000000000006 6.6950000000000012 4.205000000000001 3 6.6350000000000007 4 8.0250000000000004 63.250000000000007 4.4350000000000014
decision_type=2 2 2 2 1 2 1 2 1 2 2 2 2 1 2 1 2 2 2
left_child=2 4 7 10 8 -4 11 -1 12 13 17 -6 -2 -8 -10 -7 -5 18 -3
right_child=1 3 5 16 6 15 9 -9 14 -11 -12 -13 -14 -15 -16 -17 -18 -19 -20
leaf_value=-52.728890535563963 49.276585883850373 87.478950084135491 -20.172090289123346 161.18178145781246 35.788563966866498 7.9520359394153335 18.58755347493204 -37.542414715658538 85.897353976457353 31.981234088374663 137.98400700508489 57.797193720101369 76.234364477466329 5.4957775555384734 112.03354419763244 -7.2741051445030775 189.59781383995988 88.422332513963966 116.30597902308055
leaf_weight=4088 245 71 1689 100 382 569 560 1719 159 401 196 212 124 617 160 272 424 80 591
leaf_count=4088 245 71 1689 100 382 569 560 1719 159 401 196 212 124 617 160 272 424 80 591
internal_value=0.0653966 72.2972 -37.3839 140.98 37.1559 -12.4599 24.2416 -48.2395 76.3855 16.9384 116.557 42.9915 56.9488 11.938 96.2575 3.03321 184.442 110.747 113.329
internal_weight=12659 4322 8337 1462 2860 2530 2172 5807 688 1578 938 594 369 1177 319 841 524 742 662
internal_count=12659 4322 8337 1462 2860 2530 2172 5807 688 1578 938 594 369 1177 319 841 524 742 662
cat_boundaries=0 1 2 3 4 5
cat_threshold=480 16 32 8 30
is_linear=0
shrinkage=0.0210985


Tree=12
num_leaves=20
num_cat=5
split_feature=7 7 0 7 3 0 3 0 3 7 7 0 8 3 7 2 8 7 7
split_gain=7.37321e+10 2.24527e+10 4.85516e+09 3.30395e+09 3.03744e+09 6.51094e+08 6.1367e+08 5.97097e+08 3.25768e+08 2.60301e+08 2.23965e+08 1.39858e+08 1.23401e+08 1.13102e+08 1.00079e+08 9.45882e+07 8.64093e+07 7.98301e+07 7.44618e+07
threshold=6.3250000000000011 7.1850000000000014 0.63500000000000012 7.8550000000000013 0 0.89500000000000013 1 0.48500000000000004 2 6.785000000000001 7.5950000000000006 1.175 4.205000000000001 3 6.6350000000000007 4 4.3050000000000006 8.0250000000000004 7.3550000000000013
decision_type=2 2 2 2 1 2 1 2 1 2 2 2 2 1 2 1 2 2 2
left_child=2 4 7 10 8 -4 11 -1 12 13 18 -6 -2 -8 -10 -7 -11 -5 -3
right_child=1 3 5 17 6 15 9 -9 14 16 -12 -13 -14 -15 -16 -17 -18 -19 -20
leaf_value=-51.575926571924306 48.240487202089447 99.242708876244819 -19.746701122169821 157.80949699223575 35.710723021579902 7.7873969373066547 18.584987664852175 -36.647812391384392 84.094599536338549 24.856158301189318 135.08520975894763 57.983517875751019 74.636786592397542 5.4058046835946474 109.68218739490344 -7.1265155492070091 46.710990047981689 185.60551591858729 114.68860893476497
leaf_weight=4111 245 307 1689 100 407 569 578 1696 159 249 196 187 124 629 160 272 122 424 435
leaf_count=4111 245 307 1689 100 407 569 578 1696 159 249 196 187 124 629 160 272 122 424 435
internal_value=0.0660374 70.7781 -36.5954 138.015 36.3766 -12.1971 23.7337 -47.222 74.7821 16.5849 114.106 42.0872 55.7532 11.9242 94.2373 2.9694 32.1325 180.563 108.418
internal_weight=12659 4322 8337 1462 2860 2530 2172 5807 688 1578 938 594 369 1207 319 841 371 524 742
internal_count=12659 4322 8337 1462 2860 2530 2172 5807 688 1578 938 594 369 1207 319 841 371 524 742
cat_boundaries=0 1 2 3 4 5
cat_threshold=480 16 32 8 30
is_linear=0
shrinkage=0.0210985


Tree=13
num_leaves=20
num_cat=6
split_feature=0 0 7 7 3 2 3 6 7 7 7 2 7 7 7 4 3 4 3
split_gain=7.06895e+10 2.24708e+10 3.95416e+09 3.34658e+09 3.12435e+09 8.40907e+08 6.07039e+08 5.84532e+08 3.78468e+08 3.46788e+08 2.2393e+08 2.17858e+08 1.90219e+08 1.82695e+08 1.33867e+08 1.14082e+08 9.71965e+07 7.24478e+07 7.05042e+07
threshold=0.99500000000000011 1.405 5.5450000000000008 7.8050000000000006 0 1 2 4.9150000000000009 6.0050000000000008 6.7150000000000007 7.3550000000000013 3 6.6750000000000007 6.7650000000000006 8.0250000000000004 59.45000000000001 4 63.850000000000001 5
decision_type=2 2 2 2 1 1 1 2 2 2 2 1 2 2 2 2 1 2 1
left_child=2 4 7 10 5 9 11 -1 -4 -2 17 13 16 -6 -5 -12 -8 -3 -14
right_child=1 3 8 14 6 -7 12 -9 -10 -11 15 -13 18 -15 -16 -17 -18 -19 -20
leaf_value=-50.716107895758554 74.316148247358925 99.685725250240907 -19.618975738631395 152.21770703614399 43.967434104380352 25.479339721643438 15.760599625469704 -36.329750308153756 -1.54918205654838 110.28845554744341 90.111144423707344 20.354969278409282 33.096543996933811 82.603120718880092 181.6972783073827 121.33203776565345 3.0924701972365307 69.425943552749587 15.537982533248988
leaf_weight=3986 355 306 1560 127 318 166 531 1854 771 190 72 233 253 67 424 531 572 50 293
leaf_count=3986 355 306 1560 127 318 166 531 1854 771 190 72 233 253 67 424 531 572 50 293
internal_value=0.0665869 67.3323 -36.8829 133.61 33.6977 72.0357 21.2402 -46.1548 -13.6449 85.4425 109.613 39.0974 14.3361 49.572 175.145 117.735 9.36928 95.6098 24.602
internal_weight=12659 4488 8171 1510 2978 711 2267 5840 2331 545 959 618 1649 385 551 603 1103 356 546
internal_count=12659 4488 8171 1510 2978 711 2267 5840 2331 545 959 618 1649 385 551 603 1103 356 546
cat_boundaries=0 1 2 3 4 5 6
cat_threshold=480 30 16 30 8 8
is_linear=0
shrinkage=0.0210985


Tree=14
num_leaves=20
num_cat=5
split_feature=0 0 7 7 3 2 3 6 7 7 7 2 7 7 4 4 3 8 7
split_gain=6.77515e+10 2.15317e+10 3.78909e+09 3.20722e+09 2.99421e+09 8.04757e+08 5.81759e+08 5.60117e+08 3.63927e+08 3.32436e+08 2.14529e+08 2.08463e+08 1.83723e+08 1.75248e+08 1.30617e+08 1.09158e+08 1.03905e+08 8.84947e+07 7.069e+07
threshold=0.99500000000000011 1.405 5.5450000000000008 7.8050000000000006 0 1 2 4.9150000000000009 6.0750000000000011 6.7150000000000007 7.3550000000000013 3 6.7150000000000007 6.7650000000000006 63.550000000000004 59.45000000000001 4 4.9450000000000012 7.5650000000000004
decision_type=2 2 2 2 1 1 1 2 2 2 2 1 2 2 2 2 1 2 2
left_child=2 4 7 10 5 9 11 -1 -4 -2 -3 13 16 -6 17 -12 -8 -5 -17
right_child=1 3 8 14 6 -7 12 -9 -10 -11 15 -13 -14 -15 -16 18 -18 -19 -20
leaf_value=-49.646300102792814 72.751900432145987 93.6009560619909 -18.456112278951224 154.51999883169779 43.042237317455211 24.974723009190889 16.124945540214679 -35.563594745823991 0.26760814896838392 107.97180604968331 88.231921443702689 19.944605481657533 25.598017052724856 80.88195952991623 134.30369872389048 112.17568102248538 3.5429738710957754 181.36520921994347 131.27568529191649
leaf_weight=3986 355 356 1696 118 318 166 579 1854 635 190 72 233 451 67 54 353 619 379 178
leaf_count=3986 355 356 1696 118 318 166 579 1854 635 190 72 233 451 67 54 353 619 379 178
internal_value=0.0685179 65.9215 -36.1049 130.8 32.9973 70.5285 20.8018 -45.1813 -13.3572 83.6457 107.307 38.2835 14.0429 48.5318 171.461 115.257 9.79504 175.264 118.776
internal_weight=12659 4488 8171 1510 2978 711 2267 5840 2331 545 959 618 1649 385 551 603 1198 497 531
internal_count=12659 4488 8171 1510 2978 711 2267 5840 2331 545 959 618 1649 385 551 603 1198 497 531
cat_boundaries=0 1 2 3 4 5
cat_threshold=480 30 16 30 8
is_linear=0
shrinkage=0.0210985


Tree=15
num_leaves=20
num_cat=7
split_feature=7 7 0 6 3 2 7 3 0 7 0 2 2 4 7 0 2 3 8
split_gain=6.48545e+10 1.97557e+10 4.26755e+09 2.83578e+09 2.72775e+09 7.37483e+08 5.66638e+08 5.32288e+08 5.24369e+08 3.37758e+08 3.30525e+08 2.22639e+08 1.86874e+08 1.83355e+08 1.77522e+08 9.56489e+07 9.06597e+07 8.98674e+07 8.06783e+07
threshold=6.3250000000000011 7.1850000000000014 0.63500000000000012 7.7950000000000008 0 1 6.0750000000000011 2 0.45500000000000007 6.7650000000000006 1.1950000000000001 3 4 63.650000000000013 7.5250000000000012 1.2950000000000002 5 6 4.9450000000000012
decision_type=2 2 2 2 1 1 2 1 2 2 2 1 1 2 2 2 1 1 2
left_child=2 4 8 14 5 9 -4 10 -1 -2 12 -12 17 18 -3 -13 -8 -6 -5
right_child=1 3 6 13 7 -7 16 -9 -10 -11 11 15 -14 -15 -16 -17 -18 -19 -20
leaf_value=-48.554630062351521 73.258466083901766 100.09556837786076 -18.136603631527166 151.96485431520978 41.133964084434929 26.163236748209926 8.2390529331117008 8.6673667909118546 -34.758952191491232 110.28891416588434 19.620950224202833 54.380458778695427 11.239798760786961 126.02824292280056 122.58571458067802 86.821135204788561 -7.0811437763751011 21.500506407413159 177.34931094270092
leaf_weight=4020 360 654 1749 124 290 163 537 832 1782 166 128 176 365 56 238 57 242 318 381
leaf_count=4020 360 654 1749 124 290 163 537 832 1782 166 128 176 365 56 238 57 242 318 381
internal_value=0.0149621 66.4685 -34.3559 129.781 34.2182 70.5644 -11.4728 22.2055 -44.3232 83.5174 30.5111 47.9849 24.3053 167.049 106.206 60.0336 3.49208 31.4218 171.38
internal_weight=12638 4308 8330 1453 2855 689 2528 2166 5802 526 1334 361 973 561 892 233 779 608 505
internal_count=12638 4308 8330 1453 2855 689 2528 2166 5802 526 1334 361 973 561 892 233 779 608 505
cat_boundaries=0 1 2 3 4 5 6 7
cat_threshold=480 30 24 192 30 30 16
is_linear=0
shrinkage=0.0210985


Tree=16
num_leaves=20
num_cat=5
split_feature=0 0 0 6 3 2 3 0 7 7 4 8 2 4 7 7 3 8 6
split_gain=6.21829e+10 1.97244e+10 3.47502e+09 2.89148e+09 2.79439e+09 7.31612e+08 5.26923e+08 4.3667e+08 3.8745e+08 3.12071e+08 2.48066e+08 2.4139e+08 1.9248e+08 1.75407e+08 1.70349e+08 1.68292e+08 9.53957e+07 7.71617e+07 7.01765e+07
threshold=0.99500000000000011 1.405 0.59500000000000008 7.7950000000000008 0 1 2 0.45500000000000007 5.9450000000000012 6.7150000000000007 63.250000000000007 4.6650000000000009 3 63.650000000000013 6.7150000000000007 6.7650000000000006 4 4.9450000000000012 6.705000000000001
decision_type=2 2 2 2 1 1 1 2 2 2 2 2 1 2 2 2 1 2 2
left_child=2 4 7 10 5 9 12 -1 -4 -2 11 -3 15 17 16 -6 -8 -5 -7
right_child=1 3 8 13 6 18 14 -9 -10 -11 -12 -13 -14 -15 -16 -17 -18 -19 -20
leaf_value=-47.530413015902965 69.769867429736934 101.2720100767764 -20.170280356509647 148.7802583081843 41.080095713921274 9.7436651737537439 15.392647106309038 -34.558575653921849 -2.9014748254801201 103.76746989812555 75.701613434709188 131.66357594454459 18.811053561809018 123.40864310683972 24.444507769523568 78.387898190989745 3.2866127691552207 173.61575771507279 37.507205182707899
leaf_weight=4020 355 645 1600 124 316 70 574 1639 906 192 139 157 228 56 459 66 613 381 98
leaf_count=4020 355 645 1600 124 316 70 574 1639 906 192 139 157 228 56 459 66 613 381 98
internal_value=0.0182584 63.2419 -34.6203 125.534 31.7235 67.8322 19.8698 -43.7791 -13.9301 80.3773 102.75 107.353 36.6413 163.538 13.4553 46.4705 9.30479 167.776 24.5892
internal_weight=12638 4473 8165 1502 2971 715 2256 5659 2506 547 941 802 610 561 1646 382 1187 505 168
internal_count=12638 4473 8165 1502 2971 715 2256 5659 2506 547 941 802 610 561 1646 382 1187 505 168
cat_boundaries=0 1 2 3 4 5
cat_threshold=480 30 16 30 8
is_linear=0
shrinkage=0.0210985


Tree=17
num_leaves=20
num_cat=8
split_feature=7 7 0 7 3 2 0 3 0 7 0 7 2 2 0 2 3 2 4
split_gain=5.95981e+10 1.81405e+10 3.91651e+09 2.60456e+09 2.50619e+09 6.77711e+08 5.20954e+08 4.95307e+08 4.81915e+08 3.12726e+08 3.09219e+08 2.68029e+08 2.10448e+08 1.75562e+08 8.97384e+07 8.47468e+07 8.07286e+07 7.33719e+07 6.86284e+07
threshold=6.3250000000000011 7.1850000000000014 0.63500000000000012 7.9050000000000011 0 1 0.89500000000000013 2 0.48500000000000004 6.785000000000001 1.1950000000000001 7.5950000000000006 3 4 1.2950000000000002 5 6 7 63.250000000000007
decision_type=2 2 2 2 1 1 2 1 2 2 2 2 1 1 2 1 1 1 2
left_child=2 4 8 11 5 9 17 10 -1 -2 13 18 -12 16 -14 -8 -6 -4 -3
right_child=1 3 6 -5 7 -7 15 -9 -10 -11 12 -13 14 -15 -16 -17 -18 -19 -20
leaf_value=-46.38948203306947 70.643695749271771 99.881718660275808 -13.226996976737958 163.61855980995378 39.450205723663714 25.092738361902779 -12.842825287723468 8.2490549669703928 -32.971120407616205 106.82379889725948 18.73581711760021 125.05398243991201 52.428377031120306 10.669352856611942 83.84156791661114 5.4082218741626606 20.751448000404697 -22.842197952082355 76.99249156628251
leaf_weight=4108 369 656 936 498 290 163 124 832 1694 157 128 217 176 365 57 713 318 755 82
leaf_count=4108 369 656 936 498 290 163 124 832 1694 157 128 217 176 365 57 713 318 755 82
internal_value=0.0199785 63.7236 -32.9285 124.392 32.8198 67.6589 -11.0068 21.3049 -42.4771 80.0764 29.3156 103.811 46.215 23.3121 57.9111 2.60541 30.2052 -17.7424 97.4292
internal_weight=12638 4308 8330 1453 2855 689 2528 2166 5802 526 1334 955 361 973 233 837 608 1691 738
internal_count=12638 4308 8330 1453 2855 689 2528 2166 5802 526 1334 955 361 973 233 837 608 1691 738
cat_boundaries=0 1 2 3 4 5 6 7 8
cat_threshold=480 30 24 192 30 192 16 14
is_linear=0
shrinkage=0.0210985


Tree=18
num_leaves=20
num_cat=6
split_feature=0 0 0 6 3 2 2 3 6 7 7 2 7 4 0 7 4 8 3
split_gain=5.71462e+10 1.8125e+10 3.18663e+09 2.65277e+09 2.57151e+09 1.34911e+09 6.72857e+08 4.88088e+08 4.01634e+08 3.55374e+08 2.86384e+08 1.79179e+08 1.72207e+08 1.66889e+08 1.59865e+08 1.58312e+08 1.52689e+08 2.36454e+08 8.90765e+07
threshold=0.99500000000000011 1.405 0.59500000000000008 7.7950000000000008 0 1 2 3 4.9150000000000009 5.9450000000000012 6.7150000000000007 4 7.6350000000000007 63.650000000000013 1.1050000000000002 6.7150000000000007 62.850000000000001 4.6350000000000007 5
decision_type=2 2 2 2 1 1 1 1 2 2 2 1 2 2 2 2 2 2 1
left_child=2 4 8 5 6 16 10 11 -1 -4 -2 14 -7 -5 -6 18 17 -3 -9
right_child=1 3 9 13 7 12 -8 15 -10 -11 -12 -13 -14 -15 -16 -17 -18 -19 -20
leaf_value=-45.609635744010852 66.926532677696869 124.4582552082525 -19.347334871409011 160.86663121249691 36.659962377117751 63.275980910124204 23.585106855366917 14.754122517626447 -33.250160688859651 -2.8087447395577434 99.496415555359803 18.005223046083263 100.10588686401 117.75746410652253 66.690883690841588 23.467307504048925 101.87064397713216 167.81038124713436 3.0620849694503018
leaf_weight=3983 355 294 1600 505 267 399 168 574 1676 906 192 228 69 56 115 459 98 81 613
leaf_count=3983 355 294 1600 505 267 399 168 574 1676 906 192 228 69 56 115 459 98 81 613
internal_value=0.0219792 60.6311 -33.1841 120.344 30.4175 98.5206 65.0561 19.0466 -41.9547 -13.3711 77.0871 35.1864 67.4378 156.746 44.661 12.8741 125.038 134.178 8.87249
internal_weight=12638 4473 8165 1502 2971 941 715 2256 5659 2506 547 610 468 561 382 1646 473 375 1187
internal_count=12638 4473 8165 1502 2971 941 715 2256 5659 2506 547 610 468 561 382 1646 473 375 1187
cat_boundaries=0 1 2 3 4 5 6
cat_threshold=480 30 30 16 30 8
is_linear=0
shrinkage=0.0210985


Tree=19
num_leaves=20
num_cat=8
split_feature=7 7 0 7 3 2 7 3 0 7 7 7 2 2 2 3 2 0 7
split_gain=5.47707e+10 1.66603e+10 3.59328e+09 2.39459e+09 2.30369e+09 6.21097e+08 4.80934e+08 4.60843e+08 4.42506e+08 2.9189e+08 2.89155e+08 2.4438e+08 1.96957e+08 1.73849e+08 8.29217e+07 7.59786e+07 7.29881e+07 7.2628e+07 7.03599e+07
threshold=6.3250000000000011 7.1850000000000014 0.63500000000000012 7.9050000000000011 0 1 6.0750000000000011 2 0.48500000000000004 6.7750000000000012 6.785000000000001 7.5950000000000006 3 4 5 6 7 1.2950000000000002 5.745000000000001
decision_type=2 2 2 2 1 1 2 1 2 2 2 2 1 1 1 1 1 2 2
left_child=2 4 8 11 5 10 18 9 -1 13 16 -3 -11 15 -8 -6 -2 -14 -4
right_child=1 3 6 -5 7 -7 14 -9 -10 12 -12 -13 17 -15 -16 -17 -18 -19 -20
leaf_value=-44.456959624851407 44.275451205632955 93.404321042010878 -21.935153075464832 156.84596184794327 38.216495886298034 24.112084508607651 7.7645035260638195 7.8468566424114785 -31.598933076752544 18.010276637447785 102.48302249140836 119.78934080031298 51.961330901348965 10.312481877972839 -6.8842258327091539 20.255926985706743 79.967158697437142 80.858599054424758 -13.25534744618705
leaf_weight=4108 163 738 693 498 300 163 537 832 1694 121 157 217 157 377 242 322 206 57 1056
leaf_count=4108 163 738 693 498 300 163 537 832 1694 121 157 217 157 377 242 322 206 57 1056
internal_value=0.0240374 61.0932 -31.5619 119.234 31.477 64.8791 -10.5642 20.437 -40.708 28.1627 76.7701 99.5 45.4181 22.6246 3.22255 29.425 67.6971 57.2792 -16.7034
internal_weight=12638 4308 8330 1453 2855 689 2528 2166 5802 1334 526 955 335 999 779 622 369 214 1749
internal_count=12638 4308 8330 1453 2855 689 2528 2166 5802 1334 526 955 335 999 779 622 369 214 1749
cat_boundaries=0 1 2 3 4 5 6 7 8
cat_threshold=480 30 24 192 30 30 16 16
is_linear=0
shrinkage=0.0210985


Tree=20
num_leaves=20
num_cat=9
split_feature=7 0 6 7 3 3 2 2 7 7 3 3 6 2 6 2 0 7 3
split_gain=5.23465e+10 1.54891e+10 3.66463e+09 2.43481e+09 2.19487e+09 1.53753e+09 8.06493e+08 5.68316e+08 5.05175e+08 4.58326e+08 4.02959e+08 2.87246e+08 1.7252e+08 1.5923e+08 1.58009e+08 1.3895e+08 1.46273e+08 1.38284e+08 1.29282e+08
threshold=6.3450000000000006 1.405 5.5950000000000006 7.9050000000000011 0 1 2 3 6.0750000000000011 4.995000000000001 4 5 6.7350000000000012 6 7.6250000000000009 7 1.155 6.7650000000000006 8
decision_type=2 2 2 2 1 1 1 1 2 2 1 1 2 1 2 1 2 2 1
left_child=2 4 9 5 7 11 -7 12 -4 -1 13 14 -2 17 -3 16 -9 -6 -12
right_child=1 3 8 -5 10 6 -8 15 -10 -11 18 -13 -14 -15 -16 -17 -18 -19 -20
leaf_value=-43.563952264476498 81.155033684055141 79.765909043387097 -15.964787379714581 153.57055101910044 38.932391173116756 69.477679776691616 150.25127251828377 44.503557434238374 3.9865364054371004 -30.740882604775436 20.213007014205257 45.16833486521179 119.79348460135471 18.381210659890861 121.52381885049711 24.003877483665093 78.67910872101163 73.115048012095329 7.4693474559973909
leaf_weight=4058 190 241 1659 493 285 148 306 145 856 1803 707 256 79 226 53 156 96 66 788
leaf_count=4058 190 241 1659 493 285 148 306 145 856 1803 707 256 79 226 53 156 96 66 788
internal_value=0.0814788 60.5267 -30.4833 115.078 30.6747 96.0636 126.155 63.7776 -9.17513 -39.6242 19.6106 67.5534 89.5234 34.6508 84.7452 44.4164 56.0271 44.2616 13.5981
internal_weight=12611 4235 8376 1497 2738 1004 454 666 2515 5861 2072 550 269 577 294 397 241 351 1495
internal_count=12611 4235 8376 1497 2738 1004 454 666 2515 5861 2072 550 269 577 294 397 241 351 1495
cat_boundaries=0 1 2 3 4 5 6 7 8 9
cat_threshold=480 14 192 14 16 8 30 16 8
is_linear=0
shrinkage=0.0210985


Tree=21
num_leaves=20
num_cat=5
split_feature=7 7 6 7 3 2 7 3 7 7 7 7 2 8 2 4 4 7 0
split_gain=5.01853e+10 1.48657e+10 3.51165e+09 2.13049e+09 2.09302e+09 5.57399e+08 4.84096e+08 4.43482e+08 4.39275e+08 3.14179e+08 2.84872e+08 2.10655e+08 2.01086e+08 1.33282e+08 9.97117e+07 7.73467e+07 7.71599e+07 8.9633e+07 7.54265e+07
threshold=6.3450000000000006 7.205000000000001 5.5950000000000006 7.9050000000000011 0 1 6.0750000000000011 2 5.035000000000001 6.9050000000000011 6.7150000000000007 7.5950000000000006 3 4.1150000000000011 4 63.45000000000001 59.650000000000013 7.3650000000000011 1.3550000000000002
decision_type=2 2 2 2 1 1 2 1 2 2 2 2 1 2 1 2 2 2 2
left_child=2 4 8 11 5 10 -4 9 -1 12 -2 15 13 -6 -8 16 -3 -18 -11
right_child=1 3 6 -5 7 -7 14 -9 -10 18 -12 -13 -14 -15 -16 -17 17 -19 -20
leaf_value=-42.552865428042473 63.34715176817803 68.452114150275378 -15.6281250357352 150.33596678032112 26.947799941728729 24.205997152233046 8.653830464358208 7.9524049898042568 -29.878345376457546 44.910414896319239 96.087519943540116 114.63953015738508 12.51048006126034 49.932605726317675 -6.7032165039801539 62.713203539759519 84.583814727618929 102.47114328077967 75.917620486226667
leaf_weight=4118 318 67 1659 493 520 162 590 814 1743 134 199 217 467 145 266 51 269 328 51
leaf_count=4118 318 67 1659 493 520 162 590 814 1743 134 199 217 467 145 266 51 269 328 51
internal_value=0.0868292 59.2711 -29.8404 114.762 31.1049 63.1796 -8.98163 20.4717 -38.7884 28.0813 74.6438 95.8252 24.0951 31.5427 3.90251 89.9868 91.9995 94.5419 53.7639
internal_weight=12611 4235 8376 1425 2810 679 2515 2131 5861 1317 517 932 1132 665 856 715 664 597 185
internal_count=12611 4235 8376 1425 2810 679 2515 2131 5861 1317 517 932 1132 665 856 715 664 597 185
cat_boundaries=0 1 2 3 4 5
cat_threshold=480 30 24 30 30
is_linear=0
shrinkage=0.0210985


Tree=22
num_leaves=20
num_cat=8
split_feature=7 0 0 7 3 3 2 2 0 6 3 7 3 6 2 7 8 2 0
split_gain=4.80971e+10 1.42506e+10 3.36673e+09 2.23159e+09 2.01658e+09 1.32657e+09 7.83725e+08 5.40495e+08 4.92685e+08 3.87857e+08 3.76898e+08 2.6347e+08 2.42457e+08 1.60297e+08 1.50116e+08 1.29808e+08 1.26745e+08 1.22806e+08 1.35413e+08
threshold=6.3450000000000006 1.405 0.63500000000000012 7.6650000000000009 0 1 2 3 0.89500000000000013 4.9150000000000009 4 8.0250000000000004 5 6.7350000000000012 6 6.7650000000000006 4.1450000000000005 7 1.155
decision_type=2 2 2 2 1 1 1 1 2 2 1 2 1 2 1 2 2 1 2
left_child=2 4 9 5 7 12 -7 13 -4 -1 14 -5 -3 -2 15 -6 -12 18 -9
right_child=1 3 8 11 10 6 -8 17 -10 -11 16 -13 -14 -15 -16 -17 -18 -19 -20
leaf_value=-41.905227332807179 78.06541765114325 75.246754625214322 -16.025946736922897 120.30261073419032 37.473562815663541 58.04880738112962 141.64872466623737 42.198583516073455 3.2089035564602493 -30.097990171425767 8.9489997649822559 150.75500685574914 36.582715753368639 115.30408236892254 17.574547703139554 70.586984580277147 22.258243178755432 23.029915763906427 75.06555620564518
leaf_weight=3954 190 258 1688 220 285 124 270 145 913 1821 1034 416 209 79 226 66 461 156 96
leaf_count=3954 190 258 1688 220 285 124 270 145 913 1821 1034 416 209 79 226 66 461 156 96
internal_value=0.0870439 58.027 -29.2109 110.352 29.3933 88.0444 117.597 61.1231 -9.27529 -38.1871 18.7882 140.394 59.1659 86.1355 33.329 42.6422 12.9765 42.3357 53.3028
internal_weight=12611 4235 8376 1497 2738 861 394 666 2601 5775 2072 636 467 269 577 351 1495 397 241
internal_count=12611 4235 8376 1497 2738 861 394 666 2601 5775 2072 636 467 269 577 351 1495 397 241
cat_boundaries=0 1 2 3 4 5 6 7 8
cat_threshold=480 14 192 14 16 8 30 16
is_linear=0
shrinkage=0.0210985


Tree=23
num_leaves=20
num_cat=7
split_feature=0 0 7 7 3 3 3 2 2 7 6 3 6 0 7 0 7 2 7
split_gain=4.61306e+10 1.45676e+10 2.56155e+09 2.12701e+09 2.08763e+09 1.41695e+09 8.04107e+08 7.54789e+08 3.57672e+08 3.39793e+08 3.15718e+08 2.82903e+08 2.56087e+08 1.58847e+08 1.40489e+08 9.80154e+07 9.50537e+07 9.14089e+07 8.35482e+07
threshold=0.99500000000000011 1.405 5.3350000000000009 7.9050000000000011 0 1 2 3 4 5.9450000000000012 6.7550000000000008 5 4.7150000000000007 1.6150000000000004 6.6750000000000007 1.5750000000000004 6.8350000000000009 6 6.6350000000000007
decision_type=2 2 2 2 1 1 1 1 1 2 2 1 2 2 2 2 2 1 2
left_child=2 4 12 5 17 11 8 15 10 -4 -6 13 -1 -3 -8 -7 -10 -2 -19
right_child=1 3 9 -5 6 7 14 -9 16 -11 -12 -13 -14 -15 -16 -17 -18 18 -20
leaf_value=-42.215390646896815 51.265103057198289 72.950304993162447 -18.444199431794445 144.09441102295477 38.269758393398121 55.721642830943956 7.3073258647908252 142.13813095286645 9.7326048234301563 -2.6479587625603798 73.938864377040275 41.514510514010929 -32.856569267724439 109.9067016425053 20.363284671611368 93.057358257171003 31.921441817616241 85.345441230003203 117.43997647426947
leaf_weight=3123 154 221 1833 493 491 96 1092 307 226 906 144 256 2272 74 553 52 139 103 76
leaf_count=3123 154 221 1833 493 491 96 1092 307 226 906 144 256 2272 74 553 52 139 103 76
internal_value=0.0924915 54.4779 -29.8441 108.103 27.4621 90.36 20.8852 119.12 35.8156 -13.2216 45.7266 63.1619 -38.2799 79.8097 11.6339 64.9299 17.7515 76.5978 94.2196
internal_weight=12611 4477 8134 1499 2978 1006 2645 455 1000 2739 635 551 5395 295 1645 148 365 333 179
internal_count=12611 4477 8134 1499 2978 1006 2645 455 1000 2739 635 551 5395 295 1645 148 365 333 179
cat_boundaries=0 1 2 3 4 5 6 7
cat_threshold=448 14 48 192 30 8 112
is_linear=0
shrinkage=0.0210985


Tree=24
num_leaves=20
num_cat=6
split_feature=7 7 7 7 3 2 2 7 0 3 7 7 7 2 8 4 8 2 0
split_gain=4.42314e+10 1.29157e+10 3.26212e+09 1.86466e+09 1.80225e+09 1.07147e+09 4.82872e+08 4.61128e+08 4.0364e+08 3.88613e+08 2.78568e+08 2.55275e+08 2.22855e+08 1.809e+08 1.23937e+08 1.48315e+08 1.17022e+08 1.08554e+08 1.02284e+08
threshold=6.3550000000000013 7.205000000000001 5.6050000000000013 7.9050000000000011 0 1 2 6.0950000000000006 0.48500000000000004 3 6.9050000000000011 6.7150000000000007 7.6350000000000007 4 4.495000000000001 62.850000000000001 4.1150000000000011 5 1.635
decision_type=2 2 2 2 1 1 1 2 2 1 2 2 2 1 2 2 2 1 2
left_child=2 4 8 5 6 14 11 -4 -1 10 13 -2 -7 16 -3 18 -6 -9 -16
right_child=1 3 7 -5 9 12 -8 17 -10 -11 -12 -13 -14 -15 15 -17 -18 -19 -20
leaf_value=-39.993841981048277 59.320883775325619 92.757409862308478 -14.091104903082527 141.05941846062643 25.59787237263717 55.991190549725509 22.858287975354731 9.8219333728348754 -28.028092205994326 7.6000486483036793 50.832162441254916 90.440648453504977 91.6840066517926 11.825437039664029 121.41786886588508 94.454464238265999 47.244337985480513 -6.3285725039037999 154.50229330976805
leaf_weight=4078 311 92 1673 493 498 371 160 595 1828 793 185 199 102 461 217 78 145 260 72
leaf_count=4078 311 92 1673 493 498 371 160 595 1828 793 185 199 102 461 217 78 145 260 72
internal_value=0.0958782 56.2363 -27.7109 107.777 29.5234 90.0604 59.4526 -7.65164 -36.2948 19.4928 26.6849 70.2183 62.5181 22.8443 114.428 122.746 30.0677 4.95007 130.086
internal_weight=12611 4177 8434 1425 2752 932 670 2528 5906 2082 1289 510 473 1104 459 367 643 855 289
internal_count=12611 4177 8434 1425 2752 932 670 2528 5906 2082 1289 510 473 1104 459 367 643 855 289
cat_boundaries=0 1 2 3 4 5 6
cat_threshold=480 30 30 24 30 30
is_linear=0
shrinkage=0.0210985


Tree=25
num_leaves=20
num_cat=9
split_feature=0 0 0 6 3 3 2 3 2 0 7 3 7 2 4 3 0 7 2
split_gain=4.25322e+10 1.33869e+10 2.34878e+09 1.99331e+09 1.95116e+09 1.35074e+09 7.68939e+08 7.54126e+08 3.37272e+08 2.98041e+08 2.87981e+08 2.86188e+08 2.56497e+08 1.79473e+08 1.60119e+08 1.29966e+08 8.91305e+07 8.78005e+07 7.42543e+07
threshold=0.99500000000000011 1.405 0.59500000000000008 7.7950000000000008 0 1 2 3 4 0.44500000000000006 6.7750000000000012 5 5.9450000000000012 6 63.750000000000007 7 1.1450000000000002 6.8350000000000009 8
decision_type=2 2 2 2 1 1 1 1 1 2 2 1 2 1 2 1 2 2 1
left_child=2 4 9 5 13 11 -7 8 10 -1 -6 18 -4 -2 -5 16 -9 -10 -3
right_child=1 3 12 14 7 6 -8 15 17 -11 -12 -13 -14 -15 -16 -17 -18 -19 -20
leaf_value=-39.301596261689483 94.133727703317035 92.968062073918773 -16.679740809359508 138.83791206687326 37.099736666065716 58.875033891339697 135.91709098891775 13.145750717172525 9.2902148558506017 -28.656368634920621 71.762231008739676 34.595524018724532 -2.6025936874050748 47.44107168074796 96.657605191144086 5.2117770098691878 29.327425969984446 30.561345678550019 49.575141634752704
leaf_weight=3993 172 137 1596 507 500 143 294 572 229 1675 137 227 902 161 53 870 207 139 148
leaf_count=3993 172 137 1596 507 500 143 294 572 229 1675 137 227 902 161 53 870 207 139 148
internal_value=0.0427094 52.1507 -28.6491 103.356 26.2607 84.5808 112.742 19.9257 34.3381 -36.1605 43.9505 57.0872 -11.5992 73.7665 134.997 10.975 17.2515 16.9175 73.077
internal_weight=12662 4496 8166 1509 2987 949 437 2654 1005 5668 637 512 2498 333 560 1649 779 368 285
internal_count=12662 4496 8166 1509 2987 949 437 2654 1005 5668 637 512 2498 333 560 1649 779 368 285
cat_boundaries=0 1 2 3 4 5 6 7 8 9
cat_threshold=448 14 192 48 30 8 14 8 30
is_linear=0
shrinkage=0.0210985


Tree=26
num_leaves=20
num_cat=7
split_feature=0 0 0 7 3 3 2 3 2 6 7 7 2 0 4 3 0 7 0
split_gain=4.07856e+10 1.28438e+10 2.25073e+09 1.9046e+09 1.87634e+09 1.29292e+09 1.30237e+09 7.22729e+08 3.23214e+08 2.85763e+08 2.76088e+08 2.45792e+08 1.72338e+08 1.69909e+08 1.31324e+08 1.24529e+08 8.54319e+07 8.41602e+07 8.40403e+07
threshold=0.99500000000000011 1.405 0.59500000000000008 7.8050000000000006 0 1 2 3 4 4.8450000000000006 6.7750000000000012 5.9450000000000012 5 1.6150000000000004 63.650000000000013 6 1.1450000000000002 6.8350000000000009 1.6050000000000002
decision_type=2 2 2 2 1 1 1 1 1 2 2 2 1 2 2 1 2 2 2
left_child=2 4 9 5 12 -3 13 8 10 -1 -6 -4 -2 -7 -5 16 -9 -10 -8
right_child=1 3 11 14 7 6 18 15 17 -11 -12 -13 -14 -15 -16 -17 -18 -19 -20
leaf_value=-38.670570532834553 92.265418562414084 34.576806132642595 -16.328008967020473 136.28490770264025 36.318304267237835 57.586403241922788 125.9865944611745 12.868802800575832 9.0949233326510956 -28.491301802736274 70.257407079958725 -2.5477340179931778 46.503291607879213 90.760732106179361 96.42070916440062 5.1031697509246152 28.711169032216549 29.920431248158543 156.01883682722396
leaf_weight=3843 172 234 1596 496 500 281 280 572 229 1825 137 902 161 96 50 870 207 139 72
leaf_count=3843 172 234 1596 496 500 281 280 572 229 1825 137 902 161 96 50 870 207 139 72
internal_value=0.051656 51.0785 -28.0448 101.234 25.719 83.2428 97.0031 19.507 33.6162 -35.3977 43.0262 -11.3546 72.3043 64.5102 132.789 10.7446 16.8885 16.5625 128.836
internal_weight=12662 4496 8166 1509 2987 963 729 2654 1005 5668 637 2498 333 377 546 1649 779 368 352
internal_count=12662 4496 8166 1509 2987 963 729 2654 1005 5668 637 2498 333 377 546 1649 779 368 352
cat_boundaries=0 1 2 3 4 5 6 7
cat_threshold=448 6 224 48 30 14 8
is_linear=0
shrinkage=0.0210985


Tree=27
num_leaves=20
num_cat=7
split_feature=0 0 7 6 3 3 2 3 2 7 7 3 6 2 4 7 7 8 7
split_gain=3.90954e+10 1.23079e+10 2.15846e+09 1.82638e+09 1.80439e+09 1.27462e+09 7.22393e+08 6.92639e+08 3.09741e+08 2.8072e+08 2.64686e+08 2.54673e+08 2.25015e+08 1.65486e+08 1.46116e+08 1.19777e+08 8.06709e+07 7.42286e+07 7.23105e+07
threshold=0.99500000000000011 1.405 5.3350000000000009 7.7950000000000008 0 1 2 3 4 5.9450000000000012 6.7750000000000012 5 4.705000000000001 6 63.650000000000013 6.6750000000000007 6.8350000000000009 4.9850000000000012 5.7250000000000005
decision_type=2 2 2 2 1 1 1 1 1 2 2 1 2 1 2 2 2 2 2
left_child=2 4 12 5 13 11 -7 8 10 18 -6 -3 -1 -2 17 -9 -10 -5 -4
right_child=1 3 9 14 7 6 -8 15 16 -11 -12 -13 -14 -15 -16 -17 -18 -19 -20
leaf_value=-38.881277561669705 90.434193057604361 69.653706545315558 -20.924788315267282 119.41887691911047 35.55333043020088 56.419321152382388 130.84662446034119 6.5571764050975201 8.9037373592260352 -2.5181331746163482 68.784140603438601 33.197135143879485 -30.165429172615752 45.584046068660022 94.50719104121346 18.626272770426915 29.292957639029449 140.03538974763026 -12.497075139150526
leaf_weight=3100 172 285 953 170 500 143 294 1100 229 903 137 227 2335 161 58 549 139 332 875
leaf_count=3100 172 285 953 170 500 143 294 1100 229 903 137 227 2335 161 58 549 139 332 875
internal_value=0.0548631 50.0132 -27.4533 99.1111 25.1885 81.1393 108.447 19.0971 32.9095 -12.1458 42.1214 54.514 -35.142 70.8711 129.399 10.519 16.2149 133.266 -16.8984
internal_weight=12662 4496 8166 1509 2987 949 437 2654 1005 2731 637 512 5435 333 560 1649 368 502 1828
internal_count=12662 4496 8166 1509 2987 949 437 2654 1005 2731 637 512 5435 333 560 1649 368 502 1828
cat_boundaries=0 1 2 3 4 5 6 7
cat_threshold=448 14 192 48 30 8 14
is_linear=0
shrinkage=0.0210985


Tree=28
num_leaves=20
num_cat=8
split_feature=0 0 7 3 7 3 3 2 2 7 7 3 8 2 0 4 0 3 8
split_gain=3.74868e+10 1.1807e+10 2.06861e+09 1.7533e+09 1.67206e+09 1.19669e+09 6.77421e+08 6.26689e+08 3.18967e+08 3.10866e+08 2.9053e+08 2.52156e+08 1.94839e+08 1.5234e+08 1.38394e+08 1.20059e+08 9.37036e+07 7.75465e+07 7.63477e+07
threshold=0.99500000000000011 1.4850000000000001 5.5450000000000008 0 7.8050000000000006 1 2 3 4 5.035000000000001 6.7750000000000012 5 3.6450000000000005 6 1.1950000000000001 63.650000000000013 1.5950000000000004 7 4.205000000000001
decision_type=2 2 2 1 2 1 1 1 1 2 2 1 2 1 2 2 2 1 2
left_child=2 3 9 13 5 11 8 -7 10 -1 -5 16 -4 -2 17 -6 -3 -8 -10
right_child=1 4 12 6 15 7 14 -9 18 -11 -12 -13 -14 -15 -16 -17 -18 -19 -20
leaf_value=-36.677305132760601 89.029401739354199 64.131161780219472 -15.132888959498821 34.804469740966468 130.6196298923393 57.13738368265404 12.7496362521844 129.25147194362407 8.740500289341476 -25.893144801609349 68.662576379864205 33.299592443523039 -2.7166600383075319 45.37220278394372 21.765882324270926 92.484605833754173 92.801247798652568 2.2692894845549971 28.430379455128168
leaf_weight=4158 173 200 1372 500 496 140 609 285 230 1682 147 227 954 162 388 50 77 670 142
leaf_count=4158 173 200 1372 500 496 140 609 285 230 1682 147 227 954 162 388 50 77 670 142
internal_value=0.0619894 48.9818 -26.8743 25.0783 97.8971 80.5309 19.1235 107.509 32.6862 -33.5755 41.9292 54.4326 -10.0433 70.002 10.6752 127.275 69.8443 7.38201 15.878
internal_weight=12662 4496 8166 3021 1475 929 2686 425 1019 5840 647 504 2326 335 1667 546 277 1279 372
internal_count=12662 4496 8166 3021 1475 929 2686 425 1019 5840 647 504 2326 335 1667 546 277 1279 372
cat_boundaries=0 1 2 3 4 5 6 7 8
cat_threshold=448 14 48 192 30 8 14 8
is_linear=0
shrinkage=0.0210985


Tree=29
num_leaves=20
num_cat=7
split_feature=7 0 6 2 3 3 0 0 3 7 2 7 2 7 6 7 0 8 2
split_gain=3.59726e+10 9.33031e+09 3.67916e+09 1.61865e+09 1.27228e+09 1.27055e+09 1.15338e+09 7.58461e+08 4.3528e+08 3.20345e+08 3.06328e+08 2.6064e+08 1.95494e+08 1.62674e+08 1.32461e+08 1.30545e+08 1.02134e+08 9.82174e+07 6.82667e+07
threshold=6.8150000000000004 0.89500000000000013 7.6450000000000005 0 1 2 0.52500000000000013 1.4850000000000001 3 7.2750000000000012 4 8.0250000000000004 5 5.7150000000000007 4.6950000000000012 6.3550000000000013 1.0150000000000003 4.3350000000000009 6
decision_type=2 2 2 1 1 1 2 2 1 2 1 2 1 2 2 2 2 2 1
left_child=1 6 3 5 12 17 14 -7 10 18 16 -4 -3 -8 -1 -10 -6 -2 -5
right_child=2 4 11 9 8 7 13 -9 15 -11 -12 -13 -14 -15 -16 -17 -18 -19 -20
leaf_value=-37.365991059179116 11.194433387351925 78.378988529099573 101.73040154731741 35.178599725872253 23.584057899139211 73.929576475812198 -22.048554883771228 124.6618203008352 -2.9006525223439499 52.656687471213651 5.3750404447225781 130.36606051100813 30.838568322543722 -11.421071305197875 -30.159401741860147 8.9678744913244248 40.90695102755825 43.198877303489212 15.297831943365903
leaf_weight=3043 66 143 248 175 328 246 1417 295 635 330 326 419 119 1177 1860 1175 290 124 246
leaf_count=3043 66 143 248 175 328 246 1417 295 635 330 326 419 119 1177 1860 1175 290 124 246
internal_value=0.0679983 -16.0118 78.7065 60.1268 15.3227 82.5925 -28.6178 99.9003 10.9098 36.6059 22.4786 119.861 58.8698 -17.2317 -34.6378 4.77824 31.2526 30.5779 24.8122
internal_weight=12662 10513 2149 1482 3016 731 7497 541 2754 751 944 667 262 2594 4903 1810 618 190 421
internal_count=12662 10513 2149 1482 3016 731 7497 541 2754 751 944 667 262 2594 4903 1810 618 190 421
cat_boundaries=0 1 2 3 4 5 6 7
cat_threshold=30 448 6 48 30 14 32
is_linear=0
shrinkage=0.0210985


Tree=30
num_leaves=20
num_cat=10
split_feature=7 0 7 7 7 3 2 2 3 3 2 8 7 6 3 3 2 2 7
split_gain=3.43695e+10 7.38746e+09 4.78411e+09 1.28733e+09 1.08396e+09 9.43882e+08 8.1679e+08 8.12305e+08 5.64342e+08 3.37136e+08 2.32455e+08 2.2688e+08 1.6426e+08 1.48612e+08 1.45484e+08 9.98862e+07 9.32068e+07 8.87201e+07 8.76842e+07
threshold=6.6950000000000012 0.85500000000000009 7.2750000000000012 7.9050000000000011 5.245000000000001 0 1 2 3 4 5 4.5050000000000008 7.6350000000000007 4.6950000000000012 6 7 8 9 5.6750000000000007
decision_type=2 2 2 2 2 1 1 1 1 1 1 2 2 2 1 1 1 1 2
left_child=1 4 6 7 13 -3 8 -4 -2 10 -7 -10 -9 -1 16 -11 -6 -8 -16
right_child=2 5 3 -5 14 9 17 12 11 15 -12 -13 -14 -15 18 -17 -18 -19 -20
leaf_value=-36.558683618881894 19.062744251589933 54.135817042222733 104.34612390622658 124.80945642025706 -0.63797562048805678 27.7868050129564 24.739319460898365 49.58430262113243 64.854388633325016 8.6022026839673273 3.5708970988715314 112.71971523309946 80.426695849166606 -29.140403736353345 -25.827274220014431 -1.8507673560390594 -15.327041835311327 3.7795001107889568 -15.853320216504743
leaf_weight=3031 165 216 400 489 369 552 452 323 400 791 277 51 105 2039 685 824 408 132 935
leaf_count=3031 165 216 400 489 369 552 452 323 400 791 277 51 105 2039 685 824 408 132 935
internal_value=0.0447621 -17.2982 69.8056 97.5662 -28.0528 12.8908 39.2911 81.3664 56.1419 8.97002 19.8459 68.9414 55.9884 -33.5806 -16.3529 3.29214 -8.45596 20.1571 -19.9588
internal_weight=12644 10127 2517 1317 7467 2660 1200 828 616 2444 829 451 428 5070 2397 1615 777 584 1620
internal_count=12644 10127 2517 1317 7467 2660 1200 828 616 2444 829 451 428 5070 2397 1615 777 584 1620
cat_boundaries=0 1 2 3 4 5 6 7 8 9 10
cat_threshold=448 30 30 6 48 30 480 8 14 96
is_linear=0
shrinkage=0.0210985


Tree=31
num_leaves=20
num_cat=7
split_feature=7 7 7 2 3 3 6 0 3 7 2 7 6 2 7 7 0 8 3
split_gain=3.29763e+10 8.53723e+09 3.40721e+09 1.59892e+09 1.24665e+09 1.16782e+09 1.10036e+09 7.40288e+08 3.89385e+08 2.82031e+08 2.68463e+08 1.99218e+08 1.60354e+08 1.54781e+08 1.13328e+08 1.03711e+08 1.0033e+08 9.01996e+07 5.88774e+07
threshold=6.8150000000000004 6.0750000000000011 7.6650000000000009 0 1 2 5.2650000000000006 1.4850000000000001 3 7.2350000000000012 4 8.0250000000000004 4.6950000000000012 5 5.7250000000000005 6.3550000000000013 1.0550000000000004 4.3050000000000006 6
decision_type=2 2 2 1 1 1 2 2 1 2 1 2 2 1 2 2 2 2 1
left_child=1 6 3 4 17 13 12 -6 10 -5 16 -4 -1 -3 -8 -10 -7 -2 -17
right_child=2 5 11 9 7 8 14 -9 15 -11 -12 -13 -14 -15 -16 18 -18 -19 -20
leaf_value=-35.787563157009011 9.4457300701131164 74.319723839560311 99.138461687530295 22.795056205218138 71.480259790218028 24.735296100646092 -19.820350644956648 121.37601893145322 -2.41650767586661 48.569419704536678 5.1010893966060689 125.44246014155313 -28.243872023345293 30.047853452126549 -10.495541725751837 13.340468912985139 43.551196465630973 40.75119732945128 3.7202804327241914
leaf_weight=3031 59 146 221 389 245 447 1168 302 585 372 311 415 2185 114 1160 560 179 138 617
leaf_count=3031 59 146 221 389 245 447 1168 302 585 372 311 415 2185 114 1160 560 179 138 617
internal_value=0.0484033 -15.3367 75.4989 58.1397 80.2207 15.0328 -27.249 97.3944 10.7338 34.9751 21.6826 116.446 -32.6326 56.8883 -15.1795 4.81451 29.6932 29.9423 8.44856
internal_weight=12644 10503 2141 1505 744 2959 7544 547 2699 761 937 636 5216 260 2328 1762 626 197 1177
internal_count=12644 10503 2141 1505 744 2959 7544 547 2699 761 937 636 5216 260 2328 1762 626 197 1177
cat_boundaries=0 1 2 3 4 5 6 7
cat_threshold=30 6 448 48 30 14 8
is_linear=0
shrinkage=0.0210985


Tree=32
num_leaves=20
num_cat=7
split_feature=7 0 7 2 3 3 7 0 3 2 7 7 7 2 7 0 3 6 8
split_gain=3.16007e+10 8.18904e+09 3.2676e+09 1.54329e+09 1.17103e+09 1.14396e+09 1.01e+09 6.91786e+08 3.93859e+08 2.65211e+08 2.40695e+08 2.25103e+08 1.77997e+08 1.66174e+08 1.15409e+08 9.41238e+07 9.09292e+07 8.64599e+07 8.63241e+07
threshold=6.8150000000000004 0.89500000000000013 7.6350000000000007 0 1 2 5.1550000000000011 1.4850000000000001 3 4 7.2350000000000012 8.0250000000000004 5.6950000000000012 5 6.3550000000000013 1.0250000000000001 6 4.6350000000000007 4.3050000000000006
decision_type=2 2 2 1 1 1 2 2 1 1 2 2 2 1 2 2 1 2 2
left_child=1 6 3 4 18 13 17 -6 9 15 -5 -4 -8 -3 -10 -7 -14 -1 -2
right_child=2 5 11 10 7 8 12 -9 14 -11 -12 -13 16 -15 -16 -17 -18 -19 -20
leaf_value=-35.311368966938979 9.2492447147241492 73.918368976936321 95.968833000018634 22.315153369559081 69.977300813709618 23.038272839497584 -21.746731934376992 118.40167154891927 -2.8879068300925979 5.0704214194009056 46.421884639265365 122.80117328727964 -16.962364077918966 29.214031068571064 8.2736232368468343 39.944817091447085 -5.492405950180137 -29.337156653966225 39.907948345446329
leaf_weight=2787 59 143 244 389 245 381 1583 297 634 322 355 415 618 116 1177 244 671 1827 137
leaf_count=2787 59 143 244 389 245 381 1583 297 634 322 355 415 618 116 1177 244 671 1827 137
internal_value=0.0503893 -15.0104 73.9105 56.4735 78.1513 14.3327 -26.8366 94.9067 10.1763 21.1568 33.4087 113.002 -17.0058 55.8748 4.34266 29.2167 -11.1732 -32.9516 29.2712
internal_weight=12644 10503 2141 1482 738 3017 7486 542 2758 947 744 659 2872 259 1811 625 1289 4614 196
internal_count=12644 10503 2141 1482 738 3017 7486 542 2758 947 744 659 2872 259 1811 625 1289 4614 196
cat_boundaries=0 1 2 3 4 5 6 7
cat_threshold=30 6 448 48 30 14 12
is_linear=0
shrinkage=0.0210985


Tree=33
num_leaves=20
num_cat=10
split_feature=7 0 7 7 3 3 7 2 2 3 0 3 0 2 7 2 3 2 0
split_gain=3.02964e+10 6.5061e+09 4.2079e+09 1.13116e+09 8.82403e+08 8.76011e+08 8.09147e+08 7.23802e+08 5.18844e+08 5.02446e+08 3.315e+08 2.60822e+08 1.9046e+08 1.65094e+08 1.49387e+08 1.34282e+08 1.51174e+08 1.31714e+08 1.14388e+08
threshold=6.6950000000000012 0.78500000000000014 7.2750000000000012 7.9050000000000011 0 1 5.0950000000000006 2 3 4 0.9850000000000001 5 1.3250000000000004 6 5.6950000000000012 7 8 9 1.385
decision_type=2 2 2 2 1 1 2 1 1 1 2 1 2 1 2 1 1 1 2
left_child=1 6 7 5 13 15 -1 9 -7 18 -6 17 -11 -3 -8 -4 -17 -12 -2
right_child=2 4 3 -5 10 8 14 -9 -10 12 11 -13 -14 -15 -16 16 -18 -19 -20
leaf_value=-32.753105802424834 21.724702819968051 67.205371798612603 23.484648295483492 117.12149191144513 -3.6434793478933623 53.381773225724416 -21.868704558385744 18.921565060639633 121.60355341312751 65.253939003011979 29.296871975402109 6.0411391867802839 108.0028237928169 23.094210707143056 -11.826984074172636 77.738457030973166 37.479541909171267 6.1414919500341396 54.206779403400603
leaf_weight=4319 209 126 109 489 891 135 1878 584 258 286 446 1167 58 107 1022 163 163 171 63
leaf_count=4319 209 126 109 489 891 135 1878 584 258 286 446 1167 58 107 1022 163 163 171 63
internal_value=0.0515907 -16.2313 65.5484 91.5837 10.4114 76.3979 -26.9636 36.9304 100.231 52.792 6.83844 12.1111 70.6589 48.876 -18.3343 51.2385 59.4634 23.0963 28.3532
internal_weight=12644 10127 2517 1317 2908 828 7219 1200 393 616 2675 1784 344 233 2900 435 326 617 272
internal_count=12644 10127 2517 1317 2908 828 7219 1200 393 616 2675 1784 344 233 2900 435 326 617 272
cat_boundaries=0 1 2 3 4 5 6 7 8 9 10
cat_threshold=448 14 30 192 14 48 14 192 8 30
is_linear=0
shrinkage=0.0210985


Tree=34
num_leaves=20
num_cat=9
split_feature=7 7 7 2 3 3 6 0 3 2 2 7 7 6 2 3 3 7 8
split_gain=2.90659e+10 7.52789e+09 3.01249e+09 1.43246e+09 1.08668e+09 1.04293e+09 9.69916e+08 6.40914e+08 3.43803e+08 2.36589e+08 2.35769e+08 2.05323e+08 2.03281e+08 1.43273e+08 1.37899e+08 1.34708e+08 9.98126e+07 9.03644e+07 8.08766e+07
threshold=6.8150000000000004 6.0750000000000011 7.6350000000000007 0 1 2 5.2650000000000006 1.4850000000000001 3 4 5 7.2350000000000012 8.0250000000000004 4.6950000000000012 6 7 8 6.3850000000000007 4.3050000000000006
decision_type=2 2 2 1 1 1 2 2 1 1 1 2 2 2 1 1 1 2 2
left_child=1 6 3 4 18 14 13 -6 9 17 11 -5 -4 -1 -3 -8 -10 -7 -2
right_child=2 5 12 10 7 8 15 -9 16 -11 -12 -13 -14 -15 -16 -17 -18 -19 -20
leaf_value=-33.607191679975578 8.5882769175515588 70.137658995015897 92.226670311045638 26.834855432809178 67.168324164201294 16.935447209200774 -6.3361851411652097 113.77586066278261 9.6101970606921245 4.792544934576787 8.0647192892199406 52.13495224525083 117.74941775372572 -26.47721284864161 28.353891927922326 -17.623793390548961 -0.42172946651282311 34.026763826982283 38.256437681638531
leaf_weight=3031 59 146 244 297 245 210 720 297 861 311 166 281 415 2185 114 1608 901 416 137
leaf_count=3031 59 146 244 297 245 210 720 297 861 311 166 281 415 2185 114 1608 901 416 137
internal_value=0.05932 -14.3849 70.8952 54.1528 75.0324 14.133 -25.5708 91.1654 10.0711 20.3589 31.9439 38.5272 108.429 -30.6252 53.6856 -14.2392 4.50915 27.879 27.9794
internal_weight=12644 10503 2141 1482 738 2959 7544 542 2699 937 744 578 659 5216 260 2328 1762 626 196
internal_count=12644 10503 2141 1482 738 2959 7544 542 2699 937 744 578 659 5216 260 2328 1762 626 196
cat_boundaries=0 1 2 3 4 5 6 7 8 9
cat_threshold=30 6 448 48 30 96 14 480 8
is_linear=0
shrinkage=0.0210985


Tree=35
num_leaves=20
num_cat=9
split_feature=0 0 7 6 3 3 2 3 2 8 7 2 4 3 8 8 2 3 0
split_gain=2.7893e+10 8.82794e+09 1.52021e+09 1.29737e+09 1.29176e+09 9.90344e+08 6.04204e+08 5.04587e+08 2.43544e+08 2.35109e+08 1.97672e+08 1.83497e+08 1.6493e+08 1.58002e+08 1.36787e+08 1.27169e+08 1.14233e+08 1.05801e+08 6.50864e+07
threshold=0.9850000000000001 1.405 5.5450000000000008 7.7250000000000005 0 1 2 3 4 3.0850000000000004 6.7750000000000012 5 64.050000000000011 6 3.6450000000000005 4.9450000000000012 7 8 1.0450000000000002
decision_type=2 2 2 2 1 1 1 1 1 2 2 1 2 1 2 2 1 1 2
left_child=2 4 9 5 16 11 -7 8 -6 -1 -10 -3 15 -13 -4 -5 18 -9 -2
right_child=1 3 14 12 7 6 -8 17 10 -11 -12 13 -14 -15 -16 -17 -18 -19 -20
leaf_value=-31.686766919046381 66.611498562174646 17.519095719092199 -12.984587697823962 94.008258209635571 5.8788227939263047 44.364555635817517 112.59058172293634 14.515996510629391 27.6830100081722 -22.374313021765317 52.126718584022491 67.906298447699868 68.597096317287651 30.682762820245262 -2.5406324573763235 117.70550116861278 38.805467427404615 3.7265321487736505 94.963563364225251
leaf_weight=4115 85 129 1367 169 198 133 275 784 610 1723 196 187 50 160 944 399 160 874 85
leaf_count=4115 85 129 1367 169 198 133 275 784 610 1723 196 187 50 160 944 399 160 874 85
internal_value=0.0627887 42.258 -23.2089 83.9804 21.2953 67.4598 92.0745 16.1752 27.9832 -28.942 33.2631 43.3952 107.488 52.1925 -8.72092 110.804 60.1441 8.8896 76.6967
internal_weight=12643 4494 8149 1502 2992 884 408 2662 1004 5838 806 476 618 347 2311 568 330 1658 170
internal_count=12643 4494 8149 1502 2992 884 408 2662 1004 5838 806 476 618 347 2311 568 330 1658 170
cat_boundaries=0 1 2 3 4 5 6 7 8 9
cat_threshold=448 14 192 48 192 192 8 14 8
is_linear=0
shrinkage=0.0210985


Tree=36
num_leaves=20
num_cat=8
split_feature=7 7 6 3 7 3 2 2 7 7 7 2 3 3 7 0 7 8 2
split_gain=2.67577e+10 7.85207e+09 1.9472e+09 1.13384e+09 1.07146e+09 8.88843e+08 5.44496e+08 5.21183e+08 3.99445e+08 3.05814e+08 2.29341e+08 1.60648e+08 1.52005e+08 1.51497e+08 1.34899e+08 1.00319e+08 8.1336e+07 7.87745e+07 7.52016e+07
threshold=6.3550000000000013 7.2350000000000012 5.6750000000000007 0 7.9050000000000011 1 2 3 6.7750000000000012 5.035000000000001 6.1350000000000007 4 5 6 6.9450000000000012 1.5750000000000004 6.8350000000000009 4.6350000000000007 7
decision_type=2 2 2 1 2 1 1 1 2 2 2 1 1 1 2 2 2 2 1
left_child=2 3 9 14 5 11 8 17 13 -1 -4 -3 15 -5 -2 -13 -8 -7 -12
right_child=1 4 10 6 -6 7 16 -9 -10 -11 18 12 -14 -15 -16 -17 -18 -19 -20
leaf_value=-30.988109578761641 8.5714207216228502 20.470597056940438 -9.5018705043268792 56.741098811361987 109.30531276335468 40.477838020922093 8.0235522117658675 114.17516412907824 71.277618159790009 -20.978434841861084 8.9561119049006805 63.231687915173104 34.907146075916934 29.909631228120496 27.537554119981873 97.528354755957977 27.485578328785028 74.286372848901337 -5.7407305218437639
leaf_weight=4143 1350 121 1533 184 502 91 221 273 240 2035 528 113 176 447 190 66 169 50 211
leaf_count=4143 1350 121 1533 184 502 91 221 273 240 2035 528 113 176 447 190 66 169 50 211
internal_value=0.0681789 43.636 -21.553 23.2698 84.5783 70.541 38.027 93.9226 47.5325 -27.6943 -4.84942 47.117 55.3234 39.1704 10.8547 72.2573 16.0866 49.3571 4.80153
internal_weight=12643 4193 8450 2801 1392 890 1261 414 871 6178 2272 476 355 631 1540 179 390 141 739
internal_count=12643 4193 8450 2801 1392 890 1261 414 871 6178 2272 476 355 631 1540 179 390 141 739
cat_boundaries=0 1 2 3 4 5 6 7 8
cat_threshold=14 14 30 192 192 8 448 30
is_linear=0
shrinkage=0.0210985


Tree=37
num_leaves=20
num_cat=8
split_feature=0 0 7 6 3 3 2 2 8 7 3 2 2 0 4 3 8 6 6
split_gain=2.56596e+10 7.40328e+09 1.99006e+09 1.1373e+09 1.09663e+09 9.0429e+08 5.23233e+08 3.32634e+08 2.96977e+08 2.42894e+08 2.34197e+08 1.71411e+08 1.63426e+08 1.75286e+08 1.53344e+08 1.43799e+08 1.19205e+08 1.03057e+08 9.50508e+07
threshold=1.0050000000000001 1.4850000000000001 5.6950000000000012 7.7250000000000005 0 1 2 3 3.0850000000000004 6.1350000000000007 4 5 6 1.175 64.050000000000011 7 4.9450000000000012 6.7350000000000012 6.955000000000001
decision_type=2 2 2 2 1 1 1 1 2 2 1 1 1 2 2 1 2 2 2
left_child=2 4 8 5 7 11 -7 17 -1 -4 12 -3 -6 -14 16 -13 -5 -2 -9
right_child=1 3 9 14 10 6 -8 18 -10 -11 -12 15 13 -15 -16 -17 -18 -19 -20
leaf_value=-30.369019109916177 58.989541594232946 16.724086799268424 -9.2176102121602046 90.048204763981289 4.4393070897227735 43.51654195426859 109.16423146732433 27.104499646844204 -20.575805750876288 5.0624591793638825 4.9242672715359106 66.139599627098335 18.911545122443954 39.472168202830488 65.61313544492549 29.65296026244998 112.95880865867709 89.18849636331079 53.06390071764168
leaf_weight=4116 177 127 1494 169 259 129 263 324 2086 821 775 177 715 250 50 155 399 78 79
leaf_count=4116 177 127 1494 169 259 129 263 324 2086 821 775 177 715 250 50 155 399 78 79
internal_value=0.0720901 43.2517 -20.8482 81.2481 22.2251 65.301 89.3135 45.6971 -27.0784 -4.15327 14.1835 41.8159 19.9515 24.0192 103.089 50.5817 106.286 65.9139 31.5131
internal_weight=12643 4126 8517 1469 2657 851 392 658 6202 2315 1999 459 1224 965 618 332 568 255 403
internal_count=12643 4126 8517 1469 2657 851 392 658 6202 2315 1999 459 1224 965 618 332 568 255 403
cat_boundaries=0 1 2 3 4 5 6 7 8
cat_threshold=480 14 192 14 24 192 192 8
is_linear=0
shrinkage=0.0210985


Tree=38
num_leaves=20
num_cat=8
split_feature=7 7 6 3 7 3 2 2 7 7 7 2 3 3 7 0 7 8 2
split_gain=2.46136e+10 7.2254e+09 1.78691e+09 1.05107e+09 9.77687e+08 8.24224e+08 5.13311e+08 4.82254e+08 3.67882e+08 2.49572e+08 2.32212e+08 1.48668e+08 1.43023e+08 1.41875e+08 1.25894e+08 9.58171e+07 7.55554e+07 7.40451e+07 7.17351e+07
threshold=6.3550000000000013 7.2350000000000012 5.6450000000000005 0 7.9050000000000011 1 2 3 6.7750000000000012 5.035000000000001 6.1350000000000007 4 5 6 6.9450000000000012 1.5750000000000004 6.8350000000000009 4.6350000000000007 7
decision_type=2 2 2 1 2 1 1 1 2 2 2 1 1 1 2 2 2 2 1
left_child=2 3 9 14 5 11 8 17 12 -1 -4 -3 -5 15 -2 -13 -8 -7 -12
right_child=1 4 10 6 -6 7 16 -9 -10 -11 18 13 -14 -15 -16 -17 -18 -19 -20
leaf_value=-29.702121505260081 8.1671936882191538 19.586534901859807 -9.6634437994052558 54.764247255625513 104.75785437593568 38.757845561791292 7.4818066818869831 109.70463786419845 68.544661257083817 -20.431486824967344 8.5885593045008548 60.522345670772594 28.764486582707427 33.422489913937611 26.489056905870861 93.983535545606031 26.237638583557001 71.516064316236537 -5.7588820859648875
leaf_weight=4142 1350 121 1676 184 502 91 221 273 240 1893 528 113 447 176 190 66 169 50 211
leaf_count=4142 1350 121 1676 184 502 91 221 273 240 1893 528 113 447 176 190 66 169 50 211
internal_value=0.0762403 41.8621 -20.6605 22.3255 81.1366 67.7267 36.5333 90.2324 45.7548 -26.7975 -5.32061 45.1876 37.731 53.0744 10.3736 69.3845 15.258 47.3892 4.52839
internal_weight=12643 4193 8450 2801 1392 890 1261 414 871 6035 2415 476 631 355 1540 179 390 141 739
internal_count=12643 4193 8450 2801 1392 890 1261 414 871 6035 2415 476 631 355 1540 179 390 141 739
cat_boundaries=0 1 2 3 4 5 6 7 8
cat_threshold=14 14 30 192 192 448 8 30
is_linear=0
shrinkage=0.0210985


Tree=39
num_leaves=20
num_cat=9
split_feature=7 0 7 2 3 7 6 3 3 0 0 2 0 3 2 2 3 0 7
split_gain=2.36094e+10 5.05728e+09 3.3003e+09 7.44312e+08 6.98441e+08 6.5814e+08 5.62649e+08 5.41682e+08 5.33749e+08 3.93029e+08 3.23878e+08 3.07403e+08 3.04714e+08 2.0605e+08 1.57213e+08 1.52421e+08 1.34622e+08 1.06323e+08 9.01563e+07
threshold=6.6950000000000012 0.75500000000000012 7.3650000000000011 0 1 8.0250000000000004 5.0850000000000009 2 3 1.4650000000000001 0.9850000000000001 4 1.7750000000000001 5 6 7 8 1.2850000000000004 7.7650000000000006
decision_type=2 2 2 1 1 2 2 1 1 2 2 1 2 1 1 1 1 2 2
left_child=1 6 3 8 15 7 -1 18 -2 -10 -6 12 -9 14 -12 -3 -8 -5 -4
right_child=2 4 5 17 10 -7 16 11 9 -11 13 -13 -14 -15 -16 -17 -18 -19 -20
leaf_value=-28.867091290764499 18.203640776495057 58.355271485787824 26.636145012564317 12.295361113319114 -4.1452162683504872 105.59593031985752 -9.8801577503297278 52.208663675421249 53.660491510221739 97.258425970701197 21.209520166048822 108.35995079523823 106.78713912746076 0.52636951803575183 4.4251520597030822 19.056076712014562 -20.087457191982928 29.105162280903546 57.338070569920063
leaf_weight=4314 192 132 130 383 1031 426 958 225 397 122 791 219 58 603 389 116 1792 300 65
leaf_count=4314 192 132 130 383 1031 426 958 225 397 122 791 219 58 603 389 116 1792 300 65
internal_value=0.079766 -14.2956 57.8978 36.179 8.35 84.8105 -24.1115 71.9944 51.2417 62.8411 5.24701 83.808 61.5111 10.7068 15.7671 41.5417 -16.6447 19.4217 35.2718
internal_weight=12643 10126 2517 1394 3062 1123 7064 697 711 519 2814 502 283 1783 1180 248 2750 683 195
internal_count=12643 10126 2517 1394 3062 1123 7064 697 711 519 2814 502 283 1783 1180 248 2750 683 195
cat_boundaries=0 1 2 3 4 5 6 7 8 9
cat_threshold=30 448 6 6 224 56 30 14 480
is_linear=0
shrinkage=0.0210985


Tree=40
num_leaves=20
num_cat=9
split_feature=7 0 7 7 3 3 3 7 2 2 7 0 3 2 3 4 8 8 2
split_gain=2.29292e+10 4.26889e+09 3.69973e+09 8.23108e+08 6.3083e+08 6.16768e+08 5.84695e+08 5.37433e+08 4.44839e+08 3.9286e+08 2.61431e+08 1.72822e+08 1.71198e+08 1.40348e+08 1.24305e+08 1.09835e+08 1.1109e+08 1.0055e+08 9.04777e+07
threshold=6.6350000000000007 0.75500000000000012 7.2750000000000012 7.6650000000000009 0 1 2 5.0950000000000006 3 4 6.2650000000000006 1.3250000000000004 5 6 7 63.95000000000001 4.9450000000000012 4.3050000000000006 8
decision_type=2 2 2 2 1 1 1 2 1 1 2 2 1 1 1 2 2 2 1
left_child=1 7 4 5 17 -4 13 -1 11 -7 -8 -6 18 -3 -9 16 -5 -2 -12
right_child=2 6 3 15 8 9 10 14 -10 -11 12 -13 -14 -15 -16 -17 -18 -19 -20
leaf_value=-28.278492740210211 11.460060801973821 56.067968022837732 39.463411467899292 84.846369271505012 54.893238894858619 39.349983198043603 -4.2778815769368466 -9.8384683521159673 21.484555715984595 103.02660205819107 24.114292412491306 95.005924174602001 4.2069652081960385 17.2394490301362 -19.659514854533004 64.806262421647048 105.77844677905358 28.91343032334207 3.8881887516750098
leaf_weight=4319 542 116 356 196 354 109 1008 962 270 225 404 57 1033 111 1784 52 397 202 151
leaf_count=4319 542 116 356 196 354 109 1008 962 270 225 404 57 1033 111 1784 52 397 202 151
internal_value=0.134298 -14.8748 53.8942 79.126 30.2232 62.9532 7.05456 -23.6371 44.8189 84.1366 4.10789 59.2018 9.45616 38.7328 -16.3304 96.3224 98.9901 16.0112 18.7913
internal_weight=12648 9888 2760 1335 1425 690 2823 7065 681 334 2596 411 1588 227 2746 645 593 744 555
internal_count=12648 9888 2760 1335 1425 690 2823 7065 681 334 2596 411 1588 227 2746 645 593 744 555
cat_boundaries=0 1 2 3 4 5 6 7 8 9
cat_threshold=14 14 448 30 192 48 14 480 30
is_linear=0
shrinkage=0.0210985


Tree=41
num_leaves=20
num_cat=9
split_feature=7 0 7 7 3 3 3 7 2 2 0 3 0 2 2 3 4 8 8
split_gain=2.19836e+10 4.09326e+09 3.54952e+09 7.86128e+08 6.04933e+08 5.9312e+08 5.62527e+08 5.14787e+08 4.25909e+08 3.76282e+08 2.51695e+08 1.664e+08 1.65837e+08 1.34968e+08 1.28093e+08 1.19116e+08 1.05129e+08 1.06414e+08 9.63762e+07
threshold=6.6350000000000007 0.75500000000000012 7.2750000000000012 7.6650000000000009 0 1 2 5.0950000000000006 3 4 0.9850000000000001 5 1.3250000000000004 6 7 8 63.95000000000001 4.9450000000000012 4.3050000000000006
decision_type=2 2 2 2 1 1 1 2 1 1 2 1 2 1 1 1 2 2 2
left_child=1 7 4 5 18 -4 13 -1 12 -7 -8 14 -6 -3 -12 -9 17 -5 -2
right_child=2 6 3 16 8 9 10 15 -10 -11 11 -13 -14 -15 -16 -17 -18 -19 -20
leaf_value=-27.681975606162041 11.21864569436905 54.986135968251332 38.655401044843821 83.063898888743438 53.737822413548081 38.594869586847295 -4.0525485403704939 -9.6332047080019745 21.04876371048546 100.95282485477196 -4.6908425432935319 -0.43748312264422606 93.030636559368048 16.908089108493737 17.118020658366493 -19.247234035544516 63.460746282824189 103.55140125135622 28.305933373007161
leaf_weight=4319 542 116 356 196 354 109 1031 962 270 225 139 525 57 111 901 1784 52 397 202
leaf_count=4319 542 116 356 196 354 109 1031 962 270 225 139 525 57 111 901 1784 52 397 202
internal_value=0.137097 -14.5593 52.7768 77.4911 29.5914 61.6852 6.91424 -23.1394 43.8843 82.4559 4.02402 9.36978 57.9591 37.9862 14.1848 -15.9883 94.2972 96.9073 15.6743
internal_weight=12648 9888 2760 1335 1425 690 2823 7065 681 334 2596 1565 411 227 1040 2746 645 593 744
internal_count=12648 9888 2760 1335 1425 690 2823 7065 681 334 2596 1565 411 227 1040 2746 645 593 744
cat_boundaries=0 1 2 3 4 5 6 7 8 9
cat_threshold=14 14 448 30 192 56 14 192 480
is_linear=0
shrinkage=0.0210985


Tree=42
num_leaves=20
num_cat=9
split_feature=7 0 0 2 3 3 6 0 3 4 2 8 2 2 3 0 6 7 2
split_gain=2.10938e+10 5.36663e+09 2.15182e+09 9.8286e+08 8.02043e+08 7.2768e+08 6.71141e+08 4.08256e+08 2.91552e+08 2.29168e+08 2.16404e+08 1.9143e+08 1.82194e+08 1.46704e+08 1.24076e+08 1.22514e+08 1.11002e+08 1.05495e+08 8.50785e+07
threshold=6.8150000000000004 0.89500000000000013 1.6150000000000004 0 1 2 5.2650000000000006 1.4850000000000001 3 64.15000000000002 4 4.9450000000000012 5 6 7 1.0350000000000004 4.6350000000000007 7.2350000000000012 8
decision_type=2 2 2 1 1 1 2 2 1 2 1 2 1 1 1 2 2 2 1
left_child=1 6 3 5 13 -2 16 -7 10 11 -6 -4 17 -3 -8 -12 -1 -5 -16
right_child=2 4 9 12 8 7 14 -9 -10 -11 15 -13 -14 -15 18 -17 -18 -19 -20
leaf_value=-28.807367169231288 21.956367046162661 62.59339864860064 78.654982250011074 23.377522856459812 -3.4123935948653257 57.278926473067848 -17.527300746288798 95.517508435740993 -1.5485001044165516 45.913439680647194 12.16188957799784 101.53244626483458 4.1106909528478148 23.152941835674149 -3.7999395190977547 24.971599110468993 -22.607789010446762 42.263024810292386 -16.211279514119447
leaf_weight=2794 180 142 311 297 300 245 1040 265 927 55 1020 405 155 120 880 495 2431 243 343
leaf_count=2794 180 142 311 297 300 245 1040 265 927 55 1020 405 155 120 880 495 2431 243 343
internal_value=0.139372 -12.2131 60.2328 44.46 11.6082 62.3028 -21.7698 75.7892 8.09504 88.4871 13.0004 91.6996 25.4308 46.1671 -12.1651 16.2516 -25.927 31.349 -7.39268
internal_weight=12648 10492 2156 1385 3004 690 7488 510 2742 771 1815 716 695 262 2263 1515 5225 540 1223
internal_count=12648 10492 2156 1385 3004 690 7488 510 2742 771 1815 716 695 262 2263 1515 5225 540 1223
cat_boundaries=0 1 2 3 4 5 6 7 8 9
cat_threshold=30 448 6 56 192 96 14 14 30
is_linear=0
shrinkage=0.0210985


Tree=43
num_leaves=20
num_cat=10
split_feature=7 7 7 7 0 3 3 3 2 2 8 0 3 2 7 3 3 3 0
split_gain=2.0223e+10 3.76893e+09 3.26105e+09 7.20737e+08 5.86985e+08 5.692e+08 5.65669e+08 4.26919e+08 3.92751e+08 3.50906e+08 2.95513e+08 1.53839e+08 1.51698e+08 1.24111e+08 9.90148e+07 9.22881e+07 9.18232e+07 8.93175e+07 8.81104e+07
threshold=6.6350000000000007 5.745000000000001 7.2750000000000012 7.6650000000000009 0.9850000000000001 0 1 2 3 4 3.0850000000000004 1.3250000000000004 5 6 8.0250000000000004 7 8 9 1.3250000000000004
decision_type=2 2 2 2 2 1 1 1 1 1 2 2 1 1 2 1 1 1 2
left_child=1 10 6 5 16 17 18 -6 11 -7 -1 -8 13 -9 -5 -12 -3 -4 -2
right_child=2 4 3 14 7 9 8 12 -10 -11 15 -13 -14 -15 -16 -17 -18 -19 -20
leaf_value=-26.780901407465727 11.309675108089333 -9.2581818599076691 47.558115085838615 78.005061259282314 43.096363533279209 37.148611140839165 51.672419293254642 18.628672233012022 20.283612450952532 97.310064942299462 -8.130209830858977 89.514979003336464 -0.39642972461826764 2.7035864144057973 96.703717240082398 -19.432330245315502 0.77419931067483283 20.546290716672313 28.946461995512692
leaf_weight=4117 583 927 201 221 174 109 354 703 270 225 447 57 525 335 424 1939 721 155 161
leaf_count=4117 583 927 201 221 174 109 354 703 270 225 447 57 525 335 424 1939 721 155 161
internal_value=0.13829 -13.9573 50.6261 74.3148 4.09661 59.1802 28.4027 12.6517 42.2204 79.4619 -23.3542 55.7397 8.90847 13.5702 90.407 -17.4341 -4.92231 36.7523 14.9539
internal_weight=12648 9888 2760 1335 3385 690 1425 1737 681 334 6503 411 1563 1038 645 2386 1648 356 744
internal_count=12648 9888 2760 1335 3385 690 1425 1737 681 334 6503 411 1563 1038 645 2386 1648 356 744
cat_boundaries=0 1 2 3 4 5 6 7 8 9 10
cat_threshold=14 14 448 30 192 56 30 448 14 8
is_linear=0
shrinkage=0.0210985


Tree=44
num_leaves=20
num_cat=9
split_feature=7 7 0 2 3 3 6 0 3 4 2 8 2 2 3 0 0 7 2
split_gain=1.94027e+10 4.93907e+09 1.9763e+09 9.2096e+08 7.31167e+08 6.72741e+08 6.42681e+08 3.80247e+08 2.4692e+08 2.17042e+08 2.02864e+08 1.76887e+08 1.7369e+08 1.30463e+08 1.14031e+08 1.08032e+08 1.03246e+08 9.41008e+07 7.45215e+07
threshold=6.8150000000000004 6.0750000000000011 1.6150000000000004 0 1 2 5.2650000000000006 1.4850000000000001 3 64.15000000000002 4 4.9450000000000012 5 6 7 1.0350000000000004 0.37500000000000006 7.2350000000000012 8
decision_type=2 2 2 1 1 1 2 2 1 2 1 2 1 1 1 2 2 2 1
left_child=1 6 3 5 13 -2 16 -7 10 11 -6 -4 17 -3 18 -12 -1 -5 -8
right_child=2 4 9 12 8 7 14 -9 -10 -11 15 -13 -14 -15 -16 -17 -18 -19 -20
leaf_value=-27.639790049824519 21.126668408834824 59.619328138044629 75.439653484926936 22.500619311379157 -3.4096695080029424 55.023791660241052 0.55179431524716827 91.923970544925311 -1.0245965662170262 43.457880033043168 11.82185904927603 97.427655725591293 3.515808130608022 22.152455847269628 -14.599564098144205 23.9157910016465 -21.660917724671243 40.341629852204363 -13.833496208144439
leaf_weight=2791 180 145 311 297 297 245 481 265 899 55 996 405 155 118 1608 493 2433 243 231
leaf_count=2791 180 145 311 297 297 245 481 265 899 55 996 405 155 118 1608 493 2433 243 231
internal_value=0.140372 -11.7066 57.7745 42.6586 11.4481 59.9227 -20.7551 72.8906 8.01727 84.852 12.5473 87.9769 24.2572 44.3518 -11.5081 15.7318 -24.8592 30.0243 -4.25281
internal_weight=12648 10492 2156 1385 2948 690 7544 510 2685 771 1786 716 695 263 2320 1489 5224 540 712
internal_count=12648 10492 2156 1385 2948 690 7544 510 2685 771 1786 716 695 263 2320 1489 5224 540 712
cat_boundaries=0 1 2 3 4 5 6 7 8 9
cat_threshold=30 448 6 56 192 96 14 480 30
is_linear=0
shrinkage=0.0210985


Tree=45
num_leaves=20
num_cat=8
split_feature=0 7 7 3 7 3 7 2 2 0 8 2 3 3 4 2 8 0 8
split_gain=1.85948e+10 3.94286e+09 2.65142e+09 6.90828e+08 6.63985e+08 6.62823e+08 3.80553e+08 3.57845e+08 2.97014e+08 2.92122e+08 2.65214e+08 1.87877e+08 1.78101e+08 1.21816e+08 8.46212e+07 7.6043e+07 6.51353e+07 4.53711e+07 4.27876e+07
threshold=1.0350000000000004 7.2750000000000012 5.745000000000001 0 7.7650000000000006 1 6.2250000000000005 2 3 1.3050000000000004 3.0950000000000002 4 5 6 63.250000000000007 7 4.9850000000000012 0.9850000000000001 4.6650000000000009
decision_type=2 2 2 1 2 1 2 1 1 2 2 1 1 1 2 1 2 2 2
left_child=2 3 10 -2 5 13 15 -7 -5 12 -1 17 -10 18 16 -4 -6 -8 -3
right_child=1 4 6 8 14 7 11 -9 9 -11 -12 -13 -14 -15 -16 -17 -18 -19 -20
leaf_value=-25.63265591100561 59.067569760274743 44.251614670089765 -16.599449908046019 4.2410295627756334 81.12022734247013 39.451781292919534 3.3957258636074923 96.893920356040766 31.341816210433581 48.199446560538803 -16.73941235915467 -3.3103296202657733 12.771079756569151 19.4915083013714 67.12527536800431 -3.4704288767934677 99.133628672541178 16.104375846951591 66.956674912576844
leaf_weight=4154 219 171 226 447 175 123 146 247 405 200 2342 370 645 171 78 1279 305 893 53
leaf_count=4154 219 171 226 447 175 123 146 247 405 200 2342 370 645 171 78 1279 305 893 53
internal_value=0.0797377 43.6753 -14.9288 24.3148 71.6804 58.7818 1.79252 79.4652 19.341 24.6578 -22.429 9.66966 20.3733 36.3536 89.2488 -5.58344 92.7199 14.1863 47.7317
internal_weight=12649 3239 9410 1916 1323 765 2914 370 1697 1250 6496 1409 1050 395 558 1505 480 1039 224
internal_count=12649 3239 9410 1916 1323 765 2914 370 1697 1250 6496 1409 1050 395 558 1505 480 1039 224
cat_boundaries=0 1 2 3 4 5 6 7 8
cat_threshold=448 14 192 192 30 48 8 192
is_linear=0
shrinkage=0.0210985


Tree=46
num_leaves=20
num_cat=8
split_feature=0 7 7 7 3 2 0 2 0 3 8 2 3 4 0 2 8 8 2
split_gain=1.78348e+10 3.59596e+09 2.70868e+09 6.36986e+08 6.32552e+08 5.39889e+08 3.99186e+08 2.83166e+08 2.64538e+08 2.59485e+08 2.54171e+08 1.97192e+08 1.56384e+08 1.09554e+08 8.30404e+07 7.99534e+07 6.54634e+07 4.683e+07 4.35715e+07
threshold=1.0450000000000002 7.2750000000000012 5.745000000000001 7.6650000000000009 0 1 0.9850000000000001 2 1.3050000000000004 3 3.0850000000000004 4 5 63.95000000000001 2.2850000000000006 6 4.6150000000000011 4.7150000000000007 7
decision_type=2 2 2 2 1 1 2 1 2 1 2 1 1 2 2 1 2 2 1
left_child=2 4 10 5 -2 -3 15 -6 12 -7 -1 18 -9 14 17 -4 -11 -5 -8
right_child=1 3 6 13 7 9 11 8 -10 16 -12 -13 -14 -15 -16 -17 -18 -19 -20
leaf_value=-25.122594005367436 58.769562258899242 33.669552495521906 -15.386269554516527 63.748962106489522 4.4731780703380055 101.14080350705051 25.938258993747752 31.12855801293162 47.186775307732461 45.256677318889878 -16.439505062876698 -3.0899464842104982 12.946815180398868 54.533601881604959 110.94082782092401 -2.6750396595105643 74.187981267434623 87.187785767553478 12.959405755647925
leaf_weight=4125 205 344 254 54 430 151 162 379 200 144 2371 350 591 52 72 1406 50 456 853
leaf_count=4125 205 344 254 54 430 151 162 379 200 144 2371 350 591 52 72 1406 50 456 853
internal_value=0.0829332 43.7845 -14.2773 70.1998 24.3993 56.0176 2.21362 19.4782 24.9011 75.0217 -21.9559 10.6624 20.5257 85.5176 88.203 -4.73559 50.4144 84.8153 15.2832
internal_weight=12649 3128 9521 1323 1805 689 3025 1600 1170 345 6496 1365 970 634 582 1660 194 510 1015
internal_count=12649 3128 9521 1323 1805 689 3025 1600 1170 345 6496 1365 970 634 582 1660 194 510 1015
cat_boundaries=0 1 2 3 4 5 6 7 8
cat_threshold=448 224 192 112 30 48 192 2
is_linear=0
shrinkage=0.0210985


Tree=47
num_leaves=20
num_cat=9
split_feature=7 7 0 2 6 3 3 0 3 4 2 2 8 8 6 3 2 7 2
split_gain=1.71184e+10 4.35052e+09 1.78294e+09 8.52192e+08 6.41483e+08 6.2429e+08 6.19519e+08 4.66767e+08 2.26633e+08 2.08673e+08 1.62402e+08 1.484e+08 1.43199e+08 1.26219e+08 1.13894e+08 1.10681e+08 9.97023e+07 8.66019e+07 8.00962e+07
threshold=6.8150000000000004 6.1350000000000007 1.6150000000000004 0 5.3550000000000013 1 2 1.4850000000000001 3 64.15000000000002 4 5 4.9850000000000012 4.3650000000000011 4.6950000000000012 6 7 7.2350000000000012 8
decision_type=2 2 2 1 2 1 1 2 1 2 1 1 2 2 2 1 1 2 1
left_child=1 4 3 6 14 16 13 -8 11 12 17 -7 -4 -2 -1 -6 -3 -5 -17
right_child=2 5 9 10 15 8 7 -9 -10 -11 -12 -13 -14 -15 -16 18 -18 -19 -20
leaf_value=-25.75081879373106 15.142746139296701 56.383880530558898 73.59323564730596 20.888030370886753 -14.288798602894357 22.864084981438051 57.03495352739732 106.15494459575497 3.603029063326602 39.506278981927153 2.7470207687437482 3.8777194460286033 93.402681910033223 43.205075036904113 -19.62800496385406 -0.77221134756861032 21.632617793026988 38.009134643187167 -12.848474719309678
leaf_weight=3035 108 141 359 296 1088 599 195 160 1659 54 157 286 349 217 2477 760 112 243 354
leaf_count=3035 108 141 359 296 1088 599 195 160 1659 54 157 286 349 217 2477 760 112 243 354
internal_value=0.0865035 -10.9842 54.4963 40.1165 -19.1572 11.5553 56.8932 77.2029 8.26317 80.3899 22.5366 16.8496 83.4575 32.9324 -23.0028 -9.52592 42.5212 28.133 -4.69661
internal_weight=12649 10511 2138 1376 7714 2797 680 355 2544 762 696 885 708 325 5512 2202 253 539 1114
internal_count=12649 10511 2138 1376 7714 2797 680 355 2544 762 696 885 708 325 5512 2202 253 539 1114
cat_boundaries=0 1 2 3 4 5 6 7 8 9
cat_threshold=30 448 14 48 96 30 14 14 30
is_linear=0
shrinkage=0.0210985


Tree=48
num_leaves=20
num_cat=10
split_feature=0 7 7 3 7 3 7 2 3 3 0 2 8 2 3 8 8 3 3
split_gain=1.64235e+10 3.46505e+09 2.3332e+09 6.2106e+08 5.87953e+08 6.31382e+08 3.61782e+08 2.67473e+08 2.63485e+08 2.54406e+08 2.43637e+08 2.35124e+08 2.09382e+08 1.74791e+08 1.34586e+08 1.33558e+08 1.1556e+08 8.90124e+07 8.13363e+07
threshold=1.0350000000000004 7.2750000000000012 5.7250000000000005 0 8.0250000000000004 1 6.2250000000000005 2 3 4 1.2450000000000003 5 3.0850000000000004 6 7 4.7550000000000008 4.7250000000000005 8 9
decision_type=2 2 2 1 2 1 2 1 1 1 2 1 2 1 1 2 2 1 1
left_child=2 3 12 -2 5 14 17 -5 10 -8 -9 -7 -1 -11 15 -3 -13 -4 -14
right_child=1 4 6 7 -6 11 9 8 -10 13 -12 16 18 -15 -16 -17 -18 -19 -20
leaf_value=-24.083704519009231 55.853278939241953 44.57757533428645 -9.9978597409648167 3.8735748328673028 88.236588593009856 102.8295839384936 1.4855135800239447 24.064034165072279 9.1424817485906686 31.808238611989616 50.740330969996997 50.097380824270431 -7.1979174492709967 7.7357658677743562 23.830740414738621 82.734878522007378 85.887534137488686 -0.044679005921793073 -18.016636929081162
leaf_weight=4125 219 214 888 447 414 171 837 621 426 276 203 186 429 296 232 52 54 731 1828
leaf_count=4125 219 214 888 447 414 171 837 621 426 276 203 186 429 296 232 52 54 731 1828
internal_value=0.0868039 41.0581 -14.0183 22.9085 67.3116 57.7085 1.23395 18.1951 23.2392 9.04862 30.3136 77.6817 -21.2541 19.7268 38.7865 50.3864 56.0935 -5.56824 -16.0754
internal_weight=12649 3239 9410 1916 1323 909 3028 1697 1250 1409 824 411 6382 572 498 266 240 1619 2257
internal_count=12649 3239 9410 1916 1323 909 3028 1697 1250 1409 824 411 6382 572 498 266 240 1619 2257
cat_boundaries=0 1 2 3 4 5 6 7 8 9 10
cat_threshold=448 14 192 56 14 28 14 8 14 448
is_linear=0
shrinkage=0.0210985


Tree=49
num_leaves=20
num_cat=10
split_feature=0 0 7 3 7 2 3 3 7 2 6 7 4 3 3 2 0 2 3
split_gain=1.57542e+10 4.53184e+09 1.20081e+09 8.23718e+08 6.9221e+08 6.65733e+08 4.95358e+08 2.7035e+08 1.69088e+08 1.52304e+08 1.35567e+08 9.85063e+07 9.71727e+07 9.26186e+07 8.75706e+07 8.57818e+07 7.81324e+07 7.76978e+07 7.76258e+07
threshold=1.0050000000000001 1.4850000000000001 5.5850000000000009 0 7.6650000000000009 1 2 3 6.1350000000000007 4 4.7150000000000007 6.7750000000000012 63.95000000000001 5 6 7 2.2850000000000006 8 9
decision_type=2 2 2 1 2 1 1 1 2 1 2 2 2 1 1 1 2 1 1
left_child=2 3 10 15 5 18 -7 9 13 -5 -1 -11 16 -4 -10 -2 -6 -15 -3
right_child=1 4 8 7 12 6 -8 -9 14 11 -12 -13 -14 17 -16 -17 -18 -19 -20
leaf_value=-24.596460596466024 64.657818396332942 17.958511296099015 -12.693054564459139 4.3989834378688073 79.620552046412811 43.744111679475502 98.240533122321878 7.3256971856080133 -7.0030617471443062 22.071470146146311 -18.151989829879621 39.516024224705802 51.186323540512724 -15.564590029473317 7.7864760346631066 31.190992991655929 104.8449561703729 -0.017373575765168816 39.880711256426316
leaf_weight=3135 153 211 932 188 510 231 186 1455 246 503 2740 205 52 168 583 147 72 726 206
leaf_count=3135 153 211 932 188 510 231 186 1455 246 503 2740 205 52 168 583 147 72 726 206
internal_value=0.0891784 33.9696 -16.2729 17.4915 63.6995 50.9664 69.9255 13.0693 -4.49528 22.1972 -21.5939 26.7856 80.3594 -8.0817 3.40455 49.9191 82.8882 -3.09052 29.5244
internal_weight=12649 4119 8530 2651 1468 834 417 2351 2655 896 5875 708 634 1826 829 300 582 894 417
internal_count=12649 4119 8530 2651 1468 834 417 2351 2655 896 5875 708 634 1826 829 300 582 894 417
cat_boundaries=0 1 2 3 4 5 6 7 8 9 10
cat_threshold=448 224 14 48 192 14 6 14 192 12
is_linear=0
shrinkage=0.0210985


Tree=50
num_leaves=20
num_cat=10
split_feature=7 7 7 3 7 3 2 7 3 8 3 2 2 7 2 4 8 3 3
split_gain=1.50214e+10 3.46975e+09 1.8438e+09 6.35062e+08 5.62197e+08 5.25483e+08 4.12335e+08 2.48597e+08 2.38476e+08 1.94613e+08 1.79164e+08 1.53842e+08 1.38526e+08 1.1828e+08 1.11574e+08 1.00462e+08 9.01211e+07 8.16624e+07 8.06702e+07
threshold=6.4750000000000005 7.2350000000000012 5.7250000000000005 0 7.6650000000000009 1 2 6.1350000000000007 3 3.0950000000000002 4 5 6 6.9850000000000012 7 64.050000000000011 4.9850000000000012 8 9
decision_type=2 2 2 1 2 1 1 2 1 2 1 1 1 2 1 2 2 1 1
left_child=2 3 9 -2 5 14 -7 17 12 -1 -9 -12 -5 -14 -3 16 -6 -4 -11
right_child=1 4 7 8 15 6 -8 10 -10 18 11 -13 13 -15 -16 -17 -18 -19 -20
leaf_value=-23.055275845661093 51.689094289830535 46.221285318191391 -11.148153590723636 7.3949800038006979 69.627704519414849 95.527526815248237 41.12806768397715 0.26521811528674577 9.5076957641112525 -6.4992875518168924 27.678852159065979 5.1653110052393583 27.023404411578337 54.605790472771695 19.780624252538686 47.869432003879616 87.481570030525958 -0.64348010877985506 -17.257157549035579
leaf_weight=4146 244 153 700 173 243 174 188 864 1151 426 251 314 463 82 243 51 344 629 1805
leaf_count=4146 244 153 700 173 243 174 188 864 1151 426 251 314 463 82 243 51 344 629 1805
internal_value=0.137054 37.2364 -14.1159 20.1703 63.0401 50.6426 69.2935 0.297635 15.6738 -20.3489 6.40453 15.4998 25.27 30.6891 30.9559 77.6831 80.201 -6.26866 -15.3127
internal_weight=12644 3509 9135 2113 1396 758 362 2758 1869 6377 1429 565 718 545 396 638 587 1329 2231
internal_count=12644 3509 9135 2113 1396 758 362 2758 1869 6377 1429 565 718 545 396 638 587 1329 2231
cat_boundaries=0 1 2 3 4 5 6 7 8 9 10
cat_threshold=448 14 30 48 14 14 192 14 14 448
is_linear=0
shrinkage=0.0210985


Tree=51
num_leaves=20
num_cat=8
split_feature=7 7 7 3 2 0 7 3 3 2 0 6 0 8 2 3 8 7 3
split_gain=1.44147e+10 2.71043e+09 2.31074e+09 5.66591e+08 4.84111e+08 4.1037e+08 3.65086e+08 5.1593e+08 3.38726e+08 3.05615e+08 2.17053e+08 2.07919e+08 2.07339e+08 1.39357e+08 1.21283e+08 1.0787e+08 9.39769e+07 7.98681e+07 7.96484e+07
threshold=6.6350000000000007 5.745000000000001 7.3650000000000011 0 1 0.9850000000000001 8.0250000000000004 2 3 4 1.7750000000000001 5.0850000000000009 1.2950000000000002 4.3850000000000007 5 6 4.3050000000000006 7.5250000000000012 7
decision_type=2 2 2 1 1 2 2 1 1 1 2 2 2 2 1 1 2 2 1
left_child=1 11 3 16 12 -3 7 -4 -7 10 -9 -1 -5 -6 15 -10 -2 -11 -13
right_child=2 5 6 4 13 8 -8 9 14 17 -12 18 -14 -15 -16 -17 -18 -19 -20
leaf_value=-22.421543865220521 9.2181726571155025 -4.0188258454480605 23.037619135680895 57.049386009539859 21.835039973196469 37.748066147677456 81.846189964153936 39.791735379641601 20.001028845598409 81.688424434196662 85.42058964286025 -5.4178892649231054 104.46203407060077 46.365230370764436 -1.2298894134529414 5.9347307485670946 23.896053548477276 109.58484021387717 -16.314772124519607
leaf_weight=4313 550 1655 195 173 408 174 418 227 400 131 59 401 56 139 504 670 301 94 1776
leaf_count=4313 550 1655 195 173 408 174 418 227 400 131 59 401 56 139 504 670 301 94 1776
internal_value=0.139396 -11.7405 42.8518 26.7576 39.7366 3.51003 66.1108 56.7079 10.6368 67.7242 47.7629 -19.7365 66.108 27.626 7.33492 11.3411 14.2609 89.735 -14.4103
internal_weight=12644 9893 2751 1627 776 3403 1124 706 1748 511 286 6490 229 547 1574 1070 851 225 2177
internal_count=12644 9893 2751 1627 776 3403 1124 706 1748 511 286 6490 229 547 1574 1070 851 225 2177
cat_boundaries=0 1 2 3 4 5 6 7 8
cat_threshold=14 14 6 448 224 30 48 448
is_linear=0
shrinkage=0.0210985


Tree=52
num_leaves=20
num_cat=10
split_feature=7 0 7 3 7 3 2 7 3 2 6 3 2 2 7 4 8 3 3
split_gain=1.38187e+10 3.19358e+09 1.69285e+09 6.22363e+08 5.74531e+08 6.0087e+08 4.27957e+08 2.42505e+08 1.85855e+08 1.83901e+08 1.69726e+08 1.6608e+08 1.45356e+08 1.43542e+08 1.06207e+08 9.3928e+07 8.48661e+07 7.8688e+07 7.78946e+07
threshold=6.4750000000000005 1.4850000000000001 5.7150000000000007 0 7.6650000000000009 1 2 6.1350000000000007 3 4 4.7650000000000006 5 6 7 6.8950000000000005 64.050000000000011 4.9850000000000012 8 9
decision_type=2 2 2 1 2 1 1 2 1 1 2 1 1 1 2 2 2 1 1
left_child=2 3 10 -2 5 13 -7 17 9 -5 -1 -9 -13 -3 -11 16 -6 -4 -12
right_child=1 4 7 8 15 6 -8 11 -10 14 18 12 -14 -15 -16 -17 -18 -19 -20
